<?xml version="1.0" encoding="US-ASCII"?>
<!--
Bayesian network in XMLBIF v0.3 (BayesNet Interchange Format)
Produced by BNJ 3.0 (http://bndev.sourceforge.net/
-->
		<!-- DTD for the XMLBIF 0.3 format -->
<!DOCTYPE BIF [
<!ELEMENT BIF ( NETWORK )*>
<!ATTLIST BIF VERSION CDATA #REQUIRED>
<!ELEMENT NETWORK ( NAME, ( PROPERTY | VARIABLE | DEFINITION )* )>
<!ELEMENT NAME (#PCDATA)>
<!ELEMENT VARIABLE ( NAME, ( OUTCOME |  PROPERTY )* ) >
	<!ATTLIST VARIABLE TYPE (nature|decision|utility) "nature">
<!ELEMENT OUTCOME (#PCDATA)>
<!ELEMENT DEFINITION ( FOR | GIVEN | TABLE | PROPERTY )* >
<!ELEMENT FOR (#PCDATA)>
<!ELEMENT GIVEN (#PCDATA)>
<!ELEMENT TABLE (#PCDATA)>
<!ELEMENT PROPERTY (#PCDATA)>
]>
<BIF VERSION="0.3">
<NETWORK>
<NAME>bayesiannetwork</NAME>
	<VARIABLE TYPE="nature">
		<NAME>KINKEDTUBE</NAME>
		<OUTCOME>TRUE</OUTCOME>
		<OUTCOME>FALSE</OUTCOME>
		<PROPERTY>position = (686,206)</PROPERTY>
	</VARIABLE>
	<VARIABLE TYPE="nature">
		<NAME>FIO2</NAME>
		<OUTCOME>LOW</OUTCOME>
		<OUTCOME>NORMAL</OUTCOME>
		<PROPERTY>position = (252,273)</PROPERTY>
	</VARIABLE>
	<VARIABLE TYPE="nature">
		<NAME>PVSAT</NAME>
		<OUTCOME>LOW</OUTCOME>
		<OUTCOME>NORMAL</OUTCOME>
		<OUTCOME>HIGH</OUTCOME>
		<PROPERTY>position = (274,383)</PROPERTY>
	</VARIABLE>
	<VARIABLE TYPE="nature">
		<NAME>SAO2</NAME>
		<OUTCOME>LOW</OUTCOME>
		<OUTCOME>NORMAL</OUTCOME>
		<OUTCOME>HIGH</OUTCOME>
		<PROPERTY>position = (135,296)</PROPERTY>
	</VARIABLE>
	<VARIABLE TYPE="nature">
		<NAME>PULMEMBOLUS</NAME>
		<OUTCOME>TRUE</OUTCOME>
		<OUTCOME>FALSE</OUTCOME>
		<PROPERTY>position = (383,98)</PROPERTY>
	</VARIABLE>
	<VARIABLE TYPE="nature">
		<NAME>SHUNT</NAME>
		<OUTCOME>NORMAL</OUTCOME>
		<OUTCOME>HIGH</OUTCOME>
		<PROPERTY>position = (244,178)</PROPERTY>
	</VARIABLE>
	<VARIABLE TYPE="nature">
		<NAME>INTUBATION</NAME>
		<OUTCOME>NORMAL</OUTCOME>
		<OUTCOME>ESOPHAGEAL</OUTCOME>
		<OUTCOME>ONESIDED</OUTCOME>
		<PROPERTY>position = (480,197)</PROPERTY>
	</VARIABLE>
	<VARIABLE TYPE="nature">
		<NAME>DISCONNECT</NAME>
		<OUTCOME>TRUE</OUTCOME>
		<OUTCOME>FALSE</OUTCOME>
		<PROPERTY>position = (816,268)</PROPERTY>
	</VARIABLE>
	<VARIABLE TYPE="nature">
		<NAME>MINVOLSET</NAME>
		<OUTCOME>LOW</OUTCOME>
		<OUTCOME>NORMAL</OUTCOME>
		<OUTCOME>HIGH</OUTCOME>
		<PROPERTY>position = (749,482)</PROPERTY>
	</VARIABLE>
	<VARIABLE TYPE="nature">
		<NAME>VENTMACH</NAME>
		<OUTCOME>ZERO</OUTCOME>
		<OUTCOME>LOW</OUTCOME>
		<OUTCOME>NORMAL</OUTCOME>
		<OUTCOME>HIGH</OUTCOME>
		<PROPERTY>position = (672,406)</PROPERTY>
	</VARIABLE>
	<VARIABLE TYPE="nature">
		<NAME>VENTTUBE</NAME>
		<OUTCOME>ZERO</OUTCOME>
		<OUTCOME>LOW</OUTCOME>
		<OUTCOME>NORMAL</OUTCOME>
		<OUTCOME>HIGH</OUTCOME>
		<PROPERTY>position = (674,320)</PROPERTY>
	</VARIABLE>
	<VARIABLE TYPE="nature">
		<NAME>VENTLUNG</NAME>
		<OUTCOME>ZERO</OUTCOME>
		<OUTCOME>LOW</OUTCOME>
		<OUTCOME>NORMAL</OUTCOME>
		<OUTCOME>HIGH</OUTCOME>
		<PROPERTY>position = (530,283)</PROPERTY>
	</VARIABLE>
	<VARIABLE TYPE="nature">
		<NAME>VENTALV</NAME>
		<OUTCOME>ZERO</OUTCOME>
		<OUTCOME>LOW</OUTCOME>
		<OUTCOME>NORMAL</OUTCOME>
		<OUTCOME>HIGH</OUTCOME>
		<PROPERTY>position = (369,274)</PROPERTY>
	</VARIABLE>
	<DEFINITION>
		<FOR>KINKEDTUBE</FOR>
		<TABLE>0.04 0.96 		</TABLE>	</DEFINITION>	<DEFINITION>
		<FOR>FIO2</FOR>
		<TABLE>0.05 0.95 		</TABLE>	</DEFINITION>	<DEFINITION>
		<FOR>PVSAT</FOR>
		<GIVEN>FIO2</GIVEN>
		<GIVEN>VENTALV</GIVEN>
		<TABLE>1.0 0.0 0.0 0.95 0.04 0.01 1.0 0.0 0.0 0.01 0.95 0.04 0.99 0.01 0.0 0.95 0.04 0.01 0.95 0.04 0.01 0.01 0.01 0.98 		</TABLE>	</DEFINITION>	<DEFINITION>
		<FOR>SAO2</FOR>
		<GIVEN>SHUNT</GIVEN>
		<TABLE>0.3333333333333333 0.3333333333333333 0.3333333333333333 0.8833333333333334 0.10666666666666669 0.010000000000000002 		</TABLE>	</DEFINITION>	<DEFINITION>
		<FOR>PULMEMBOLUS</FOR>
		<TABLE>0.01 0.99 		</TABLE>	</DEFINITION>	<DEFINITION>
		<FOR>SHUNT</FOR>
		<GIVEN>PULMEMBOLUS</GIVEN>
		<GIVEN>INTUBATION</GIVEN>
		<TABLE>0.1 0.9 0.95 0.05 0.1 0.9 0.95 0.05 0.01 0.99 0.05 0.95 		</TABLE>	</DEFINITION>	<DEFINITION>
		<FOR>INTUBATION</FOR>
		<TABLE>0.92 0.03 0.05 		</TABLE>	</DEFINITION>	<DEFINITION>
		<FOR>DISCONNECT</FOR>
		<TABLE>0.1 0.9 		</TABLE>	</DEFINITION>	<DEFINITION>
		<FOR>MINVOLSET</FOR>
		<TABLE>0.05 0.9 0.05 		</TABLE>	</DEFINITION>	<DEFINITION>
		<FOR>VENTMACH</FOR>
		<GIVEN>MINVOLSET</GIVEN>
		<TABLE>0.05 0.93 0.01 0.01 0.05 0.01 0.93 0.01 0.05 0.01 0.01 0.93 		</TABLE>	</DEFINITION>	<DEFINITION>
		<FOR>VENTTUBE</FOR>
		<GIVEN>DISCONNECT</GIVEN>
		<GIVEN>VENTMACH</GIVEN>
		<TABLE>0.97 0.01 0.01 0.01 0.97 0.01 0.01 0.01 0.97 0.01 0.01 0.01 0.01 0.01 0.97 0.01 0.97 0.01 0.01 0.01 0.97 0.01 0.01 0.01 0.01 0.97 0.01 0.01 0.01 0.01 0.01 0.97 		</TABLE>	</DEFINITION>	<DEFINITION>
		<FOR>VENTLUNG</FOR>
		<GIVEN>KINKEDTUBE</GIVEN>
		<GIVEN>INTUBATION</GIVEN>
		<GIVEN>VENTTUBE</GIVEN>
		<TABLE>0.97 0.01 0.01 0.01 0.97 0.01 0.01 0.01 0.97 0.01 0.01 0.01 0.97 0.01 0.01 0.01 0.3 0.68 0.01 0.01 0.95000005 0.030000001 0.010000001 0.010000001 0.01 0.01 0.01 0.97 0.01 0.97 0.01 0.01 0.95000005 0.030000001 0.010000001 0.010000001 0.97 0.01 0.01 0.01 0.01 0.97 0.01 0.01 0.97 0.01 0.01 0.01 0.97 0.01 0.01 0.01 0.5 0.48 0.01 0.01 0.97 0.01 0.01 0.01 0.01 0.01 0.97 0.01 0.4 0.58 0.01 0.01 0.97 0.01 0.01 0.01 0.01 0.01 0.97 0.01 0.97 0.01 0.01 0.01 0.97 0.01 0.01 0.01 0.3 0.68 0.01 0.01 0.97 0.01 0.01 0.01 0.01 0.01 0.01 0.97 		</TABLE>	</DEFINITION>	<DEFINITION>
		<FOR>VENTALV</FOR>
		<GIVEN>VENTLUNG</GIVEN>
		<TABLE>0.33000000000000007 0.33000000000000007 0.33000000000000007 0.010000000000000002 0.33 0.33 0.01 0.33 0.33 0.01 0.33 0.33 0.01666666670555556 0.9233333336877778 0.04999999945000001 0.010000000156666664 		</TABLE>	</DEFINITION></NETWORK>
</BIF>
