<?xml version="1.0" encoding="US-ASCII"?>
<!--
Bayesian network in XMLBIF v0.3 (BayesNet Interchange Format)
Produced by BNJ 3.0 (http://bndev.sourceforge.net/
-->
		<!-- DTD for the XMLBIF 0.3 format -->
<!DOCTYPE BIF [
<!ELEMENT BIF ( NETWORK )*>
<!ATTLIST BIF VERSION CDATA #REQUIRED>
<!ELEMENT NETWORK ( NAME, ( PROPERTY | VARIABLE | DEFINITION )* )>
<!ELEMENT NAME (#PCDATA)>
<!ELEMENT VARIABLE ( NAME, ( OUTCOME |  PROPERTY )* ) >
	<!ATTLIST VARIABLE TYPE (nature|decision|utility) "nature">
<!ELEMENT OUTCOME (#PCDATA)>
<!ELEMENT DEFINITION ( FOR | GIVEN | TABLE | PROPERTY )* >
<!ELEMENT FOR (#PCDATA)>
<!ELEMENT GIVEN (#PCDATA)>
<!ELEMENT TABLE (#PCDATA)>
<!ELEMENT PROPERTY (#PCDATA)>
]>
<BIF VERSION="0.3">
<NETWORK>
<NAME>Alarm</NAME>
	<VARIABLE TYPE="nature">
		<NAME>Hypovolemia</NAME>
		<OUTCOME>True</OUTCOME>
		<OUTCOME>False</OUTCOME>
		<PROPERTY>position = (54,35)</PROPERTY>
	</VARIABLE>
	<VARIABLE TYPE="nature">
		<NAME>StrokeVolume</NAME>
		<OUTCOME>Low</OUTCOME>
		<OUTCOME>Normal</OUTCOME>
		<OUTCOME>High</OUTCOME>
		<PROPERTY>position = (184,113)</PROPERTY>
	</VARIABLE>
	<VARIABLE TYPE="nature">
		<NAME>LVFailure</NAME>
		<OUTCOME>True</OUTCOME>
		<OUTCOME>False</OUTCOME>
		<PROPERTY>position = (145,36)</PROPERTY>
	</VARIABLE>
	<VARIABLE TYPE="nature">
		<NAME>LVEDVolume</NAME>
		<OUTCOME>Low</OUTCOME>
		<OUTCOME>Normal</OUTCOME>
		<OUTCOME>High</OUTCOME>
		<PROPERTY>position = (68,114)</PROPERTY>
	</VARIABLE>
	<VARIABLE TYPE="nature">
		<NAME>PCWP</NAME>
		<OUTCOME>Low</OUTCOME>
		<OUTCOME>Normal</OUTCOME>
		<OUTCOME>High</OUTCOME>
		<PROPERTY>position = (111,177)</PROPERTY>
	</VARIABLE>
	<VARIABLE TYPE="nature">
		<NAME>CVP</NAME>
		<OUTCOME>Low</OUTCOME>
		<OUTCOME>Normal</OUTCOME>
		<OUTCOME>High</OUTCOME>
		<PROPERTY>position = (32,179)</PROPERTY>
	</VARIABLE>
	<VARIABLE TYPE="nature">
		<NAME>History</NAME>
		<OUTCOME>True</OUTCOME>
		<OUTCOME>False</OUTCOME>
		<PROPERTY>position = (238,61)</PROPERTY>
	</VARIABLE>
	<VARIABLE TYPE="nature">
		<NAME>MinVolSet</NAME>
		<OUTCOME>Low</OUTCOME>
		<OUTCOME>Normal</OUTCOME>
		<OUTCOME>High</OUTCOME>
		<PROPERTY>position = (564,38)</PROPERTY>
	</VARIABLE>
	<VARIABLE TYPE="nature">
		<NAME>VentMach</NAME>
		<OUTCOME>Zero</OUTCOME>
		<OUTCOME>Low</OUTCOME>
		<OUTCOME>Normal</OUTCOME>
		<OUTCOME>High</OUTCOME>
		<PROPERTY>position = (640,86)</PROPERTY>
	</VARIABLE>
	<VARIABLE TYPE="nature">
		<NAME>Disconnect</NAME>
		<OUTCOME>True</OUTCOME>
		<OUTCOME>False</OUTCOME>
		<PROPERTY>position = (738,86)</PROPERTY>
	</VARIABLE>
	<VARIABLE TYPE="nature">
		<NAME>VentTube</NAME>
		<OUTCOME>Zero</OUTCOME>
		<OUTCOME>Low</OUTCOME>
		<OUTCOME>Normal</OUTCOME>
		<OUTCOME>High</OUTCOME>
		<PROPERTY>position = (682,168)</PROPERTY>
	</VARIABLE>
	<VARIABLE TYPE="nature">
		<NAME>KinkedTube</NAME>
		<OUTCOME>True</OUTCOME>
		<OUTCOME>False</OUTCOME>
		<PROPERTY>position = (564,172)</PROPERTY>
	</VARIABLE>
	<VARIABLE TYPE="nature">
		<NAME>Press</NAME>
		<OUTCOME>Zero</OUTCOME>
		<OUTCOME>Low</OUTCOME>
		<OUTCOME>Normal</OUTCOME>
		<OUTCOME>High</OUTCOME>
		<PROPERTY>position = (697,242)</PROPERTY>
	</VARIABLE>
	<VARIABLE TYPE="nature">
		<NAME>ErrLowOutput</NAME>
		<OUTCOME>True</OUTCOME>
		<OUTCOME>False</OUTCOME>
		<PROPERTY>position = (208,237)</PROPERTY>
	</VARIABLE>
	<VARIABLE TYPE="nature">
		<NAME>HRBP</NAME>
		<OUTCOME>Low</OUTCOME>
		<OUTCOME>Normal</OUTCOME>
		<OUTCOME>High</OUTCOME>
		<PROPERTY>position = (213,320)</PROPERTY>
	</VARIABLE>
	<VARIABLE TYPE="nature">
		<NAME>ErrCauter</NAME>
		<OUTCOME>True</OUTCOME>
		<OUTCOME>False</OUTCOME>
		<PROPERTY>position = (378,240)</PROPERTY>
	</VARIABLE>
	<VARIABLE TYPE="nature">
		<NAME>HREKG</NAME>
		<OUTCOME>Low</OUTCOME>
		<OUTCOME>Normal</OUTCOME>
		<OUTCOME>High</OUTCOME>
		<PROPERTY>position = (307,311)</PROPERTY>
	</VARIABLE>
	<VARIABLE TYPE="nature">
		<NAME>HRSat</NAME>
		<OUTCOME>Low</OUTCOME>
		<OUTCOME>Normal</OUTCOME>
		<OUTCOME>High</OUTCOME>
		<PROPERTY>position = (220,396)</PROPERTY>
	</VARIABLE>
	<VARIABLE TYPE="nature">
		<NAME>BP</NAME>
		<OUTCOME>Low</OUTCOME>
		<OUTCOME>Normal</OUTCOME>
		<OUTCOME>High</OUTCOME>
		<PROPERTY>position = (121,395)</PROPERTY>
	</VARIABLE>
	<VARIABLE TYPE="nature">
		<NAME>CO</NAME>
		<OUTCOME>Low</OUTCOME>
		<OUTCOME>Normal</OUTCOME>
		<OUTCOME>High</OUTCOME>
		<PROPERTY>position = (176,186)</PROPERTY>
	</VARIABLE>
	<VARIABLE TYPE="nature">
		<NAME>HR</NAME>
		<OUTCOME>Low</OUTCOME>
		<OUTCOME>Normal</OUTCOME>
		<OUTCOME>High</OUTCOME>
		<PROPERTY>position = (308,171)</PROPERTY>
	</VARIABLE>
	<VARIABLE TYPE="nature">
		<NAME>TPR</NAME>
		<OUTCOME>Low</OUTCOME>
		<OUTCOME>Normal</OUTCOME>
		<OUTCOME>High</OUTCOME>
		<PROPERTY>position = (38,315)</PROPERTY>
	</VARIABLE>
	<VARIABLE TYPE="nature">
		<NAME>Anaphylaxis</NAME>
		<OUTCOME>True</OUTCOME>
		<OUTCOME>False</OUTCOME>
		<PROPERTY>position = (31,239)</PROPERTY>
	</VARIABLE>
	<VARIABLE TYPE="nature">
		<NAME>InsuffAnesth</NAME>
		<OUTCOME>True</OUTCOME>
		<OUTCOME>False</OUTCOME>
		<PROPERTY>position = (329,37)</PROPERTY>
	</VARIABLE>
	<VARIABLE TYPE="nature">
		<NAME>PAP</NAME>
		<OUTCOME>Low</OUTCOME>
		<OUTCOME>Normal</OUTCOME>
		<OUTCOME>High</OUTCOME>
		<PROPERTY>position = (1045,292)</PROPERTY>
	</VARIABLE>
	<VARIABLE TYPE="nature">
		<NAME>PulmEmbolus</NAME>
		<OUTCOME>True</OUTCOME>
		<OUTCOME>False</OUTCOME>
		<PROPERTY>position = (1020,225)</PROPERTY>
	</VARIABLE>
	<VARIABLE TYPE="nature">
		<NAME>FiO2</NAME>
		<OUTCOME>Low</OUTCOME>
		<OUTCOME>Normal</OUTCOME>
		<PROPERTY>position = (1023,115)</PROPERTY>
	</VARIABLE>
	<VARIABLE TYPE="nature">
		<NAME>Catechol</NAME>
		<OUTCOME>Normal</OUTCOME>
		<OUTCOME>High</OUTCOME>
		<PROPERTY>position = (329,107)</PROPERTY>
	</VARIABLE>
	<VARIABLE TYPE="nature">
		<NAME>SaO2</NAME>
		<OUTCOME>Low</OUTCOME>
		<OUTCOME>Normal</OUTCOME>
		<OUTCOME>High</OUTCOME>
		<PROPERTY>position = (926,387)</PROPERTY>
	</VARIABLE>
	<VARIABLE TYPE="nature">
		<NAME>Shunt</NAME>
		<OUTCOME>Normal</OUTCOME>
		<OUTCOME>High</OUTCOME>
		<PROPERTY>position = (894,293)</PROPERTY>
	</VARIABLE>
	<VARIABLE TYPE="nature">
		<NAME>PVSat</NAME>
		<OUTCOME>Low</OUTCOME>
		<OUTCOME>Normal</OUTCOME>
		<OUTCOME>High</OUTCOME>
		<PROPERTY>position = (970,179)</PROPERTY>
	</VARIABLE>
	<VARIABLE TYPE="nature">
		<NAME>MinVol</NAME>
		<OUTCOME>Zero</OUTCOME>
		<OUTCOME>Low</OUTCOME>
		<OUTCOME>Normal</OUTCOME>
		<OUTCOME>High</OUTCOME>
		<PROPERTY>position = (830,401)</PROPERTY>
	</VARIABLE>
	<VARIABLE TYPE="nature">
		<NAME>ExpCO2</NAME>
		<OUTCOME>Zero</OUTCOME>
		<OUTCOME>Low</OUTCOME>
		<OUTCOME>Normal</OUTCOME>
		<OUTCOME>High</OUTCOME>
		<PROPERTY>position = (530,393)</PROPERTY>
	</VARIABLE>
	<VARIABLE TYPE="nature">
		<NAME>ArtCO2</NAME>
		<OUTCOME>Low</OUTCOME>
		<OUTCOME>Normal</OUTCOME>
		<OUTCOME>High</OUTCOME>
		<PROPERTY>position = (474,277)</PROPERTY>
	</VARIABLE>
	<VARIABLE TYPE="nature">
		<NAME>VentAlv</NAME>
		<OUTCOME>Zero</OUTCOME>
		<OUTCOME>Low</OUTCOME>
		<OUTCOME>Normal</OUTCOME>
		<OUTCOME>High</OUTCOME>
		<PROPERTY>position = (913,136)</PROPERTY>
	</VARIABLE>
	<VARIABLE TYPE="nature">
		<NAME>VentLung</NAME>
		<OUTCOME>Zero</OUTCOME>
		<OUTCOME>Low</OUTCOME>
		<OUTCOME>Normal</OUTCOME>
		<OUTCOME>High</OUTCOME>
		<PROPERTY>position = (706,344)</PROPERTY>
	</VARIABLE>
	<VARIABLE TYPE="nature">
		<NAME>Intubation</NAME>
		<OUTCOME>Normal</OUTCOME>
		<OUTCOME>Esophageal</OUTCOME>
		<OUTCOME>OneSided</OUTCOME>
		<PROPERTY>position = (843,86)</PROPERTY>
	</VARIABLE>
	<DEFINITION>
		<FOR>Hypovolemia</FOR>
		<TABLE>0.2 0.8 		</TABLE>	</DEFINITION>	<DEFINITION>
		<FOR>StrokeVolume</FOR>
		<GIVEN>Hypovolemia</GIVEN>
		<GIVEN>LVFailure</GIVEN>
		<TABLE>0.98 0.01 0.01 0.5 0.49 0.01 0.95 0.04 0.01 0.05 0.9 0.05 		</TABLE>	</DEFINITION>	<DEFINITION>
		<FOR>LVFailure</FOR>
		<TABLE>0.05 0.95 		</TABLE>	</DEFINITION>	<DEFINITION>
		<FOR>LVEDVolume</FOR>
		<GIVEN>Hypovolemia</GIVEN>
		<TABLE>0.965 0.025 0.01 0.030000000000000002 0.495 0.47500000000000003 		</TABLE>	</DEFINITION>	<DEFINITION>
		<FOR>PCWP</FOR>
		<GIVEN>LVEDVolume</GIVEN>
		<TABLE>0.95 0.04 0.01 0.04 0.95 0.01 0.01 0.04 0.95 		</TABLE>	</DEFINITION>	<DEFINITION>
		<FOR>CVP</FOR>
		<GIVEN>LVEDVolume</GIVEN>
		<TABLE>0.95 0.04 0.01 0.04 0.95 0.01 0.01 0.29 0.7 		</TABLE>	</DEFINITION>	<DEFINITION>
		<FOR>History</FOR>
		<GIVEN>LVFailure</GIVEN>
		<TABLE>0.9 0.1 0.01 0.99 		</TABLE>	</DEFINITION>	<DEFINITION>
		<FOR>MinVolSet</FOR>
		<TABLE>0.01 0.98 0.01 		</TABLE>	</DEFINITION>	<DEFINITION>
		<FOR>VentMach</FOR>
		<GIVEN>MinVolSet</GIVEN>
		<TABLE>0.01 0.97 0.01 0.01 0.01 0.01 0.97 0.01 0.01 0.01 0.01 0.97 		</TABLE>	</DEFINITION>	<DEFINITION>
		<FOR>Disconnect</FOR>
		<TABLE>0.05 0.95 		</TABLE>	</DEFINITION>	<DEFINITION>
		<FOR>VentTube</FOR>
		<GIVEN>VentMach</GIVEN>
		<GIVEN>Disconnect</GIVEN>
		<TABLE>0.97 0.01 0.01 0.01 0.97 0.01 0.01 0.01 0.97 0.01 0.01 0.01 0.01 0.97 0.01 0.01 0.97 0.01 0.01 0.01 0.01 0.01 0.97 0.01 0.97 0.01 0.01 0.01 0.01 0.01 0.01 0.97 		</TABLE>	</DEFINITION>	<DEFINITION>
		<FOR>KinkedTube</FOR>
		<TABLE>0.04 0.96 		</TABLE>	</DEFINITION>	<DEFINITION>
		<FOR>Press</FOR>
		<GIVEN>VentTube</GIVEN>
		<GIVEN>KinkedTube</GIVEN>
		<GIVEN>Intubation</GIVEN>
		<TABLE>0.97 0.01 0.01 0.01 0.01 0.49 0.3 0.2 0.01 0.01 0.08 0.9 0.01 0.01 0.01 0.97 0.97 0.01 0.01 0.01 0.1 0.84 0.05 0.01 0.05 0.25 0.25 0.45 0.01 0.15 0.25 0.59 0.97 0.01 0.01 0.01 0.01 0.29 0.3 0.4 0.01 0.01 0.08 0.9 0.01 0.01 0.01 0.97 0.97 0.01 0.01 0.01 0.01 0.97 0.01 0.01 0.01 0.01 0.97 0.01 0.01 0.01 0.01 0.97 0.97 0.01 0.01 0.01 0.4 0.58 0.01 0.01 0.2 0.75 0.04 0.01 0.2 0.7 0.09 0.01 0.97 0.01 0.01 0.01 0.01 0.9 0.08 0.01 0.01 0.01 0.38 0.6 0.01 0.01 0.01 0.97 		</TABLE>	</DEFINITION>	<DEFINITION>
		<FOR>ErrLowOutput</FOR>
		<TABLE>0.05 0.95 		</TABLE>	</DEFINITION>	<DEFINITION>
		<FOR>HRBP</FOR>
		<GIVEN>ErrLowOutput</GIVEN>
		<GIVEN>HR</GIVEN>
		<TABLE>0.98 0.01 0.01 0.4 0.59 0.01 0.3 0.4 0.3 0.98 0.01 0.01 0.01 0.98 0.01 0.01 0.01 0.98 		</TABLE>	</DEFINITION>	<DEFINITION>
		<FOR>ErrCauter</FOR>
		<TABLE>0.1 0.9 		</TABLE>	</DEFINITION>	<DEFINITION>
		<FOR>HREKG</FOR>
		<GIVEN>ErrCauter</GIVEN>
		<GIVEN>HR</GIVEN>
		<TABLE>0.333333 0.333333 0.333333 0.98 0.01 0.01 0.333333 0.333333 0.333333 0.01 0.98 0.01 0.333333 0.333333 0.333333 0.01 0.01 0.98 		</TABLE>	</DEFINITION>	<DEFINITION>
		<FOR>HRSat</FOR>
		<GIVEN>HR</GIVEN>
		<TABLE>0.17166658583329292 0.6566668283334143 0.17166658583329292 0.6566668283334143 0.17166658583329292 0.17166658583329292 0.17166658583329292 0.17166658583329292 0.6566668283334142 		</TABLE>	</DEFINITION>	<DEFINITION>
		<FOR>BP</FOR>
		<GIVEN>CO</GIVEN>
		<GIVEN>TPR</GIVEN>
		<TABLE>0.98 0.01 0.01 0.98 0.01 0.01 0.3 0.6 0.1 0.98 0.01 0.01 0.1 0.85 0.05 0.05 0.4 0.55 0.9 0.09 0.01 0.05 0.2 0.75 0.01 0.09 0.9 		</TABLE>	</DEFINITION>	<DEFINITION>
		<FOR>CO</FOR>
		<GIVEN>StrokeVolume</GIVEN>
		<GIVEN>HR</GIVEN>
		<TABLE>0.98 0.01 0.01 0.95 0.04 0.01 0.3 0.69 0.01 0.95 0.04 0.01 0.04 0.95 0.01 0.01 0.3 0.69 0.8 0.19 0.01 0.01 0.04 0.95 0.01 0.01 0.98 		</TABLE>	</DEFINITION>	<DEFINITION>
		<FOR>HR</FOR>
		<GIVEN>Catechol</GIVEN>
		<TABLE>0.1 0.89 0.01 0.01 0.09 0.9 		</TABLE>	</DEFINITION>	<DEFINITION>
		<FOR>TPR</FOR>
		<GIVEN>Anaphylaxis</GIVEN>
		<TABLE>0.98 0.01 0.01 0.3 0.4 0.3 		</TABLE>	</DEFINITION>	<DEFINITION>
		<FOR>Anaphylaxis</FOR>
		<TABLE>0.01 0.99 		</TABLE>	</DEFINITION>	<DEFINITION>
		<FOR>InsuffAnesth</FOR>
		<TABLE>0.2 0.8 		</TABLE>	</DEFINITION>	<DEFINITION>
		<FOR>PAP</FOR>
		<GIVEN>PulmEmbolus</GIVEN>
		<TABLE>0.01 0.19 0.8 0.05 0.9 0.05 		</TABLE>	</DEFINITION>	<DEFINITION>
		<FOR>PulmEmbolus</FOR>
		<TABLE>0.01 0.99 		</TABLE>	</DEFINITION>	<DEFINITION>
		<FOR>FiO2</FOR>
		<TABLE>0.01 0.99 		</TABLE>	</DEFINITION>	<DEFINITION>
		<FOR>Catechol</FOR>
		<GIVEN>InsuffAnesth</GIVEN>
		<GIVEN>ArtCO2</GIVEN>
		<TABLE>0.23777777777777778 0.7622222222222222 0.23777777777777778 0.7622222222222222 0.08444444444444446 0.9155555555555556 0.3455555555555556 0.6544444444444445 0.35000000000000003 0.65 0.18333333333333335 0.8166666666666668 		</TABLE>	</DEFINITION>	<DEFINITION>
		<FOR>SaO2</FOR>
		<GIVEN>Shunt</GIVEN>
		<TABLE>0.3333333333333333 0.3333333333333333 0.3333333333333333 0.8833333333333334 0.10666666666666669 0.010000000000000002 		</TABLE>	</DEFINITION>	<DEFINITION>
		<FOR>Shunt</FOR>
		<GIVEN>PulmEmbolus</GIVEN>
		<GIVEN>Intubation</GIVEN>
		<TABLE>0.1 0.9 0.1 0.9 0.01 0.99 0.95 0.05 0.95 0.05 0.05 0.95 		</TABLE>	</DEFINITION>	<DEFINITION>
		<FOR>PVSat</FOR>
		<GIVEN>FiO2</GIVEN>
		<GIVEN>VentAlv</GIVEN>
		<TABLE>0.98 0.01 0.01 0.98 0.01 0.01 0.98 0.01 0.01 0.98 0.01 0.01 0.95 0.04 0.01 0.01 0.95 0.04 0.95 0.04 0.01 0.01 0.01 0.98 		</TABLE>	</DEFINITION>	<DEFINITION>
		<FOR>MinVol</FOR>
		<GIVEN>VentLung</GIVEN>
		<TABLE>0.9700000000000002 0.010000000000000002 0.010000000000000002 0.010000000000000002 0.20666666666666667 0.7733333333333334 0.01 0.01 0.17333333333333337 0.16666666666666669 0.6500000000000001 0.010000000000000002 0.17333333333333334 0.16666666666666666 0.01 0.65 		</TABLE>	</DEFINITION>	<DEFINITION>
		<FOR>ExpCO2</FOR>
		<GIVEN>ArtCO2</GIVEN>
		<GIVEN>VentLung</GIVEN>
		<TABLE>0.97 0.01 0.01 0.01 0.01 0.97 0.01 0.01 0.01 0.97 0.01 0.01 0.01 0.97 0.01 0.01 0.97 0.01 0.01 0.01 0.01 0.01 0.97 0.01 0.01 0.01 0.97 0.01 0.01 0.01 0.97 0.01 0.97 0.01 0.01 0.01 0.01 0.01 0.01 0.97 0.01 0.01 0.01 0.97 0.01 0.01 0.01 0.97 		</TABLE>	</DEFINITION>	<DEFINITION>
		<FOR>ArtCO2</FOR>
		<TABLE>0.24 0.2575 0.5025 		</TABLE>	</DEFINITION>	<DEFINITION>
		<FOR>VentAlv</FOR>
		<GIVEN>Intubation</GIVEN>
		<TABLE>0.255 0.245 0.25 0.25 0.25000000000000006 0.48250000000000004 0.017500000000000005 0.25000000000000006 0.25 0.4675 0.2725 0.01 		</TABLE>	</DEFINITION>	<DEFINITION>
		<FOR>VentLung</FOR>
		<GIVEN>KinkedTube</GIVEN>
		<TABLE>0.7233333333333334 0.09666666666666669 0.17000000000000004 0.010000000000000004 0.535 0.28500000000000003 0.01 0.17 		</TABLE>	</DEFINITION>	<DEFINITION>
		<FOR>Intubation</FOR>
		<TABLE>0.92 0.03 0.05 		</TABLE>	</DEFINITION></NETWORK>
</BIF>
