<?xml version="1.0"?>

<!-- DTD for the XMLBIF 0.3 format -->
<!DOCTYPE BIF [
	<!ELEMENT BIF ( NETWORK )*>
		<!ATTLIST BIF VERSION CDATA #REQUIRED>
	<!ELEMENT NETWORK ( NAME, ( PROPERTY | VARIABLE | DEFINITION )* )>
	<!ELEMENT NAME (#PCDATA)>
	<!ELEMENT VARIABLE ( NAME, ( OUTCOME | PROPERTY )* ) >
		<!ATTLIST VARIABLE TYPE (nature|decision|utility) "nature">
	<!ELEMENT OUTCOME (#PCDATA)>
	<!ELEMENT DEFINITION ( FOR | GIVEN | TABLE | PROPERTY )* >
	<!ELEMENT FOR (#PCDATA)>
	<!ELEMENT GIVEN (#PCDATA)>
	<!ELEMENT TABLE (#PCDATA)>
	<!ELEMENT PROPERTY (#PCDATA)>
]>

<BIF VERSION="0.3">
	<NETWORK>
	<NAME>bayesiannetwork</NAME>
		<!-- Variables -->
		<VARIABLE TYPE="nature">
			<NAME>abdBruRigUpp</NAME>
			<OUTCOME>absent</OUTCOME>
			<OUTCOME>present</OUTCOME>
			<PROPERTY>position = (1852, 2512)</PROPERTY>
		</VARIABLE>
		<VARIABLE TYPE="nature">
			<NAME>abdBruSys</NAME>
			<OUTCOME>absent</OUTCOME>
			<OUTCOME>present</OUTCOME>
			<PROPERTY>position = (1899, 2249)</PROPERTY>
		</VARIABLE>
		<VARIABLE TYPE="nature">
			<NAME>abdBruCon</NAME>
			<OUTCOME>absent</OUTCOME>
			<OUTCOME>present</OUTCOME>
			<PROPERTY>position = (1896, 2365)</PROPERTY>
		</VARIABLE>
		<VARIABLE TYPE="nature">
			<NAME>abdPaiEpi</NAME>
			<OUTCOME>absent</OUTCOME>
			<OUTCOME>present</OUTCOME>
			<PROPERTY>position = (1259, 2291)</PROPERTY>
		</VARIABLE>
		<VARIABLE TYPE="nature">
			<NAME>abdPaiRigUpp</NAME>
			<OUTCOME>absent</OUTCOME>
			<OUTCOME>present</OUTCOME>
			<PROPERTY>position = (1345, 2229)</PROPERTY>
		</VARIABLE>
		<VARIABLE TYPE="nature">
			<NAME>abdPaiDurSub</NAME>
			<OUTCOME>false</OUTCOME>
			<OUTCOME>true</OUTCOME>
			<PROPERTY>position = (1113, 1917)</PROPERTY>
		</VARIABLE>
		<VARIABLE TYPE="nature">
			<NAME>abdPaiDurChr</NAME>
			<OUTCOME>false</OUTCOME>
			<OUTCOME>true</OUTCOME>
			<PROPERTY>position = (1219, 1640)</PROPERTY>
		</VARIABLE>
		<VARIABLE TYPE="nature">
			<NAME>abdPaiDurAcu</NAME>
			<OUTCOME>false</OUTCOME>
			<OUTCOME>true</OUTCOME>
			<PROPERTY>position = (1478, 2588)</PROPERTY>
		</VARIABLE>
		<VARIABLE TYPE="nature">
			<NAME>abdPaiExaAlc</NAME>
			<OUTCOME>false</OUTCOME>
			<OUTCOME>true</OUTCOME>
			<PROPERTY>position = (1338, 2957)</PROPERTY>
		</VARIABLE>
		<VARIABLE TYPE="nature">
			<NAME>abdPaiExaMea</NAME>
			<OUTCOME>false</OUTCOME>
			<OUTCOME>true</OUTCOME>
			<PROPERTY>position = (1308, 2815)</PROPERTY>
		</VARIABLE>
		<VARIABLE TYPE="nature">
			<NAME>abdPaiNatCol</NAME>
			<OUTCOME>none</OUTCOME>
			<OUTCOME>true</OUTCOME>
			<PROPERTY>position = (1437, 2537)</PROPERTY>
		</VARIABLE>
		<VARIABLE TYPE="nature">
			<NAME>abdPaiNatCol1</NAME>
			<OUTCOME>none</OUTCOME>
			<OUTCOME>true</OUTCOME>
			<PROPERTY>position = (1601, 2571)</PROPERTY>
		</VARIABLE>
		<VARIABLE TYPE="nature">
			<NAME>abdPaiAllAnt</NAME>
			<OUTCOME>false</OUTCOME>
			<OUTCOME>true</OUTCOME>
			<PROPERTY>position = (1292, 2297)</PROPERTY>
		</VARIABLE>
		<VARIABLE TYPE="nature">
			<NAME>abdPaiSev</NAME>
			<OUTCOME>absent</OUTCOME>
			<OUTCOME>mild</OUTCOME>
			<OUTCOME>moderate</OUTCOME>
			<OUTCOME>severe</OUTCOME>
			<PROPERTY>position = (1377, 2806)</PROPERTY>
		</VARIABLE>
		<VARIABLE TYPE="nature">
			<NAME>abdTendernes</NAME>
			<OUTCOME>absent</OUTCOME>
			<OUTCOME>preRigUppQua</OUTCOME>
			<PROPERTY>position = (1383, 2224)</PROPERTY>
		</VARIABLE>
		<VARIABLE TYPE="nature">
			<NAME>abdTenInvGua</NAME>
			<OUTCOME>absent</OUTCOME>
			<OUTCOME>present</OUTCOME>
			<PROPERTY>position = (1483, 2821)</PROPERTY>
		</VARIABLE>
		<VARIABLE TYPE="nature">
			<NAME>actParThrTim</NAME>
			<OUTCOME>btw-1.5-2</OUTCOME>
			<OUTCOME>gtr-than-2</OUTCOME>
			<PROPERTY>position = (114, 3023)</PROPERTY>
		</VARIABLE>
		<VARIABLE TYPE="nature">
			<NAME>age</NAME>
			<OUTCOME>gtr-than-55</OUTCOME>
			<OUTCOME>btw-26-55</OUTCOME>
			<OUTCOME>btw-16-25</OUTCOME>
			<PROPERTY>position = (1391, 2280)</PROPERTY>
		</VARIABLE>
		<VARIABLE TYPE="nature">
			<NAME>alcHepatitis</NAME>
			<OUTCOME>absent</OUTCOME>
			<OUTCOME>mild</OUTCOME>
			<OUTCOME>moderate</OUTCOME>
			<OUTCOME>severe</OUTCOME>
			<PROPERTY>position = (1602, 2328)</PROPERTY>
		</VARIABLE>
		<VARIABLE TYPE="nature">
			<NAME>anemia</NAME>
			<OUTCOME>absent</OUTCOME>
			<OUTCOME>mild</OUTCOME>
			<OUTCOME>moderate</OUTCOME>
			<OUTCOME>severe</OUTCOME>
			<PROPERTY>position = (1142, 1059)</PROPERTY>
		</VARIABLE>
		<VARIABLE TYPE="nature">
			<NAME>antAntTit</NAME>
			<OUTCOME>normal</OUTCOME>
			<OUTCOME>increased</OUTCOME>
			<PROPERTY>position = (1525, 1645)</PROPERTY>
		</VARIABLE>
		<VARIABLE TYPE="nature">
			<NAME>antMitAntTit</NAME>
			<OUTCOME>normal</OUTCOME>
			<OUTCOME>increased</OUTCOME>
			<PROPERTY>position = (1609, 1822)</PROPERTY>
		</VARIABLE>
		<VARIABLE TYPE="nature">
			<NAME>antThyRecTit</NAME>
			<OUTCOME>normal</OUTCOME>
			<OUTCOME>btw-250-2500</OUTCOME>
			<PROPERTY>position = (1135, 1636)</PROPERTY>
		</VARIABLE>
		<VARIABLE TYPE="nature">
			<NAME>appetite</NAME>
			<OUTCOME>normal</OUTCOME>
			<OUTCOME>decreased</OUTCOME>
			<PROPERTY>position = (1054, 2761)</PROPERTY>
		</VARIABLE>
		<VARIABLE TYPE="nature">
			<NAME>artImpMag</NAME>
			<OUTCOME>normal</OUTCOME>
			<OUTCOME>incGeneraliz</OUTCOME>
			<PROPERTY>position = (853, 268)</PROPERTY>
		</VARIABLE>
		<VARIABLE TYPE="nature">
			<NAME>ascCholangit</NAME>
			<OUTCOME>absent</OUTCOME>
			<OUTCOME>mild</OUTCOME>
			<OUTCOME>moderate</OUTCOME>
			<OUTCOME>severe</OUTCOME>
			<PROPERTY>position = (1849, 2434)</PROPERTY>
		</VARIABLE>
		<VARIABLE TYPE="nature">
			<NAME>bilDucObsHis</NAME>
			<OUTCOME>normal</OUTCOME>
			<OUTCOME>positive</OUTCOME>
			<PROPERTY>position = (2163, 2355)</PROPERTY>
		</VARIABLE>
		<VARIABLE TYPE="nature">
			<NAME>bilPluHepCan</NAME>
			<OUTCOME>absent</OUTCOME>
			<OUTCOME>present</OUTCOME>
			<PROPERTY>position = (431, 2604)</PROPERTY>
		</VARIABLE>
		<VARIABLE TYPE="nature">
			<NAME>gasBilTra</NAME>
			<OUTCOME>absent</OUTCOME>
			<OUTCOME>present</OUTCOME>
			<PROPERTY>position = (2180, 2539)</PROPERTY>
		</VARIABLE>
		<VARIABLE TYPE="nature">
			<NAME>bloCulPse</NAME>
			<OUTCOME>negative</OUTCOME>
			<OUTCOME>positive</OUTCOME>
			<PROPERTY>position = (2140, 2473)</PROPERTY>
		</VARIABLE>
		<VARIABLE TYPE="nature">
			<NAME>bloCulEnt</NAME>
			<OUTCOME>negative</OUTCOME>
			<OUTCOME>positive</OUTCOME>
			<PROPERTY>position = (2087, 2677)</PROPERTY>
		</VARIABLE>
		<VARIABLE TYPE="nature">
			<NAME>bloCulPro</NAME>
			<OUTCOME>negative</OUTCOME>
			<OUTCOME>positive</OUTCOME>
			<PROPERTY>position = (2123, 2558)</PROPERTY>
		</VARIABLE>
		<VARIABLE TYPE="nature">
			<NAME>bloCulKleEnt</NAME>
			<OUTCOME>negative</OUTCOME>
			<OUTCOME>positive</OUTCOME>
			<PROPERTY>position = (2027, 2700)</PROPERTY>
		</VARIABLE>
		<VARIABLE TYPE="nature">
			<NAME>bloCulCol</NAME>
			<OUTCOME>negative</OUTCOME>
			<OUTCOME>positive</OUTCOME>
			<PROPERTY>position = (2179, 2409)</PROPERTY>
		</VARIABLE>
		<VARIABLE TYPE="nature">
			<NAME>cholestasis</NAME>
			<OUTCOME>absent</OUTCOME>
			<OUTCOME>mild</OUTCOME>
			<OUTCOME>moderate</OUTCOME>
			<OUTCOME>severe</OUTCOME>
			<PROPERTY>position = (737, 2613)</PROPERTY>
		</VARIABLE>
		<VARIABLE TYPE="nature">
			<NAME>choBloInc</NAME>
			<OUTCOME>false</OUTCOME>
			<OUTCOME>true</OUTCOME>
			<PROPERTY>position = (466, 2696)</PROPERTY>
		</VARIABLE>
		<VARIABLE TYPE="nature">
			<NAME>colMucMem</NAME>
			<OUTCOME>normal</OUTCOME>
			<OUTCOME>abnormal</OUTCOME>
			<PROPERTY>position = (833, 1425)</PROPERTY>
		</VARIABLE>
		<VARIABLE TYPE="nature">
			<NAME>colMucMemCya</NAME>
			<OUTCOME>false</OUTCOME>
			<OUTCOME>true</OUTCOME>
			<PROPERTY>position = (353, 1713)</PROPERTY>
		</VARIABLE>
		<VARIABLE TYPE="nature">
			<NAME>colMucMemPal</NAME>
			<OUTCOME>false</OUTCOME>
			<OUTCOME>true</OUTCOME>
			<PROPERTY>position = (1302, 890)</PROPERTY>
		</VARIABLE>
		<VARIABLE TYPE="nature">
			<NAME>wbcNeuPer</NAME>
			<OUTCOME>normal</OUTCOME>
			<OUTCOME>increased</OUTCOME>
			<PROPERTY>position = (1526, 2547)</PROPERTY>
		</VARIABLE>
		<VARIABLE TYPE="nature">
			<NAME>copper-urine</NAME>
			<OUTCOME>normal</OUTCOME>
			<OUTCOME>increased</OUTCOME>
			<PROPERTY>position = (1092, 1677)</PROPERTY>
		</VARIABLE>
		<VARIABLE TYPE="nature">
			<NAME>crySerum</NAME>
			<OUTCOME>normal</OUTCOME>
			<OUTCOME>increased</OUTCOME>
			<PROPERTY>position = (1054, 1869)</PROPERTY>
		</VARIABLE>
		<VARIABLE TYPE="nature">
			<NAME>diarrhea</NAME>
			<OUTCOME>absent</OUTCOME>
			<OUTCOME>present</OUTCOME>
			<PROPERTY>position = (951, 2858)</PROPERTY>
		</VARIABLE>
		<VARIABLE TYPE="nature">
			<NAME>diaDurAcu</NAME>
			<OUTCOME>false</OUTCOME>
			<OUTCOME>true</OUTCOME>
			<PROPERTY>position = (1239, 2991)</PROPERTY>
		</VARIABLE>
		<VARIABLE TYPE="nature">
			<NAME>diaDurChr</NAME>
			<OUTCOME>false</OUTCOME>
			<OUTCOME>true</OUTCOME>
			<PROPERTY>position = (444, 2755)</PROPERTY>
		</VARIABLE>
		<VARIABLE TYPE="nature">
			<NAME>difInfGasMuc</NAME>
			<OUTCOME>absent</OUTCOME>
			<OUTCOME>present</OUTCOME>
			<PROPERTY>position = (1402, 2933)</PROPERTY>
		</VARIABLE>
		<VARIABLE TYPE="nature">
			<NAME>dirCooTes</NAME>
			<OUTCOME>normal</OUTCOME>
			<OUTCOME>positive</OUTCOME>
			<PROPERTY>position = (1457, 1602)</PROPERTY>
		</VARIABLE>
		<VARIABLE TYPE="nature">
			<NAME>druAbuHis</NAME>
			<OUTCOME>normal</OUTCOME>
			<OUTCOME>positive</OUTCOME>
			<PROPERTY>position = (629, 2220)</PROPERTY>
		</VARIABLE>
		<VARIABLE TYPE="nature">
			<NAME>dysResting</NAME>
			<OUTCOME>false</OUTCOME>
			<OUTCOME>true</OUTCOME>
			<PROPERTY>position = (943, 943)</PROPERTY>
		</VARIABLE>
		<VARIABLE TYPE="nature">
			<NAME>dysExertiona</NAME>
			<OUTCOME>false</OUTCOME>
			<OUTCOME>true</OUTCOME>
			<PROPERTY>position = (1138, 778)</PROPERTY>
		</VARIABLE>
		<VARIABLE TYPE="nature">
			<NAME>edema-legs</NAME>
			<OUTCOME>absent</OUTCOME>
			<OUTCOME>present</OUTCOME>
			<PROPERTY>position = (1605, 2012)</PROPERTY>
		</VARIABLE>
		<VARIABLE TYPE="nature">
			<NAME>edeGraSca</NAME>
			<OUTCOME>none-0</OUTCOME>
			<OUTCOME>btw-1-2</OUTCOME>
			<OUTCOME>btw-3-4</OUTCOME>
			<PROPERTY>position = (1648, 2022)</PROPERTY>
		</VARIABLE>
		<VARIABLE TYPE="nature">
			<NAME>edeBilateral</NAME>
			<OUTCOME>false</OUTCOME>
			<OUTCOME>true</OUTCOME>
			<PROPERTY>position = (1532, 2111)</PROPERTY>
		</VARIABLE>
		<VARIABLE TYPE="nature">
			<NAME>edeUnilatera</NAME>
			<OUTCOME>false</OUTCOME>
			<OUTCOME>true</OUTCOME>
			<PROPERTY>position = (1616, 2060)</PROPERTY>
		</VARIABLE>
		<VARIABLE TYPE="nature">
			<NAME>temSenIncCol</NAME>
			<OUTCOME>false</OUTCOME>
			<OUTCOME>true</OUTCOME>
			<PROPERTY>position = (863, 946)</PROPERTY>
		</VARIABLE>
		<VARIABLE TYPE="nature">
			<NAME>wbcEosCou</NAME>
			<OUTCOME>normal</OUTCOME>
			<OUTCOME>increased</OUTCOME>
			<PROPERTY>position = (702, 2468)</PROPERTY>
		</VARIABLE>
		<VARIABLE TYPE="nature">
			<NAME>extConMedInt</NAME>
			<OUTCOME>absent</OUTCOME>
			<OUTCOME>present</OUTCOME>
			<PROPERTY>position = (1249, 3396)</PROPERTY>
		</VARIABLE>
		<VARIABLE TYPE="nature">
			<NAME>jauFamHis</NAME>
			<OUTCOME>negative</OUTCOME>
			<OUTCOME>positive</OUTCOME>
			<PROPERTY>position = (1439, 1544)</PROPERTY>
		</VARIABLE>
		<VARIABLE TYPE="nature">
			<NAME>fatMetLiv</NAME>
			<OUTCOME>absent</OUTCOME>
			<OUTCOME>present</OUTCOME>
			<PROPERTY>position = (1918, 2308)</PROPERTY>
		</VARIABLE>
		<VARIABLE TYPE="nature">
			<NAME>fecGroInsGro</NAME>
			<OUTCOME>false</OUTCOME>
			<OUTCOME>true</OUTCOME>
			<PROPERTY>position = (1373, 3316)</PROPERTY>
		</VARIABLE>
		<VARIABLE TYPE="nature">
			<NAME>fecGroInsBla</NAME>
			<OUTCOME>false</OUTCOME>
			<OUTCOME>true</OUTCOME>
			<PROPERTY>position = (1203, 3353)</PROPERTY>
		</VARIABLE>
		<VARIABLE TYPE="nature">
			<NAME>fecGroInsLig</NAME>
			<OUTCOME>false</OUTCOME>
			<OUTCOME>true</OUTCOME>
			<PROPERTY>position = (417, 2664)</PROPERTY>
		</VARIABLE>
		<VARIABLE TYPE="nature">
			<NAME>fecGuaTes</NAME>
			<OUTCOME>normal</OUTCOME>
			<OUTCOME>positive</OUTCOME>
			<PROPERTY>position = (1077, 3372)</PROPERTY>
		</VARIABLE>
		<VARIABLE TYPE="nature">
			<NAME>fevVarWitTim</NAME>
			<OUTCOME>absent</OUTCOME>
			<OUTCOME>preIntermitt</OUTCOME>
			<PROPERTY>position = (1653, 2143)</PROPERTY>
		</VARIABLE>
		<VARIABLE TYPE="nature">
			<NAME>fevVarWitTim1</NAME>
			<OUTCOME>none</OUTCOME>
			<OUTCOME>btw-1-4-days</OUTCOME>
			<PROPERTY>position = (2151, 2613)</PROPERTY>
		</VARIABLE>
		<VARIABLE TYPE="nature">
			<NAME>fibIntBanWid</NAME>
			<OUTCOME>absent</OUTCOME>
			<OUTCOME>present</OUTCOME>
			<PROPERTY>position = (1133, 1823)</PROPERTY>
		</VARIABLE>
		<VARIABLE TYPE="nature">
			<NAME>fibWitLosHep</NAME>
			<OUTCOME>none</OUTCOME>
			<OUTCOME>slight</OUTCOME>
			<OUTCOME>moderate</OUTCOME>
			<OUTCOME>marked</OUTCOME>
			<PROPERTY>position = (1465, 2075)</PROPERTY>
		</VARIABLE>
		<VARIABLE TYPE="nature">
			<NAME>fibWitLosHep1</NAME>
			<OUTCOME>none</OUTCOME>
			<OUTCOME>moderate</OUTCOME>
			<OUTCOME>marked</OUTCOME>
			<PROPERTY>position = (1564, 1598)</PROPERTY>
		</VARIABLE>
		<VARIABLE TYPE="nature">
			<NAME>fibWitLosHep2</NAME>
			<OUTCOME>none</OUTCOME>
			<OUTCOME>periportal</OUTCOME>
			<PROPERTY>position = (1574, 2082)</PROPERTY>
		</VARIABLE>
		<VARIABLE TYPE="nature">
			<NAME>fibWitLosHep3</NAME>
			<OUTCOME>false</OUTCOME>
			<OUTCOME>true</OUTCOME>
			<PROPERTY>position = (1374, 1548)</PROPERTY>
		</VARIABLE>
		<VARIABLE TYPE="nature">
			<NAME>fibWitLosHep4</NAME>
			<OUTCOME>false</OUTCOME>
			<OUTCOME>true</OUTCOME>
			<PROPERTY>position = (1244, 1565)</PROPERTY>
		</VARIABLE>
		<VARIABLE TYPE="nature">
			<NAME>fibWitLosHep5</NAME>
			<OUTCOME>absent</OUTCOME>
			<OUTCOME>present</OUTCOME>
			<PROPERTY>position = (1302, 1605)</PROPERTY>
		</VARIABLE>
		<VARIABLE TYPE="nature">
			<NAME>fibWitLosHep6</NAME>
			<OUTCOME>absent</OUTCOME>
			<OUTCOME>present</OUTCOME>
			<PROPERTY>position = (1423, 2115)</PROPERTY>
		</VARIABLE>
		<VARIABLE TYPE="nature">
			<NAME>finClubbing</NAME>
			<OUTCOME>absent</OUTCOME>
			<OUTCOME>present</OUTCOME>
			<PROPERTY>position = (315, 1880)</PROPERTY>
		</VARIABLE>
		<VARIABLE TYPE="nature">
			<NAME>focNecInfHep</NAME>
			<OUTCOME>absent</OUTCOME>
			<OUTCOME>present</OUTCOME>
			<PROPERTY>position = (798, 3053)</PROPERTY>
		</VARIABLE>
		<VARIABLE TYPE="nature">
			<NAME>gamGluTra</NAME>
			<OUTCOME>btw-1.6-3</OUTCOME>
			<OUTCOME>btw-3.1-10</OUTCOME>
			<OUTCOME>btw-10.1-20</OUTCOME>
			<OUTCOME>gtr-than-20</OUTCOME>
			<PROPERTY>position = (1905, 2432)</PROPERTY>
		</VARIABLE>
		<VARIABLE TYPE="nature">
			<NAME>gasAcute</NAME>
			<OUTCOME>absent</OUTCOME>
			<OUTCOME>mild</OUTCOME>
			<OUTCOME>moderate</OUTCOME>
			<OUTCOME>severe</OUTCOME>
			<PROPERTY>position = (1238, 2656)</PROPERTY>
		</VARIABLE>
		<VARIABLE TYPE="nature">
			<NAME>gasBloLosFro</NAME>
			<OUTCOME>absent</OUTCOME>
			<OUTCOME>mild</OUTCOME>
			<OUTCOME>moderate</OUTCOME>
			<OUTCOME>severe</OUTCOME>
			<PROPERTY>position = (1194, 3057)</PROPERTY>
		</VARIABLE>
		<VARIABLE TYPE="nature">
			<NAME>headache</NAME>
			<OUTCOME>absent</OUTCOME>
			<OUTCOME>preDiffuse</OUTCOME>
			<PROPERTY>position = (1101, 848)</PROPERTY>
		</VARIABLE>
		<VARIABLE TYPE="nature">
			<NAME>heaImpulse</NAME>
			<OUTCOME>normal</OUTCOME>
			<OUTCOME>abnApex</OUTCOME>
			<PROPERTY>position = (940, 201)</PROPERTY>
		</VARIABLE>
		<VARIABLE TYPE="nature">
			<NAME>heaImpIntImp</NAME>
			<OUTCOME>normal</OUTCOME>
			<OUTCOME>increased</OUTCOME>
			<PROPERTY>position = (1326, 233)</PROPERTY>
		</VARIABLE>
		<VARIABLE TYPE="nature">
			<NAME>heaMurLefSte</NAME>
			<OUTCOME>absent</OUTCOME>
			<OUTCOME>present</OUTCOME>
			<PROPERTY>position = (1106, 56)</PROPERTY>
		</VARIABLE>
		<VARIABLE TYPE="nature">
			<NAME>heaMurApe</NAME>
			<OUTCOME>absent</OUTCOME>
			<OUTCOME>present</OUTCOME>
			<PROPERTY>position = (1319, 170)</PROPERTY>
		</VARIABLE>
		<VARIABLE TYPE="nature">
			<NAME>heaMurCha</NAME>
			<OUTCOME>normal</OUTCOME>
			<OUTCOME>rumbling</OUTCOME>
			<PROPERTY>position = (1267, 117)</PROPERTY>
		</VARIABLE>
		<VARIABLE TYPE="nature">
			<NAME>heaMurGra</NAME>
			<OUTCOME>normal</OUTCOME>
			<OUTCOME>btw-1-3</OUTCOME>
			<PROPERTY>position = (1050, 55)</PROPERTY>
		</VARIABLE>
		<VARIABLE TYPE="nature">
			<NAME>heaMurShaMur</NAME>
			<OUTCOME>absent</OUTCOME>
			<OUTCOME>ejection</OUTCOME>
			<PROPERTY>position = (1001, 143)</PROPERTY>
		</VARIABLE>
		<VARIABLE TYPE="nature">
			<NAME>heaMurSys</NAME>
			<OUTCOME>false</OUTCOME>
			<OUTCOME>true</OUTCOME>
			<PROPERTY>position = (889, 147)</PROPERTY>
		</VARIABLE>
		<VARIABLE TYPE="nature">
			<NAME>heaMurDia</NAME>
			<OUTCOME>false</OUTCOME>
			<OUTCOME>true</OUTCOME>
			<PROPERTY>position = (932, 102)</PROPERTY>
		</VARIABLE>
		<VARIABLE TYPE="nature">
			<NAME>heaMurTimLat</NAME>
			<OUTCOME>false</OUTCOME>
			<OUTCOME>true</OUTCOME>
			<PROPERTY>position = (852, 202)</PROPERTY>
		</VARIABLE>
		<VARIABLE TYPE="nature">
			<NAME>heaMurTimMid</NAME>
			<OUTCOME>false</OUTCOME>
			<OUTCOME>true</OUTCOME>
			<PROPERTY>position = (1164, 63)</PROPERTY>
		</VARIABLE>
		<VARIABLE TYPE="nature">
			<NAME>heart-rate</NAME>
			<OUTCOME>normal</OUTCOME>
			<OUTCOME>gtr-than-90</OUTCOME>
			<PROPERTY>position = (1114, 677)</PROPERTY>
		</VARIABLE>
		<VARIABLE TYPE="nature">
			<NAME>heaSeverity</NAME>
			<OUTCOME>none</OUTCOME>
			<OUTCOME>severe</OUTCOME>
			<PROPERTY>position = (938, 831)</PROPERTY>
		</VARIABLE>
		<VARIABLE TYPE="nature">
			<NAME>hemBlood</NAME>
			<OUTCOME>less-than-24</OUTCOME>
			<OUTCOME>btw-24-30</OUTCOME>
			<OUTCOME>btw-31-35</OUTCOME>
			<PROPERTY>position = (1378, 871)</PROPERTY>
		</VARIABLE>
		<VARIABLE TYPE="nature">
			<NAME>hemBlood1</NAME>
			<OUTCOME>less-than-8</OUTCOME>
			<OUTCOME>btw-8-10</OUTCOME>
			<OUTCOME>btw-10.1-12</OUTCOME>
			<PROPERTY>position = (1005, 873)</PROPERTY>
		</VARIABLE>
		<VARIABLE TYPE="nature">
			<NAME>hepatomegaly</NAME>
			<OUTCOME>absent</OUTCOME>
			<OUTCOME>mild</OUTCOME>
			<OUTCOME>moderate</OUTCOME>
			<OUTCOME>severe</OUTCOME>
			<PROPERTY>position = (1726, 2104)</PROPERTY>
		</VARIABLE>
		<VARIABLE TYPE="nature">
			<NAME>hepAcute</NAME>
			<OUTCOME>absent</OUTCOME>
			<OUTCOME>mild</OUTCOME>
			<OUTCOME>moderate</OUTCOME>
			<OUTCOME>severe</OUTCOME>
			<PROPERTY>position = (608, 2291)</PROPERTY>
		</VARIABLE>
		<VARIABLE TYPE="nature">
			<NAME>hepAcuVir</NAME>
			<OUTCOME>absent</OUTCOME>
			<OUTCOME>mild</OUTCOME>
			<OUTCOME>moderate</OUTCOME>
			<OUTCOME>severe</OUTCOME>
			<PROPERTY>position = (928, 2317)</PROPERTY>
		</VARIABLE>
		<VARIABLE TYPE="nature">
			<NAME>hepCasGra</NAME>
			<OUTCOME>absent</OUTCOME>
			<OUTCOME>present</OUTCOME>
			<PROPERTY>position = (1508, 1569)</PROPERTY>
		</VARIABLE>
		<VARIABLE TYPE="nature">
			<NAME>hepConHis</NAME>
			<OUTCOME>normal</OUTCOME>
			<OUTCOME>positive</OUTCOME>
			<PROPERTY>position = (610, 2358)</PROPERTY>
		</VARIABLE>
		<VARIABLE TYPE="nature">
			<NAME>hepInfNec</NAME>
			<OUTCOME>absent</OUTCOME>
			<OUTCOME>mild</OUTCOME>
			<OUTCOME>moderate</OUTCOME>
			<OUTCOME>severe</OUTCOME>
			<PROPERTY>position = (991, 2793)</PROPERTY>
		</VARIABLE>
		<VARIABLE TYPE="nature">
			<NAME>hepatic-pain</NAME>
			<OUTCOME>absent</OUTCOME>
			<OUTCOME>mild</OUTCOME>
			<OUTCOME>moderate</OUTCOME>
			<OUTCOME>severe</OUTCOME>
			<PROPERTY>position = (1295, 2564)</PROPERTY>
		</VARIABLE>
		<VARIABLE TYPE="nature">
			<NAME>hirsutism</NAME>
			<OUTCOME>absent</OUTCOME>
			<OUTCOME>present</OUTCOME>
			<PROPERTY>position = (1615, 1743)</PROPERTY>
		</VARIABLE>
		<VARIABLE TYPE="nature">
			<NAME>hypCirculati</NAME>
			<OUTCOME>absent</OUTCOME>
			<OUTCOME>mild</OUTCOME>
			<OUTCOME>moderate</OUTCOME>
			<OUTCOME>severe</OUTCOME>
			<PROPERTY>position = (1095, 373)</PROPERTY>
		</VARIABLE>
		<VARIABLE TYPE="nature">
			<NAME>jugVenous</NAME>
			<OUTCOME>absent</OUTCOME>
			<OUTCOME>present</OUTCOME>
			<PROPERTY>position = (882, 1015)</PROPERTY>
		</VARIABLE>
		<VARIABLE TYPE="nature">
			<NAME>eyeKayFleRin</NAME>
			<OUTCOME>absent</OUTCOME>
			<OUTCOME>present</OUTCOME>
			<PROPERTY>position = (1671, 1827)</PROPERTY>
		</VARIABLE>
		<VARIABLE TYPE="nature">
			<NAME>livGroCon</NAME>
			<OUTCOME>normal</OUTCOME>
			<OUTCOME>abnormal</OUTCOME>
			<PROPERTY>position = (1614, 1638)</PROPERTY>
		</VARIABLE>
		<VARIABLE TYPE="nature">
			<NAME>livGroConLiv</NAME>
			<OUTCOME>normal</OUTCOME>
			<OUTCOME>disAsymmetri</OUTCOME>
			<PROPERTY>position = (1651, 1696)</PROPERTY>
		</VARIABLE>
		<VARIABLE TYPE="nature">
			<NAME>livSizDec</NAME>
			<OUTCOME>false</OUTCOME>
			<OUTCOME>true</OUTCOME>
			<PROPERTY>position = (859, 3089)</PROPERTY>
		</VARIABLE>
		<VARIABLE TYPE="nature">
			<NAME>livSizDegAmo</NAME>
			<OUTCOME>none</OUTCOME>
			<OUTCOME>slight</OUTCOME>
			<OUTCOME>moderate</OUTCOME>
			<OUTCOME>marked</OUTCOME>
			<PROPERTY>position = (2037, 2024)</PROPERTY>
		</VARIABLE>
		<VARIABLE TYPE="nature">
			<NAME>livTexPal</NAME>
			<OUTCOME>normal</OUTCOME>
			<OUTCOME>abnormal</OUTCOME>
			<PROPERTY>position = (1576, 1684)</PROPERTY>
		</VARIABLE>
		<VARIABLE TYPE="nature">
			<NAME>livTexPalFin</NAME>
			<OUTCOME>false</OUTCOME>
			<OUTCOME>true</OUTCOME>
			<PROPERTY>position = (1674, 1761)</PROPERTY>
		</VARIABLE>
		<VARIABLE TYPE="nature">
			<NAME>wbcLymAty</NAME>
			<OUTCOME>normal</OUTCOME>
			<OUTCOME>increased</OUTCOME>
			<PROPERTY>position = (1150, 2999)</PROPERTY>
		</VARIABLE>
		<VARIABLE TYPE="nature">
			<NAME>lymNodEnl</NAME>
			<OUTCOME>absent</OUTCOME>
			<OUTCOME>preDiffuse</OUTCOME>
			<PROPERTY>position = (1081, 3000)</PROPERTY>
		</VARIABLE>
		<VARIABLE TYPE="nature">
			<NAME>malBodHep</NAME>
			<OUTCOME>absent</OUTCOME>
			<OUTCOME>present</OUTCOME>
			<PROPERTY>position = (1480, 2126)</PROPERTY>
		</VARIABLE>
		<VARIABLE TYPE="nature">
			<NAME>manSysVirInf</NAME>
			<OUTCOME>absent</OUTCOME>
			<OUTCOME>mild</OUTCOME>
			<OUTCOME>moderate</OUTCOME>
			<OUTCOME>severe</OUTCOME>
			<PROPERTY>position = (1162, 2692)</PROPERTY>
		</VARIABLE>
		<VARIABLE TYPE="nature">
			<NAME>marNecHep</NAME>
			<OUTCOME>absent</OUTCOME>
			<OUTCOME>present</OUTCOME>
			<PROPERTY>position = (755, 3003)</PROPERTY>
		</VARIABLE>
		<VARIABLE TYPE="nature">
			<NAME>monCelInfInt</NAME>
			<OUTCOME>absent</OUTCOME>
			<OUTCOME>present</OUTCOME>
			<PROPERTY>position = (1055, 1737)</PROPERTY>
		</VARIABLE>
		<VARIABLE TYPE="nature">
			<NAME>muscle-pain</NAME>
			<OUTCOME>absent</OUTCOME>
			<OUTCOME>preDiffuse</OUTCOME>
			<PROPERTY>position = (1204, 2276)</PROPERTY>
		</VARIABLE>
		<VARIABLE TYPE="nature">
			<NAME>neuCelInfInt</NAME>
			<OUTCOME>absent</OUTCOME>
			<OUTCOME>present</OUTCOME>
			<PROPERTY>position = (2199, 2474)</PROPERTY>
		</VARIABLE>
		<VARIABLE TYPE="nature">
			<NAME>occHisMedLab</NAME>
			<OUTCOME>false</OUTCOME>
			<OUTCOME>true</OUTCOME>
			<PROPERTY>position = (683, 2179)</PROPERTY>
		</VARIABLE>
		<VARIABLE TYPE="nature">
			<NAME>occHisHeaWor</NAME>
			<OUTCOME>false</OUTCOME>
			<OUTCOME>true</OUTCOME>
			<PROPERTY>position = (641, 2428)</PROPERTY>
		</VARIABLE>
		<VARIABLE TYPE="nature">
			<NAME>palpitations</NAME>
			<OUTCOME>absent</OUTCOME>
			<OUTCOME>present</OUTCOME>
			<PROPERTY>position = (1219, 85)</PROPERTY>
		</VARIABLE>
		<VARIABLE TYPE="nature">
			<NAME>palErythema</NAME>
			<OUTCOME>absent</OUTCOME>
			<OUTCOME>present</OUTCOME>
			<PROPERTY>position = (312, 1817)</PROPERTY>
		</VARIABLE>
		<VARIABLE TYPE="nature">
			<NAME>parDruAdmHis</NAME>
			<OUTCOME>normal</OUTCOME>
			<OUTCOME>positive</OUTCOME>
			<PROPERTY>position = (679, 2369)</PROPERTY>
		</VARIABLE>
		<VARIABLE TYPE="nature">
			<NAME>perInfNeu</NAME>
			<OUTCOME>absent</OUTCOME>
			<OUTCOME>present</OUTCOME>
			<PROPERTY>position = (1802, 2546)</PROPERTY>
		</VARIABLE>
		<VARIABLE TYPE="nature">
			<NAME>perInfRouCel</NAME>
			<OUTCOME>absent</OUTCOME>
			<OUTCOME>present</OUTCOME>
			<PROPERTY>position = (1515, 2056)</PROPERTY>
		</VARIABLE>
		<VARIABLE TYPE="nature">
			<NAME>pieNecLiv</NAME>
			<OUTCOME>absent</OUTCOME>
			<OUTCOME>present</OUTCOME>
			<PROPERTY>position = (1312, 1542)</PROPERTY>
		</VARIABLE>
		<VARIABLE TYPE="nature">
			<NAME>priBilCir</NAME>
			<OUTCOME>absent</OUTCOME>
			<OUTCOME>mild</OUTCOME>
			<OUTCOME>moderate</OUTCOME>
			<OUTCOME>severe</OUTCOME>
			<PROPERTY>position = (1347, 1873)</PROPERTY>
		</VARIABLE>
		<VARIABLE TYPE="nature">
			<NAME>proteinuria</NAME>
			<OUTCOME>absent</OUTCOME>
			<OUTCOME>present</OUTCOME>
			<PROPERTY>position = (1075, 2061)</PROPERTY>
		</VARIABLE>
		<VARIABLE TYPE="nature">
			<NAME>proSmaBilDuc</NAME>
			<OUTCOME>absent</OUTCOME>
			<OUTCOME>present</OUTCOME>
			<PROPERTY>position = (1029, 2243)</PROPERTY>
		</VARIABLE>
		<VARIABLE TYPE="nature">
			<NAME>proTime</NAME>
			<OUTCOME>gtr-than-2</OUTCOME>
			<OUTCOME>btw-1.5-2</OUTCOME>
			<PROPERTY>position = (70, 2947)</PROPERTY>
		</VARIABLE>
		<VARIABLE TYPE="nature">
			<NAME>pulCorrigan</NAME>
			<OUTCOME>absent</OUTCOME>
			<OUTCOME>present</OUTCOME>
			<PROPERTY>position = (1236, 181)</PROPERTY>
		</VARIABLE>
		<VARIABLE TYPE="nature">
			<NAME>pulPressure</NAME>
			<OUTCOME>normal</OUTCOME>
			<OUTCOME>increased</OUTCOME>
			<PROPERTY>position = (1162, 154)</PROPERTY>
		</VARIABLE>
		<VARIABLE TYPE="nature">
			<NAME>pulPreDegAmo</NAME>
			<OUTCOME>normal</OUTCOME>
			<OUTCOME>slight</OUTCOME>
			<OUTCOME>moderate</OUTCOME>
			<OUTCOME>marked</OUTCOME>
			<PROPERTY>position = (990, 76)</PROPERTY>
		</VARIABLE>
		<VARIABLE TYPE="nature">
			<NAME>pulQuincke</NAME>
			<OUTCOME>absent</OUTCOME>
			<OUTCOME>present</OUTCOME>
			<PROPERTY>position = (1079, 130)</PROPERTY>
		</VARIABLE>
		<VARIABLE TYPE="nature">
			<NAME>regHepNodVar</NAME>
			<OUTCOME>absent</OUTCOME>
			<OUTCOME>present</OUTCOME>
			<PROPERTY>position = (1202, 1716)</PROPERTY>
		</VARIABLE>
		<VARIABLE TYPE="nature">
			<NAME>retCotWooExu</NAME>
			<OUTCOME>absent</OUTCOME>
			<OUTCOME>present</OUTCOME>
			<PROPERTY>position = (1217, 848)</PROPERTY>
		</VARIABLE>
		<VARIABLE TYPE="nature">
			<NAME>rbcRetCou</NAME>
			<OUTCOME>normal</OUTCOME>
			<OUTCOME>gtr-than-5</OUTCOME>
			<PROPERTY>position = (1635, 2935)</PROPERTY>
		</VARIABLE>
		<VARIABLE TYPE="nature">
			<NAME>retRotSpo</NAME>
			<OUTCOME>absent</OUTCOME>
			<OUTCOME>present</OUTCOME>
			<PROPERTY>position = (1382, 940)</PROPERTY>
		</VARIABLE>
		<VARIABLE TYPE="nature">
			<NAME>retSupFlaSha</NAME>
			<OUTCOME>absent</OUTCOME>
			<OUTCOME>present</OUTCOME>
			<PROPERTY>position = (1327, 816)</PROPERTY>
		</VARIABLE>
		<VARIABLE TYPE="nature">
			<NAME>rheFactor</NAME>
			<OUTCOME>absent</OUTCOME>
			<OUTCOME>present</OUTCOME>
			<PROPERTY>position = (1123, 1739)</PROPERTY>
		</VARIABLE>
		<VARIABLE TYPE="nature">
			<NAME>serBetGlo</NAME>
			<OUTCOME>normal</OUTCOME>
			<OUTCOME>increased</OUTCOME>
			<PROPERTY>position = (504, 2839)</PROPERTY>
		</VARIABLE>
		<VARIABLE TYPE="nature">
			<NAME>serQuaLev</NAME>
			<OUTCOME>normal</OUTCOME>
			<OUTCOME>increased</OUTCOME>
			<PROPERTY>position = (1049, 1802)</PROPERTY>
		</VARIABLE>
		<VARIABLE TYPE="nature">
			<NAME>serQuaLev1</NAME>
			<OUTCOME>normal</OUTCOME>
			<OUTCOME>increased</OUTCOME>
			<PROPERTY>position = (1389, 1621)</PROPERTY>
		</VARIABLE>
		<VARIABLE TYPE="nature">
			<NAME>serQuaLevPer</NAME>
			<OUTCOME>less-than-10</OUTCOME>
			<OUTCOME>gtr-than-10</OUTCOME>
			<PROPERTY>position = (1538, 1757)</PROPERTY>
		</VARIABLE>
		<VARIABLE TYPE="nature">
			<NAME>sex</NAME>
			<OUTCOME>male</OUTCOME>
			<OUTCOME>female</OUTCOME>
			<PROPERTY>position = (1402, 2258)</PROPERTY>
		</VARIABLE>
		<VARIABLE TYPE="nature">
			<NAME>sheIngHis</NAME>
			<OUTCOME>normal</OUTCOME>
			<OUTCOME>positive</OUTCOME>
			<PROPERTY>position = (670, 2277)</PROPERTY>
		</VARIABLE>
		<VARIABLE TYPE="nature">
			<NAME>skiAnePanInd</NAME>
			<OUTCOME>false</OUTCOME>
			<OUTCOME>true</OUTCOME>
			<PROPERTY>position = (1458, 1691)</PROPERTY>
		</VARIABLE>
		<VARIABLE TYPE="nature">
			<NAME>skin-pallor</NAME>
			<OUTCOME>absent</OUTCOME>
			<OUTCOME>preGeneraliz</OUTCOME>
			<PROPERTY>position = (993, 794)</PROPERTY>
		</VARIABLE>
		<VARIABLE TYPE="nature">
			<NAME>skiPigmentat</NAME>
			<OUTCOME>normal</OUTCOME>
			<OUTCOME>incGeneraliz</OUTCOME>
			<PROPERTY>position = (562, 2861)</PROPERTY>
		</VARIABLE>
		<VARIABLE TYPE="nature">
			<NAME>skiPruritus</NAME>
			<OUTCOME>absent</OUTCOME>
			<OUTCOME>present</OUTCOME>
			<PROPERTY>position = (1001, 2222)</PROPERTY>
		</VARIABLE>
		<VARIABLE TYPE="nature">
			<NAME>skiRasMac</NAME>
			<OUTCOME>absent</OUTCOME>
			<OUTCOME>preNonPatDis</OUTCOME>
			<PROPERTY>position = (1025, 2976)</PROPERTY>
		</VARIABLE>
		<VARIABLE TYPE="nature">
			<NAME>skiTelangiec</NAME>
			<OUTCOME>absent</OUTCOME>
			<OUTCOME>present</OUTCOME>
			<PROPERTY>position = (319, 1760)</PROPERTY>
		</VARIABLE>
		<VARIABLE TYPE="nature">
			<NAME>spiAngiomata</NAME>
			<OUTCOME>absent</OUTCOME>
			<OUTCOME>present</OUTCOME>
			<PROPERTY>position = (386, 1663)</PROPERTY>
		</VARIABLE>
		<VARIABLE TYPE="nature">
			<NAME>spleen-size</NAME>
			<OUTCOME>normal</OUTCOME>
			<OUTCOME>increased</OUTCOME>
			<PROPERTY>position = (895, 2839)</PROPERTY>
		</VARIABLE>
		<VARIABLE TYPE="nature">
			<NAME>splSizDegAmo</NAME>
			<OUTCOME>normal</OUTCOME>
			<OUTCOME>slight</OUTCOME>
			<OUTCOME>moderate</OUTCOME>
			<PROPERTY>position = (976, 2929)</PROPERTY>
		</VARIABLE>
		<VARIABLE TYPE="nature">
			<NAME>stoAspCofGro</NAME>
			<OUTCOME>false</OUTCOME>
			<OUTCOME>true</OUTCOME>
			<PROPERTY>position = (1129, 3352)</PROPERTY>
		</VARIABLE>
		<VARIABLE TYPE="nature">
			<NAME>stoAspGroBlo</NAME>
			<OUTCOME>false</OUTCOME>
			<OUTCOME>true</OUTCOME>
			<PROPERTY>position = (1280, 3347)</PROPERTY>
		</VARIABLE>
		<VARIABLE TYPE="nature">
			<NAME>surHisBilTra</NAME>
			<OUTCOME>false</OUTCOME>
			<OUTCOME>true</OUTCOME>
			<PROPERTY>position = (2091, 2624)</PROPERTY>
		</VARIABLE>
		<VARIABLE TYPE="nature">
			<NAME>syncope</NAME>
			<OUTCOME>absent</OUTCOME>
			<OUTCOME>present</OUTCOME>
			<PROPERTY>position = (1271, 782)</PROPERTY>
		</VARIABLE>
		<VARIABLE TYPE="nature">
			<NAME>sysManChrLiv</NAME>
			<OUTCOME>absent</OUTCOME>
			<OUTCOME>mild</OUTCOME>
			<OUTCOME>moderate</OUTCOME>
			<OUTCOME>severe</OUTCOME>
			<PROPERTY>position = (614, 1852)</PROPERTY>
		</VARIABLE>
		<VARIABLE TYPE="nature">
			<NAME>rbc-targets</NAME>
			<OUTCOME>absent</OUTCOME>
			<OUTCOME>present</OUTCOME>
			<PROPERTY>position = (1071, 2669)</PROPERTY>
		</VARIABLE>
		<VARIABLE TYPE="nature">
			<NAME>temperature</NAME>
			<OUTCOME>btw37.38.</OUTCOME>
			<OUTCOME>btw38.40.</OUTCOME>
			<OUTCOME>gtrTha40.</OUTCOME>
			<PROPERTY>position = (1260, 2486)</PROPERTY>
		</VARIABLE>
		<VARIABLE TYPE="nature">
			<NAME>le-test</NAME>
			<OUTCOME>normal</OUTCOME>
			<OUTCOME>positive</OUTCOME>
			<PROPERTY>position = (1181, 1591)</PROPERTY>
		</VARIABLE>
		<VARIABLE TYPE="nature">
			<NAME>tinnitus</NAME>
			<OUTCOME>absent</OUTCOME>
			<OUTCOME>present</OUTCOME>
			<PROPERTY>position = (894, 881)</PROPERTY>
		</VARIABLE>
		<VARIABLE TYPE="nature">
			<NAME>tinLateralit</NAME>
			<OUTCOME>absent</OUTCOME>
			<OUTCOME>bilateral</OUTCOME>
			<PROPERTY>position = (1206, 771)</PROPERTY>
		</VARIABLE>
		<VARIABLE TYPE="nature">
			<NAME>wbcTotTho</NAME>
			<OUTCOME>less-than-4</OUTCOME>
			<OUTCOME>btw-14-30</OUTCOME>
			<OUTCOME>gtr-than-30</OUTCOME>
			<PROPERTY>position = (1544, 2584)</PROPERTY>
		</VARIABLE>
		<VARIABLE TYPE="nature">
			<NAME>toxSubExpAlc</NAME>
			<OUTCOME>false</OUTCOME>
			<OUTCOME>true</OUTCOME>
			<PROPERTY>position = (1530, 2636)</PROPERTY>
		</VARIABLE>
		<VARIABLE TYPE="nature">
			<NAME>ureNitBlo</NAME>
			<OUTCOME>less-than-8</OUTCOME>
			<OUTCOME>btw-30-59</OUTCOME>
			<PROPERTY>position = (1332, 3363)</PROPERTY>
		</VARIABLE>
		<VARIABLE TYPE="nature">
			<NAME>uroUrine</NAME>
			<OUTCOME>absent</OUTCOME>
			<OUTCOME>increased</OUTCOME>
			<PROPERTY>position = (504, 2780)</PROPERTY>
		</VARIABLE>
		<VARIABLE TYPE="nature">
			<NAME>vdrl-or-rpr</NAME>
			<OUTCOME>normal</OUTCOME>
			<OUTCOME>positive</OUTCOME>
			<PROPERTY>position = (1319, 1680)</PROPERTY>
		</VARIABLE>
		<VARIABLE TYPE="nature">
			<NAME>vertigo</NAME>
			<OUTCOME>absent</OUTCOME>
			<OUTCOME>present</OUTCOME>
			<PROPERTY>position = (1058, 778)</PROPERTY>
		</VARIABLE>
		<VARIABLE TYPE="nature">
			<NAME>vitDeficienc</NAME>
			<OUTCOME>absent</OUTCOME>
			<OUTCOME>mild</OUTCOME>
			<OUTCOME>moderate</OUTCOME>
			<OUTCOME>severe</OUTCOME>
			<PROPERTY>position = (350, 2835)</PROPERTY>
		</VARIABLE>
		<VARIABLE TYPE="nature">
			<NAME>vomiting</NAME>
			<OUTCOME>absent</OUTCOME>
			<OUTCOME>present</OUTCOME>
			<PROPERTY>position = (1123, 2881)</PROPERTY>
		</VARIABLE>
		<VARIABLE TYPE="nature">
			<NAME>vomVomCofGro</NAME>
			<OUTCOME>false</OUTCOME>
			<OUTCOME>true</OUTCOME>
			<PROPERTY>position = (1032, 3333)</PROPERTY>
		</VARIABLE>
		<VARIABLE TYPE="nature">
			<NAME>vomVomGroBlo</NAME>
			<OUTCOME>false</OUTCOME>
			<OUTCOME>true</OUTCOME>
			<PROPERTY>position = (1164, 3401)</PROPERTY>
		</VARIABLE>
		<VARIABLE TYPE="nature">
			<NAME>vomVomNorGas</NAME>
			<OUTCOME>false</OUTCOME>
			<OUTCOME>true</OUTCOME>
			<PROPERTY>position = (1173, 2885)</PROPERTY>
		</VARIABLE>
		<VARIABLE TYPE="nature">
			<NAME>weiRecLosPer</NAME>
			<OUTCOME>none</OUTCOME>
			<OUTCOME>btw--30--10</OUTCOME>
			<PROPERTY>position = (1558, 2029)</PROPERTY>
		</VARIABLE>
		<VARIABLE TYPE="nature">
			<NAME>zieSyndrome</NAME>
			<OUTCOME>absent</OUTCOME>
			<OUTCOME>mild</OUTCOME>
			<OUTCOME>moderate</OUTCOME>
			<OUTCOME>severe</OUTCOME>
			<PROPERTY>position = (1441, 2673)</PROPERTY>
		</VARIABLE>
		<!-- Probability Distributions -->
		<DEFINITION>
			<FOR>abdBruRigUpp</FOR>
			<GIVEN>alcHepatitis</GIVEN>
			<TABLE>0.9999 1.0E-4 0.9975 0.0025 0.975 0.025 0.8 0.2 </TABLE>
		</DEFINITION>
		<DEFINITION>
			<FOR>abdBruSys</FOR>
			<GIVEN>alcHepatitis</GIVEN>
			<TABLE>0.99999 1.0E-5 0.2 0.8 0.2 0.8 0.2 0.8 </TABLE>
		</DEFINITION>
		<DEFINITION>
			<FOR>abdBruCon</FOR>
			<GIVEN>alcHepatitis</GIVEN>
			<TABLE>0.99999 1.0E-5 0.8 0.2 0.8 0.2 0.8 0.2 </TABLE>
		</DEFINITION>
		<DEFINITION>
			<FOR>abdPaiEpi</FOR>
			<GIVEN>priBilCir</GIVEN>
			<GIVEN>hepatic-pain</GIVEN>
			<GIVEN>gasAcute</GIVEN>
			<TABLE>0.997003 0.002997 0.499 0.501 0.1996 0.8004 0.01497 0.98503 0.995506 0.004494 0.498251 0.501749 0.199301 0.8007 0.014948 0.985052 0.798401 0.201599 0.3996 0.6004 0.15984 0.84016 0.011988 0.988012 0.798401 0.201599 0.3996 0.6004 0.15984 0.84016 0.011988 0.988012 0.798401 0.201599 0.3996 0.6004 0.15984 0.84016 0.011988 0.988012 0.797202 0.202798 0.399 0.601 0.1596 0.8404 0.01197 0.98803 0.63936 0.36064 0.32 0.68 0.128 0.872 0.0096 0.9904 0.63936 0.36064 0.32 0.68 0.128 0.872 0.0096 0.9904 0.798401 0.201599 0.3996 0.6004 0.15984 0.84016 0.011988 0.988012 0.797202 0.202798 0.399 0.601 0.1596 0.8404 0.01197 0.98803 0.63936 0.36064 0.32 0.68 0.128 0.872 0.0096 0.9904 0.63936 0.36064 0.32 0.68 0.128 0.872 0.0096 0.9904 0.798401 0.201599 0.3996 0.6004 0.15984 0.84016 0.011988 0.988012 0.797202 0.202798 0.399 0.601 0.1596 0.8404 0.01197 0.98803 0.63936 0.36064 0.32 0.68 0.128 0.872 0.0096 0.9904 0.63936 0.36064 0.32 0.68 0.128 0.872 0.0096 0.9904 </TABLE>
		</DEFINITION>
		<DEFINITION>
			<FOR>abdPaiRigUpp</FOR>
			<GIVEN>priBilCir</GIVEN>
			<GIVEN>hepatic-pain</GIVEN>
			<GIVEN>alcHepatitis</GIVEN>
			<TABLE>0.9997 3.0E-4 0.79984 0.20016 0.4999 0.5001 0.19996 0.80004 0.997301 0.002699 0.79792 0.20208 0.4987 0.5013 0.19948 0.80052 0.014997 0.985003 0.011999 0.988001 0.007499 0.992501 0.0030 0.997 0.014997 0.985003 0.011999 0.988001 0.007499 0.992501 0.0030 0.997 0.79984 0.20016 0.639936 0.360064 0.39996 0.60004 0.159984 0.840016 0.79792 0.20208 0.6384 0.3616 0.399 0.601 0.1596 0.8404 0.011999 0.988001 0.0096 0.9904 0.0060 0.994 0.0024 0.9976 0.011999 0.988001 0.0096 0.9904 0.0060 0.994 0.0024 0.9976 0.79984 0.20016 0.639936 0.360064 0.39996 0.60004 0.159984 0.840016 0.79792 0.20208 0.6384 0.3616 0.399 0.601 0.1596 0.8404 0.011999 0.988001 0.0096 0.9904 0.0060 0.994 0.0024 0.9976 0.011999 0.988001 0.0096 0.9904 0.0060 0.994 0.0024 0.9976 0.79984 0.20016 0.639936 0.360064 0.39996 0.60004 0.159984 0.840016 0.79792 0.20208 0.6384 0.3616 0.399 0.601 0.1596 0.8404 0.011999 0.988001 0.0096 0.9904 0.0060 0.994 0.0024 0.9976 0.011999 0.988001 0.0096 0.9904 0.0060 0.994 0.0024 0.9976 </TABLE>
		</DEFINITION>
		<DEFINITION>
			<FOR>abdPaiDurSub</FOR>
			<GIVEN>priBilCir</GIVEN>
			<TABLE>0.9999 1.0E-4 0.5 0.5 0.5 0.5 0.5 0.5 </TABLE>
		</DEFINITION>
		<DEFINITION>
			<FOR>abdPaiDurChr</FOR>
			<GIVEN>priBilCir</GIVEN>
			<TABLE>0.9999 1.0E-4 0.5 0.5 0.5 0.5 0.5 0.5 </TABLE>
		</DEFINITION>
		<DEFINITION>
			<FOR>abdPaiDurAcu</FOR>
			<GIVEN>gasAcute</GIVEN>
			<GIVEN>alcHepatitis</GIVEN>
			<TABLE>0.998001 0.001999 0.1998 0.8002 0.1998 0.8002 0.1998 0.8002 0.1998 0.8002 0.04 0.96 0.04 0.96 0.04 0.96 0.1998 0.8002 0.04 0.96 0.04 0.96 0.04 0.96 0.1998 0.8002 0.04 0.96 0.04 0.96 0.04 0.96 </TABLE>
		</DEFINITION>
		<DEFINITION>
			<FOR>abdPaiExaAlc</FOR>
			<GIVEN>gasAcute</GIVEN>
			<TABLE>0.9999 1.0E-4 0.8 0.2 0.8 0.2 0.8 0.2 </TABLE>
		</DEFINITION>
		<DEFINITION>
			<FOR>abdPaiExaMea</FOR>
			<GIVEN>hepatic-pain</GIVEN>
			<GIVEN>gasAcute</GIVEN>
			<TABLE>0.998001 0.001999 0.4995 0.5005 0.1998 0.8002 0.1998 0.8002 0.7992 0.2008 0.4 0.6 0.16 0.84 0.16 0.84 0.7992 0.2008 0.4 0.6 0.16 0.84 0.16 0.84 0.7992 0.2008 0.4 0.6 0.16 0.84 0.16 0.84 </TABLE>
		</DEFINITION>
		<DEFINITION>
			<FOR>abdPaiNatCol</FOR>
			<GIVEN>hepatic-pain</GIVEN>
			<GIVEN>gasAcute</GIVEN>
			<GIVEN>alcHepatitis</GIVEN>
			<TABLE>0.9997 3.0E-4 0.014997 0.985003 0.014997 0.985003 0.19996 0.80004 0.014997 0.985003 2.25E-4 0.999775 2.25E-4 0.999775 0.0030 0.997 0.014997 0.985003 2.25E-4 0.999775 2.25E-4 0.999775 0.0030 0.997 0.014997 0.985003 2.25E-4 0.999775 2.25E-4 0.999775 0.0030 0.997 0.997301 0.002699 0.014961 0.985039 0.014961 0.985039 0.19948 0.80052 0.014961 0.985039 2.24E-4 0.999776 2.24E-4 0.999776 0.002993 0.997008 0.014961 0.985039 2.24E-4 0.999776 2.24E-4 0.999776 0.002993 0.997008 0.014961 0.985039 2.24E-4 0.999776 2.24E-4 0.999776 0.002993 0.997008 0.014997 0.985003 2.25E-4 0.999775 2.25E-4 0.999775 0.0030 0.997 2.25E-4 0.999775 3.0E-6 0.999997 3.0E-6 0.999997 4.5E-5 0.999955 2.25E-4 0.999775 3.0E-6 0.999997 3.0E-6 0.999997 4.5E-5 0.999955 2.25E-4 0.999775 3.0E-6 0.999997 3.0E-6 0.999997 4.5E-5 0.999955 0.014997 0.985003 2.25E-4 0.999775 2.25E-4 0.999775 0.0030 0.997 2.25E-4 0.999775 3.0E-6 0.999997 3.0E-6 0.999997 4.5E-5 0.999955 2.25E-4 0.999775 3.0E-6 0.999997 3.0E-6 0.999997 4.5E-5 0.999955 2.25E-4 0.999775 3.0E-6 0.999997 3.0E-6 0.999997 4.5E-5 0.999955 </TABLE>
		</DEFINITION>
		<DEFINITION>
			<FOR>abdPaiNatCol1</FOR>
			<GIVEN>hepatic-pain</GIVEN>
			<GIVEN>alcHepatitis</GIVEN>
			<TABLE>0.99998 2.0E-5 0.99749 0.00251 0.99749 0.00251 0.97499 0.02501 0.99749 0.00251 0.995006 0.004994 0.995006 0.004994 0.972562 0.027438 0.97499 0.02501 0.972562 0.027438 0.972562 0.027438 0.950625 0.049375 0.97499 0.02501 0.972562 0.027438 0.972562 0.027438 0.950625 0.049375 </TABLE>
		</DEFINITION>
		<DEFINITION>
			<FOR>abdPaiAllAnt</FOR>
			<GIVEN>priBilCir</GIVEN>
			<GIVEN>hepatic-pain</GIVEN>
			<GIVEN>gasAcute</GIVEN>
			<TABLE>0.9997 3.0E-4 0.4999 0.5001 0.79984 0.20016 0.969506 0.030494 0.997301 0.002699 0.4987 0.5013 0.79792 0.20208 0.967179 0.032821 0.997301 0.002699 0.4987 0.5013 0.79792 0.20208 0.967179 0.032821 0.997301 0.002699 0.4987 0.5013 0.79792 0.20208 0.967179 0.032821 0.974805 0.025195 0.487451 0.512549 0.779922 0.220078 0.945363 0.054637 0.972465 0.027535 0.486281 0.513719 0.77805 0.22195 0.943094 0.056906 0.972465 0.027535 0.486281 0.513719 0.77805 0.22195 0.943094 0.056906 0.972465 0.027535 0.486281 0.513719 0.77805 0.22195 0.943094 0.056906 0.997301 0.002699 0.4987 0.5013 0.79792 0.20208 0.967179 0.032821 0.994907 0.005093 0.497503 0.502497 0.796005 0.203995 0.964858 0.035142 0.994907 0.005093 0.497503 0.502497 0.796005 0.203995 0.964858 0.035142 0.994907 0.005093 0.497503 0.502497 0.796005 0.203995 0.964858 0.035142 0.997301 0.002699 0.4987 0.5013 0.79792 0.20208 0.967179 0.032821 0.994907 0.005093 0.497503 0.502497 0.796005 0.203995 0.964858 0.035142 0.994907 0.005093 0.497503 0.502497 0.796005 0.203995 0.964858 0.035142 0.994907 0.005093 0.497503 0.502497 0.796005 0.203995 0.964858 0.035142 </TABLE>
		</DEFINITION>
		<DEFINITION>
			<FOR>abdPaiSev</FOR>
			<GIVEN>hepatic-pain</GIVEN>
			<GIVEN>gasAcute</GIVEN>
			<TABLE>0.997601 0.001999 2.0E-4 2.0E-4 0.665031 0.167302 0.166737 9.3E-4 0.75742 0.009087 0.16673 0.066763 0.723301 0.001554 0.008402 0.266743 0.996313 0.001827 9.3E-4 9.3E-4 0.664172 0.166946 0.167223 0.001659 0.756442 0.008946 0.167168 0.067445 0.722367 0.00143 0.008925 0.267279 0.65754 0.067315 0.266716 0.008429 0.438336 0.165227 0.387284 0.009153 0.499231 0.056597 0.369727 0.074445 0.476743 0.048882 0.201596 0.272779 0.8573 0.009187 0.06675 0.066763 0.571502 0.149993 0.211061 0.067445 0.650897 0.013536 0.206671 0.128895 0.621577 0.006752 0.05611 0.315561 </TABLE>
		</DEFINITION>
		<DEFINITION>
			<FOR>abdTendernes</FOR>
			<GIVEN>priBilCir</GIVEN>
			<GIVEN>hepatic-pain</GIVEN>
			<GIVEN>alcHepatitis</GIVEN>
			<TABLE>0.99997 3.0E-5 0.799984 0.200016 0.49999 0.50001 0.199996 0.800004 0.99748 0.00252 0.797992 0.202008 0.498745 0.501255 0.199498 0.800502 0.199996 0.800004 0.159998 0.840002 0.099999 0.900001 0.04 0.96 0.015 0.985 0.012 0.988 0.0075 0.9925 0.0030 0.997 0.799984 0.200016 0.639994 0.360006 0.399996 0.600004 0.159998 0.840002 0.797992 0.202008 0.6384 0.3616 0.399 0.601 0.1596 0.8404 0.159998 0.840002 0.128 0.872 0.08 0.92 0.032 0.968 0.012 0.988 0.0096 0.9904 0.0060 0.994 0.0024 0.9976 0.799984 0.200016 0.639994 0.360006 0.399996 0.600004 0.159998 0.840002 0.797992 0.202008 0.6384 0.3616 0.399 0.601 0.1596 0.8404 0.159998 0.840002 0.128 0.872 0.08 0.92 0.032 0.968 0.012 0.988 0.0096 0.9904 0.0060 0.994 0.0024 0.9976 0.799984 0.200016 0.639994 0.360006 0.399996 0.600004 0.159998 0.840002 0.797992 0.202008 0.6384 0.3616 0.399 0.601 0.1596 0.8404 0.159998 0.840002 0.128 0.872 0.08 0.92 0.032 0.968 0.012 0.988 0.0096 0.9904 0.0060 0.994 0.0024 0.9976 </TABLE>
		</DEFINITION>
		<DEFINITION>
			<FOR>abdTenInvGua</FOR>
			<GIVEN>hepatic-pain</GIVEN>
			<TABLE>0.9999 1.0E-4 0.5 0.5 0.99747 0.00253 0.9697 0.0303 </TABLE>
		</DEFINITION>
		<DEFINITION>
			<FOR>actParThrTim</FOR>
			<GIVEN>vitDeficienc</GIVEN>
			<TABLE>0.99999 1.0E-5 0.5 0.5 0.98765 0.01235 0.8 0.2 </TABLE>
		</DEFINITION>
		<DEFINITION>
			<FOR>age</FOR>
			<TABLE>0.45 0.5 0.05 </TABLE>
		</DEFINITION>
		<DEFINITION>
			<FOR>alcHepatitis</FOR>
			<GIVEN>toxSubExpAlc</GIVEN>
			<TABLE>1.0 0.0 0.0 0.0 0.199998 0.266667 0.266667 0.266667 </TABLE>
		</DEFINITION>
		<DEFINITION>
			<FOR>anemia</FOR>
			<GIVEN>priBilCir</GIVEN>
			<TABLE>0.988 0.01 0.0010 0.0010 0.92417 0.06667 0.00833 8.3E-4 0.86583 0.06667 0.06667 8.3E-4 0.86583 0.06667 0.06667 8.3E-4 </TABLE>
		</DEFINITION>
		<DEFINITION>
			<FOR>antAntTit</FOR>
			<GIVEN>priBilCir</GIVEN>
			<TABLE>0.99999 1.0E-5 0.8 0.2 0.8 0.2 0.8 0.2 </TABLE>
		</DEFINITION>
		<DEFINITION>
			<FOR>antMitAntTit</FOR>
			<GIVEN>priBilCir</GIVEN>
			<TABLE>0.99999 1.0E-5 0.2 0.8 0.2 0.8 0.2 0.8 </TABLE>
		</DEFINITION>
		<DEFINITION>
			<FOR>antThyRecTit</FOR>
			<GIVEN>priBilCir</GIVEN>
			<TABLE>0.99999 1.0E-5 0.8 0.2 0.8 0.2 0.8 0.2 </TABLE>
		</DEFINITION>
		<DEFINITION>
			<FOR>appetite</FOR>
			<GIVEN>manSysVirInf</GIVEN>
			<GIVEN>hepatic-pain</GIVEN>
			<GIVEN>hepInfNec</GIVEN>
			<GIVEN>gasBloLosFro</GIVEN>
			<GIVEN>gasAcute</GIVEN>
			<GIVEN>cholestasis</GIVEN>
			<TABLE>0.94148 0.05852 0.760792 0.239208 0.475495 0.524505 0.190198 0.809802 0.190198 0.809802 0.153695 0.846305 0.09606 0.90394 0.038424 0.961576 0.190198 0.809802 0.153695 0.846305 0.09606 0.90394 0.038424 0.961576 0.014265 0.985735 0.011527 0.988473 0.007204 0.992796 0.002882 0.997118 0.760792 0.239208 0.614781 0.385219 0.384238 0.615762 0.153695 0.846305 0.153695 0.846305 0.124198 0.875802 0.077624 0.922376 0.03105 0.96895 0.153695 0.846305 0.124198 0.875802 0.077624 0.922376 0.03105 0.96895 0.011527 0.988473 0.009315 0.990685 0.005822 0.994178 0.002329 0.997671 0.190198 0.809802 0.153695 0.846305 0.09606 0.90394 0.038424 0.961576 0.038424 0.961576 0.03105 0.96895 0.019406 0.980594 0.007762 0.992238 0.038424 0.961576 0.03105 0.96895 0.019406 0.980594 0.007762 0.992238 0.002882 0.997118 0.002329 0.997671 0.001455 0.998545 5.82E-4 0.999418 0.190198 0.809802 0.153695 0.846305 0.09606 0.90394 0.038424 0.961576 0.038424 0.961576 0.03105 0.96895 0.019406 0.980594 0.007762 0.992238 0.038424 0.961576 0.03105 0.96895 0.019406 0.980594 0.007762 0.992238 0.002882 0.997118 0.002329 0.997671 0.001455 0.998545 5.82E-4 0.999418 0.760792 0.239208 0.614781 0.385219 0.384238 0.615762 0.153695 0.846305 0.153695 0.846305 0.124198 0.875802 0.077624 0.922376 0.03105 0.96895 0.153695 0.846305 0.124198 0.875802 0.077624 0.922376 0.03105 0.96895 0.011527 0.988473 0.009315 0.990685 0.005822 0.994178 0.002329 0.997671 0.614781 0.385219 0.496793 0.503207 0.310496 0.689504 0.124198 0.875802 0.124198 0.875802 0.100362 0.899638 0.062726 0.937274 0.025091 0.974909 0.124198 0.875802 0.100362 0.899638 0.062726 0.937274 0.025091 0.974909 0.009315 0.990685 0.007527 0.992473 0.004704 0.995296 0.001882 0.998118 0.153695 0.846305 0.124198 0.875802 0.077624 0.922376 0.03105 0.96895 0.03105 0.96895 0.025091 0.974909 0.015682 0.984318 0.006273 0.993727 0.03105 0.96895 0.025091 0.974909 0.015682 0.984318 0.006273 0.993727 0.002329 0.997671 0.001882 0.998118 0.001176 0.998824 4.7E-4 0.99953 0.153695 0.846305 0.124198 0.875802 0.077624 0.922376 0.03105 0.96895 0.03105 0.96895 0.025091 0.974909 0.015682 0.984318 0.006273 0.993727 0.03105 0.96895 0.025091 0.974909 0.015682 0.984318 0.006273 0.993727 0.002329 0.997671 0.001882 0.998118 0.001176 0.998824 4.7E-4 0.99953 0.475495 0.524505 0.384238 0.615762 0.240149 0.759851 0.09606 0.90394 0.09606 0.90394 0.077624 0.922376 0.048515 0.951485 0.019406 0.980594 0.09606 0.90394 0.077624 0.922376 0.048515 0.951485 0.019406 0.980594 0.007204 0.992796 0.005822 0.994178 0.003639 0.996361 0.001455 0.998545 0.384238 0.615762 0.310496 0.689504 0.19406 0.80594 0.077624 0.922376 0.077624 0.922376 0.062726 0.937274 0.039204 0.960796 0.015682 0.984318 0.077624 0.922376 0.062726 0.937274 0.039204 0.960796 0.015682 0.984318 0.005822 0.994178 0.004704 0.995296 0.00294 0.99706 0.001176 0.998824 0.09606 0.90394 0.077624 0.922376 0.048515 0.951485 0.019406 0.980594 0.019406 0.980594 0.015682 0.984318 0.009801 0.990199 0.00392 0.99608 0.019406 0.980594 0.015682 0.984318 0.009801 0.990199 0.00392 0.99608 0.001455 0.998545 0.001176 0.998824 7.35E-4 0.999265 2.94E-4 0.999706 0.09606 0.90394 0.077624 0.922376 0.048515 0.951485 0.019406 0.980594 0.019406 0.980594 0.015682 0.984318 0.009801 0.990199 0.00392 0.99608 0.019406 0.980594 0.015682 0.984318 0.009801 0.990199 0.00392 0.99608 0.001455 0.998545 0.001176 0.998824 7.35E-4 0.999265 2.94E-4 0.999706 0.190198 0.809802 0.153695 0.846305 0.09606 0.90394 0.038424 0.961576 0.038424 0.961576 0.03105 0.96895 0.019406 0.980594 0.007762 0.992238 0.038424 0.961576 0.03105 0.96895 0.019406 0.980594 0.007762 0.992238 0.002882 0.997118 0.002329 0.997671 0.001455 0.998545 5.82E-4 0.999418 0.153695 0.846305 0.124198 0.875802 0.077624 0.922376 0.03105 0.96895 0.03105 0.96895 0.025091 0.974909 0.015682 0.984318 0.006273 0.993727 0.03105 0.96895 0.025091 0.974909 0.015682 0.984318 0.006273 0.993727 0.002329 0.997671 0.001882 0.998118 0.001176 0.998824 4.7E-4 0.99953 0.038424 0.961576 0.03105 0.96895 0.019406 0.980594 0.007762 0.992238 0.007762 0.992238 0.006273 0.993727 0.00392 0.99608 0.001568 0.998432 0.007762 0.992238 0.006273 0.993727 0.00392 0.99608 0.001568 0.998432 5.82E-4 0.999418 4.7E-4 0.99953 2.94E-4 0.999706 1.18E-4 0.999882 0.038424 0.961576 0.03105 0.96895 0.019406 0.980594 0.007762 0.992238 0.007762 0.992238 0.006273 0.993727 0.00392 0.99608 0.001568 0.998432 0.007762 0.992238 0.006273 0.993727 0.00392 0.99608 0.001568 0.998432 5.82E-4 0.999418 4.7E-4 0.99953 2.94E-4 0.999706 1.18E-4 0.999882 0.760792 0.239208 0.614781 0.385219 0.384238 0.615762 0.153695 0.846305 0.153695 0.846305 0.124198 0.875802 0.077624 0.922376 0.03105 0.96895 0.153695 0.846305 0.124198 0.875802 0.077624 0.922376 0.03105 0.96895 0.011527 0.988473 0.009315 0.990685 0.005822 0.994178 0.002329 0.997671 0.614781 0.385219 0.496793 0.503207 0.310496 0.689504 0.124198 0.875802 0.124198 0.875802 0.100362 0.899638 0.062726 0.937274 0.025091 0.974909 0.124198 0.875802 0.100362 0.899638 0.062726 0.937274 0.025091 0.974909 0.009315 0.990685 0.007527 0.992473 0.004704 0.995296 0.001882 0.998118 0.153695 0.846305 0.124198 0.875802 0.077624 0.922376 0.03105 0.96895 0.03105 0.96895 0.025091 0.974909 0.015682 0.984318 0.006273 0.993727 0.03105 0.96895 0.025091 0.974909 0.015682 0.984318 0.006273 0.993727 0.002329 0.997671 0.001882 0.998118 0.001176 0.998824 4.7E-4 0.99953 0.153695 0.846305 0.124198 0.875802 0.077624 0.922376 0.03105 0.96895 0.03105 0.96895 0.025091 0.974909 0.015682 0.984318 0.006273 0.993727 0.03105 0.96895 0.025091 0.974909 0.015682 0.984318 0.006273 0.993727 0.002329 0.997671 0.001882 0.998118 0.001176 0.998824 4.7E-4 0.99953 0.614781 0.385219 0.496793 0.503207 0.310496 0.689504 0.124198 0.875802 0.124198 0.875802 0.100362 0.899638 0.062726 0.937274 0.025091 0.974909 0.124198 0.875802 0.100362 0.899638 0.062726 0.937274 0.025091 0.974909 0.009315 0.990685 0.007527 0.992473 0.004704 0.995296 0.001882 0.998118 0.496793 0.503207 0.401449 0.598551 0.250906 0.749094 0.100362 0.899638 0.100362 0.899638 0.081101 0.918899 0.050688 0.949312 0.020275 0.979725 0.100362 0.899638 0.081101 0.918899 0.050688 0.949312 0.020275 0.979725 0.007527 0.992473 0.006083 0.993917 0.003802 0.996198 0.001521 0.998479 0.124198 0.875802 0.100362 0.899638 0.062726 0.937274 0.025091 0.974909 0.025091 0.974909 0.020275 0.979725 0.012672 0.987328 0.005069 0.994931 0.025091 0.974909 0.020275 0.979725 0.012672 0.987328 0.005069 0.994931 0.001882 0.998118 0.001521 0.998479 9.5E-4 0.99905 3.8E-4 0.99962 0.124198 0.875802 0.100362 0.899638 0.062726 0.937274 0.025091 0.974909 0.025091 0.974909 0.020275 0.979725 0.012672 0.987328 0.005069 0.994931 0.025091 0.974909 0.020275 0.979725 0.012672 0.987328 0.005069 0.994931 0.001882 0.998118 0.001521 0.998479 9.5E-4 0.99905 3.8E-4 0.99962 0.384238 0.615762 0.310496 0.689504 0.19406 0.80594 0.077624 0.922376 0.077624 0.922376 0.062726 0.937274 0.039204 0.960796 0.015682 0.984318 0.077624 0.922376 0.062726 0.937274 0.039204 0.960796 0.015682 0.984318 0.005822 0.994178 0.004704 0.995296 0.00294 0.99706 0.001176 0.998824 0.310496 0.689504 0.250906 0.749094 0.156816 0.843184 0.062726 0.937274 0.062726 0.937274 0.050688 0.949312 0.03168 0.96832 0.012672 0.987328 0.062726 0.937274 0.050688 0.949312 0.03168 0.96832 0.012672 0.987328 0.004704 0.995296 0.003802 0.996198 0.002376 0.997624 9.5E-4 0.99905 0.077624 0.922376 0.062726 0.937274 0.039204 0.960796 0.015682 0.984318 0.015682 0.984318 0.012672 0.987328 0.00792 0.99208 0.003168 0.996832 0.015682 0.984318 0.012672 0.987328 0.00792 0.99208 0.003168 0.996832 0.001176 0.998824 9.5E-4 0.99905 5.94E-4 0.999406 2.38E-4 0.999762 0.077624 0.922376 0.062726 0.937274 0.039204 0.960796 0.015682 0.984318 0.015682 0.984318 0.012672 0.987328 0.00792 0.99208 0.003168 0.996832 0.015682 0.984318 0.012672 0.987328 0.00792 0.99208 0.003168 0.996832 0.001176 0.998824 9.5E-4 0.99905 5.94E-4 0.999406 2.38E-4 0.999762 0.153695 0.846305 0.124198 0.875802 0.077624 0.922376 0.03105 0.96895 0.03105 0.96895 0.025091 0.974909 0.015682 0.984318 0.006273 0.993727 0.03105 0.96895 0.025091 0.974909 0.015682 0.984318 0.006273 0.993727 0.002329 0.997671 0.001882 0.998118 0.001176 0.998824 4.7E-4 0.99953 0.124198 0.875802 0.100362 0.899638 0.062726 0.937274 0.025091 0.974909 0.025091 0.974909 0.020275 0.979725 0.012672 0.987328 0.005069 0.994931 0.025091 0.974909 0.020275 0.979725 0.012672 0.987328 0.005069 0.994931 0.001882 0.998118 0.001521 0.998479 9.5E-4 0.99905 3.8E-4 0.99962 0.03105 0.96895 0.025091 0.974909 0.015682 0.984318 0.006273 0.993727 0.006273 0.993727 0.005069 0.994931 0.003168 0.996832 0.001267 0.998733 0.006273 0.993727 0.005069 0.994931 0.003168 0.996832 0.001267 0.998733 4.7E-4 0.99953 3.8E-4 0.99962 2.38E-4 0.999762 9.5E-5 0.999905 0.03105 0.96895 0.025091 0.974909 0.015682 0.984318 0.006273 0.993727 0.006273 0.993727 0.005069 0.994931 0.003168 0.996832 0.001267 0.998733 0.006273 0.993727 0.005069 0.994931 0.003168 0.996832 0.001267 0.998733 4.7E-4 0.99953 3.8E-4 0.99962 2.38E-4 0.999762 9.5E-5 0.999905 0.475495 0.524505 0.384238 0.615762 0.240149 0.759851 0.09606 0.90394 0.09606 0.90394 0.077624 0.922376 0.048515 0.951485 0.019406 0.980594 0.09606 0.90394 0.077624 0.922376 0.048515 0.951485 0.019406 0.980594 0.007204 0.992796 0.005822 0.994178 0.003639 0.996361 0.001455 0.998545 0.384238 0.615762 0.310496 0.689504 0.19406 0.80594 0.077624 0.922376 0.077624 0.922376 0.062726 0.937274 0.039204 0.960796 0.015682 0.984318 0.077624 0.922376 0.062726 0.937274 0.039204 0.960796 0.015682 0.984318 0.005822 0.994178 0.004704 0.995296 0.00294 0.99706 0.001176 0.998824 0.09606 0.90394 0.077624 0.922376 0.048515 0.951485 0.019406 0.980594 0.019406 0.980594 0.015682 0.984318 0.009801 0.990199 0.00392 0.99608 0.019406 0.980594 0.015682 0.984318 0.009801 0.990199 0.00392 0.99608 0.001455 0.998545 0.001176 0.998824 7.35E-4 0.999265 2.94E-4 0.999706 0.09606 0.90394 0.077624 0.922376 0.048515 0.951485 0.019406 0.980594 0.019406 0.980594 0.015682 0.984318 0.009801 0.990199 0.00392 0.99608 0.019406 0.980594 0.015682 0.984318 0.009801 0.990199 0.00392 0.99608 0.001455 0.998545 0.001176 0.998824 7.35E-4 0.999265 2.94E-4 0.999706 0.384238 0.615762 0.310496 0.689504 0.19406 0.80594 0.077624 0.922376 0.077624 0.922376 0.062726 0.937274 0.039204 0.960796 0.015682 0.984318 0.077624 0.922376 0.062726 0.937274 0.039204 0.960796 0.015682 0.984318 0.005822 0.994178 0.004704 0.995296 0.00294 0.99706 0.001176 0.998824 0.310496 0.689504 0.250906 0.749094 0.156816 0.843184 0.062726 0.937274 0.062726 0.937274 0.050688 0.949312 0.03168 0.96832 0.012672 0.987328 0.062726 0.937274 0.050688 0.949312 0.03168 0.96832 0.012672 0.987328 0.004704 0.995296 0.003802 0.996198 0.002376 0.997624 9.5E-4 0.99905 0.077624 0.922376 0.062726 0.937274 0.039204 0.960796 0.015682 0.984318 0.015682 0.984318 0.012672 0.987328 0.00792 0.99208 0.003168 0.996832 0.015682 0.984318 0.012672 0.987328 0.00792 0.99208 0.003168 0.996832 0.001176 0.998824 9.5E-4 0.99905 5.94E-4 0.999406 2.38E-4 0.999762 0.077624 0.922376 0.062726 0.937274 0.039204 0.960796 0.015682 0.984318 0.015682 0.984318 0.012672 0.987328 0.00792 0.99208 0.003168 0.996832 0.015682 0.984318 0.012672 0.987328 0.00792 0.99208 0.003168 0.996832 0.001176 0.998824 9.5E-4 0.99905 5.94E-4 0.999406 2.38E-4 0.999762 0.240149 0.759851 0.19406 0.80594 0.121287 0.878713 0.048515 0.951485 0.048515 0.951485 0.039204 0.960796 0.024502 0.975498 0.009801 0.990199 0.048515 0.951485 0.039204 0.960796 0.024502 0.975498 0.009801 0.990199 0.003639 0.996361 0.00294 0.99706 0.001838 0.998162 7.35E-4 0.999265 0.19406 0.80594 0.156816 0.843184 0.09801 0.90199 0.039204 0.960796 0.039204 0.960796 0.03168 0.96832 0.0198 0.9802 0.00792 0.99208 0.039204 0.960796 0.03168 0.96832 0.0198 0.9802 0.00792 0.99208 0.00294 0.99706 0.002376 0.997624 0.001485 0.998515 5.94E-4 0.999406 0.048515 0.951485 0.039204 0.960796 0.024502 0.975498 0.009801 0.990199 0.009801 0.990199 0.00792 0.99208 0.00495 0.99505 0.00198 0.99802 0.009801 0.990199 0.00792 0.99208 0.00495 0.99505 0.00198 0.99802 7.35E-4 0.999265 5.94E-4 0.999406 3.71E-4 0.999629 1.49E-4 0.999852 0.048515 0.951485 0.039204 0.960796 0.024502 0.975498 0.009801 0.990199 0.009801 0.990199 0.00792 0.99208 0.00495 0.99505 0.00198 0.99802 0.009801 0.990199 0.00792 0.99208 0.00495 0.99505 0.00198 0.99802 7.35E-4 0.999265 5.94E-4 0.999406 3.71E-4 0.999629 1.49E-4 0.999852 0.09606 0.90394 0.077624 0.922376 0.048515 0.951485 0.019406 0.980594 0.019406 0.980594 0.015682 0.984318 0.009801 0.990199 0.00392 0.99608 0.019406 0.980594 0.015682 0.984318 0.009801 0.990199 0.00392 0.99608 0.001455 0.998545 0.001176 0.998824 7.35E-4 0.999265 2.94E-4 0.999706 0.077624 0.922376 0.062726 0.937274 0.039204 0.960796 0.015682 0.984318 0.015682 0.984318 0.012672 0.987328 0.00792 0.99208 0.003168 0.996832 0.015682 0.984318 0.012672 0.987328 0.00792 0.99208 0.003168 0.996832 0.001176 0.998824 9.5E-4 0.99905 5.94E-4 0.999406 2.38E-4 0.999762 0.019406 0.980594 0.015682 0.984318 0.009801 0.990199 0.00392 0.99608 0.00392 0.99608 0.003168 0.996832 0.00198 0.99802 7.92E-4 0.999208 0.00392 0.99608 0.003168 0.996832 0.00198 0.99802 7.92E-4 0.999208 2.94E-4 0.999706 2.38E-4 0.999762 1.49E-4 0.999852 5.9E-5 0.999941 0.019406 0.980594 0.015682 0.984318 0.009801 0.990199 0.00392 0.99608 0.00392 0.99608 0.003168 0.996832 0.00198 0.99802 7.92E-4 0.999208 0.00392 0.99608 0.003168 0.996832 0.00198 0.99802 7.92E-4 0.999208 2.94E-4 0.999706 2.38E-4 0.999762 1.49E-4 0.999852 5.9E-5 0.999941 0.190198 0.809802 0.153695 0.846305 0.09606 0.90394 0.038424 0.961576 0.038424 0.961576 0.03105 0.96895 0.019406 0.980594 0.007762 0.992238 0.038424 0.961576 0.03105 0.96895 0.019406 0.980594 0.007762 0.992238 0.002882 0.997118 0.002329 0.997671 0.001455 0.998545 5.82E-4 0.999418 0.153695 0.846305 0.124198 0.875802 0.077624 0.922376 0.03105 0.96895 0.03105 0.96895 0.025091 0.974909 0.015682 0.984318 0.006273 0.993727 0.03105 0.96895 0.025091 0.974909 0.015682 0.984318 0.006273 0.993727 0.002329 0.997671 0.001882 0.998118 0.001176 0.998824 4.7E-4 0.99953 0.038424 0.961576 0.03105 0.96895 0.019406 0.980594 0.007762 0.992238 0.007762 0.992238 0.006273 0.993727 0.00392 0.99608 0.001568 0.998432 0.007762 0.992238 0.006273 0.993727 0.00392 0.99608 0.001568 0.998432 5.82E-4 0.999418 4.7E-4 0.99953 2.94E-4 0.999706 1.18E-4 0.999882 0.038424 0.961576 0.03105 0.96895 0.019406 0.980594 0.007762 0.992238 0.007762 0.992238 0.006273 0.993727 0.00392 0.99608 0.001568 0.998432 0.007762 0.992238 0.006273 0.993727 0.00392 0.99608 0.001568 0.998432 5.82E-4 0.999418 4.7E-4 0.99953 2.94E-4 0.999706 1.18E-4 0.999882 0.153695 0.846305 0.124198 0.875802 0.077624 0.922376 0.03105 0.96895 0.03105 0.96895 0.025091 0.974909 0.015682 0.984318 0.006273 0.993727 0.03105 0.96895 0.025091 0.974909 0.015682 0.984318 0.006273 0.993727 0.002329 0.997671 0.001882 0.998118 0.001176 0.998824 4.7E-4 0.99953 0.124198 0.875802 0.100362 0.899638 0.062726 0.937274 0.025091 0.974909 0.025091 0.974909 0.020275 0.979725 0.012672 0.987328 0.005069 0.994931 0.025091 0.974909 0.020275 0.979725 0.012672 0.987328 0.005069 0.994931 0.001882 0.998118 0.001521 0.998479 9.5E-4 0.99905 3.8E-4 0.99962 0.03105 0.96895 0.025091 0.974909 0.015682 0.984318 0.006273 0.993727 0.006273 0.993727 0.005069 0.994931 0.003168 0.996832 0.001267 0.998733 0.006273 0.993727 0.005069 0.994931 0.003168 0.996832 0.001267 0.998733 4.7E-4 0.99953 3.8E-4 0.99962 2.38E-4 0.999762 9.5E-5 0.999905 0.03105 0.96895 0.025091 0.974909 0.015682 0.984318 0.006273 0.993727 0.006273 0.993727 0.005069 0.994931 0.003168 0.996832 0.001267 0.998733 0.006273 0.993727 0.005069 0.994931 0.003168 0.996832 0.001267 0.998733 4.7E-4 0.99953 3.8E-4 0.99962 2.38E-4 0.999762 9.5E-5 0.999905 0.09606 0.90394 0.077624 0.922376 0.048515 0.951485 0.019406 0.980594 0.019406 0.980594 0.015682 0.984318 0.009801 0.990199 0.00392 0.99608 0.019406 0.980594 0.015682 0.984318 0.009801 0.990199 0.00392 0.99608 0.001455 0.998545 0.001176 0.998824 7.35E-4 0.999265 2.94E-4 0.999706 0.077624 0.922376 0.062726 0.937274 0.039204 0.960796 0.015682 0.984318 0.015682 0.984318 0.012672 0.987328 0.00792 0.99208 0.003168 0.996832 0.015682 0.984318 0.012672 0.987328 0.00792 0.99208 0.003168 0.996832 0.001176 0.998824 9.5E-4 0.99905 5.94E-4 0.999406 2.38E-4 0.999762 0.019406 0.980594 0.015682 0.984318 0.009801 0.990199 0.00392 0.99608 0.00392 0.99608 0.003168 0.996832 0.00198 0.99802 7.92E-4 0.999208 0.00392 0.99608 0.003168 0.996832 0.00198 0.99802 7.92E-4 0.999208 2.94E-4 0.999706 2.38E-4 0.999762 1.49E-4 0.999852 5.9E-5 0.999941 0.019406 0.980594 0.015682 0.984318 0.009801 0.990199 0.00392 0.99608 0.00392 0.99608 0.003168 0.996832 0.00198 0.99802 7.92E-4 0.999208 0.00392 0.99608 0.003168 0.996832 0.00198 0.99802 7.92E-4 0.999208 2.94E-4 0.999706 2.38E-4 0.999762 1.49E-4 0.999852 5.9E-5 0.999941 0.038424 0.961576 0.03105 0.96895 0.019406 0.980594 0.007762 0.992238 0.007762 0.992238 0.006273 0.993727 0.00392 0.99608 0.001568 0.998432 0.007762 0.992238 0.006273 0.993727 0.00392 0.99608 0.001568 0.998432 5.82E-4 0.999418 4.7E-4 0.99953 2.94E-4 0.999706 1.18E-4 0.999882 0.03105 0.96895 0.025091 0.974909 0.015682 0.984318 0.006273 0.993727 0.006273 0.993727 0.005069 0.994931 0.003168 0.996832 0.001267 0.998733 0.006273 0.993727 0.005069 0.994931 0.003168 0.996832 0.001267 0.998733 4.7E-4 0.99953 3.8E-4 0.99962 2.38E-4 0.999762 9.5E-5 0.999905 0.007762 0.992238 0.006273 0.993727 0.00392 0.99608 0.001568 0.998432 0.001568 0.998432 0.001267 0.998733 7.92E-4 0.999208 3.17E-4 0.999683 0.001568 0.998432 0.001267 0.998733 7.92E-4 0.999208 3.17E-4 0.999683 1.18E-4 0.999882 9.5E-5 0.999905 5.9E-5 0.999941 2.4E-5 0.999976 0.007762 0.992238 0.006273 0.993727 0.00392 0.99608 0.001568 0.998432 0.001568 0.998432 0.001267 0.998733 7.92E-4 0.999208 3.17E-4 0.999683 0.001568 0.998432 0.001267 0.998733 7.92E-4 0.999208 3.17E-4 0.999683 1.18E-4 0.999882 9.5E-5 0.999905 5.9E-5 0.999941 2.4E-5 0.999976 0.948613 0.051387 0.766556 0.233444 0.479097 0.520903 0.191639 0.808361 0.191639 0.808361 0.15486 0.84514 0.096787 0.903213 0.038715 0.961285 0.191639 0.808361 0.15486 0.84514 0.096787 0.903213 0.038715 0.961285 0.014373 0.985627 0.011614 0.988386 0.007259 0.992741 0.002904 0.997096 0.766556 0.233444 0.619439 0.380561 0.387149 0.612851 0.15486 0.84514 0.15486 0.84514 0.125139 0.874861 0.078212 0.921788 0.031285 0.968715 0.15486 0.84514 0.125139 0.874861 0.078212 0.921788 0.031285 0.968715 0.011614 0.988386 0.009385 0.990615 0.005866 0.994134 0.002346 0.997654 0.191639 0.808361 0.15486 0.84514 0.096787 0.903213 0.038715 0.961285 0.038715 0.961285 0.031285 0.968715 0.019553 0.980447 0.007821 0.992179 0.038715 0.961285 0.031285 0.968715 0.019553 0.980447 0.007821 0.992179 0.002904 0.997096 0.002346 0.997654 0.001466 0.998534 5.87E-4 0.999413 0.191639 0.808361 0.15486 0.84514 0.096787 0.903213 0.038715 0.961285 0.038715 0.961285 0.031285 0.968715 0.019553 0.980447 0.007821 0.992179 0.038715 0.961285 0.031285 0.968715 0.019553 0.980447 0.007821 0.992179 0.002904 0.997096 0.002346 0.997654 0.001466 0.998534 5.87E-4 0.999413 0.766556 0.233444 0.619439 0.380561 0.387149 0.612851 0.15486 0.84514 0.15486 0.84514 0.125139 0.874861 0.078212 0.921788 0.031285 0.968715 0.15486 0.84514 0.125139 0.874861 0.078212 0.921788 0.031285 0.968715 0.011614 0.988386 0.009385 0.990615 0.005866 0.994134 0.002346 0.997654 0.619439 0.380561 0.500557 0.499443 0.312848 0.687152 0.125139 0.874861 0.125139 0.874861 0.101123 0.898877 0.063202 0.936798 0.025281 0.974719 0.125139 0.874861 0.101123 0.898877 0.063202 0.936798 0.025281 0.974719 0.009385 0.990615 0.007584 0.992416 0.00474 0.99526 0.001896 0.998104 0.15486 0.84514 0.125139 0.874861 0.078212 0.921788 0.031285 0.968715 0.031285 0.968715 0.025281 0.974719 0.0158 0.9842 0.00632 0.99368 0.031285 0.968715 0.025281 0.974719 0.0158 0.9842 0.00632 0.99368 0.002346 0.997654 0.001896 0.998104 0.001185 0.998815 4.74E-4 0.999526 0.15486 0.84514 0.125139 0.874861 0.078212 0.921788 0.031285 0.968715 0.031285 0.968715 0.025281 0.974719 0.0158 0.9842 0.00632 0.99368 0.031285 0.968715 0.025281 0.974719 0.0158 0.9842 0.00632 0.99368 0.002346 0.997654 0.001896 0.998104 0.001185 0.998815 4.74E-4 0.999526 0.479097 0.520903 0.387149 0.612851 0.241968 0.758032 0.096787 0.903213 0.096787 0.903213 0.078212 0.921788 0.048882 0.951118 0.019553 0.980447 0.096787 0.903213 0.078212 0.921788 0.048882 0.951118 0.019553 0.980447 0.007259 0.992741 0.005866 0.994134 0.003666 0.996334 0.001466 0.998534 0.387149 0.612851 0.312848 0.687152 0.19553 0.80447 0.078212 0.921788 0.078212 0.921788 0.063202 0.936798 0.039501 0.960499 0.0158 0.9842 0.078212 0.921788 0.063202 0.936798 0.039501 0.960499 0.0158 0.9842 0.005866 0.994134 0.00474 0.99526 0.002963 0.997037 0.001185 0.998815 0.096787 0.903213 0.078212 0.921788 0.048882 0.951118 0.019553 0.980447 0.019553 0.980447 0.0158 0.9842 0.009875 0.990125 0.00395 0.99605 0.019553 0.980447 0.0158 0.9842 0.009875 0.990125 0.00395 0.99605 0.001466 0.998534 0.001185 0.998815 7.41E-4 0.999259 2.96E-4 0.999704 0.096787 0.903213 0.078212 0.921788 0.048882 0.951118 0.019553 0.980447 0.019553 0.980447 0.0158 0.9842 0.009875 0.990125 0.00395 0.99605 0.019553 0.980447 0.0158 0.9842 0.009875 0.990125 0.00395 0.99605 0.001466 0.998534 0.001185 0.998815 7.41E-4 0.999259 2.96E-4 0.999704 0.191639 0.808361 0.15486 0.84514 0.096787 0.903213 0.038715 0.961285 0.038715 0.961285 0.031285 0.968715 0.019553 0.980447 0.007821 0.992179 0.038715 0.961285 0.031285 0.968715 0.019553 0.980447 0.007821 0.992179 0.002904 0.997096 0.002346 0.997654 0.001466 0.998534 5.87E-4 0.999413 0.15486 0.84514 0.125139 0.874861 0.078212 0.921788 0.031285 0.968715 0.031285 0.968715 0.025281 0.974719 0.0158 0.9842 0.00632 0.99368 0.031285 0.968715 0.025281 0.974719 0.0158 0.9842 0.00632 0.99368 0.002346 0.997654 0.001896 0.998104 0.001185 0.998815 4.74E-4 0.999526 0.038715 0.961285 0.031285 0.968715 0.019553 0.980447 0.007821 0.992179 0.007821 0.992179 0.00632 0.99368 0.00395 0.99605 0.00158 0.99842 0.007821 0.992179 0.00632 0.99368 0.00395 0.99605 0.00158 0.99842 5.87E-4 0.999413 4.74E-4 0.999526 2.96E-4 0.999704 1.19E-4 0.999881 0.038715 0.961285 0.031285 0.968715 0.019553 0.980447 0.007821 0.992179 0.007821 0.992179 0.00632 0.99368 0.00395 0.99605 0.00158 0.99842 0.007821 0.992179 0.00632 0.99368 0.00395 0.99605 0.00158 0.99842 5.87E-4 0.999413 4.74E-4 0.999526 2.96E-4 0.999704 1.19E-4 0.999881 0.766556 0.233444 0.619439 0.380561 0.387149 0.612851 0.15486 0.84514 0.15486 0.84514 0.125139 0.874861 0.078212 0.921788 0.031285 0.968715 0.15486 0.84514 0.125139 0.874861 0.078212 0.921788 0.031285 0.968715 0.011614 0.988386 0.009385 0.990615 0.005866 0.994134 0.002346 0.997654 0.619439 0.380561 0.500557 0.499443 0.312848 0.687152 0.125139 0.874861 0.125139 0.874861 0.101123 0.898877 0.063202 0.936798 0.025281 0.974719 0.125139 0.874861 0.101123 0.898877 0.063202 0.936798 0.025281 0.974719 0.009385 0.990615 0.007584 0.992416 0.00474 0.99526 0.001896 0.998104 0.15486 0.84514 0.125139 0.874861 0.078212 0.921788 0.031285 0.968715 0.031285 0.968715 0.025281 0.974719 0.0158 0.9842 0.00632 0.99368 0.031285 0.968715 0.025281 0.974719 0.0158 0.9842 0.00632 0.99368 0.002346 0.997654 0.001896 0.998104 0.001185 0.998815 4.74E-4 0.999526 0.15486 0.84514 0.125139 0.874861 0.078212 0.921788 0.031285 0.968715 0.031285 0.968715 0.025281 0.974719 0.0158 0.9842 0.00632 0.99368 0.031285 0.968715 0.025281 0.974719 0.0158 0.9842 0.00632 0.99368 0.002346 0.997654 0.001896 0.998104 0.001185 0.998815 4.74E-4 0.999526 0.619439 0.380561 0.500557 0.499443 0.312848 0.687152 0.125139 0.874861 0.125139 0.874861 0.101123 0.898877 0.063202 0.936798 0.025281 0.974719 0.125139 0.874861 0.101123 0.898877 0.063202 0.936798 0.025281 0.974719 0.009385 0.990615 0.007584 0.992416 0.00474 0.99526 0.001896 0.998104 0.500557 0.499443 0.40449 0.59551 0.252806 0.747194 0.101123 0.898877 0.101123 0.898877 0.081715 0.918285 0.051072 0.948928 0.020429 0.979571 0.101123 0.898877 0.081715 0.918285 0.051072 0.948928 0.020429 0.979571 0.007584 0.992416 0.006129 0.993871 0.00383 0.99617 0.001532 0.998468 0.125139 0.874861 0.101123 0.898877 0.063202 0.936798 0.025281 0.974719 0.025281 0.974719 0.020429 0.979571 0.012768 0.987232 0.005107 0.994893 0.025281 0.974719 0.020429 0.979571 0.012768 0.987232 0.005107 0.994893 0.001896 0.998104 0.001532 0.998468 9.58E-4 0.999042 3.83E-4 0.999617 0.125139 0.874861 0.101123 0.898877 0.063202 0.936798 0.025281 0.974719 0.025281 0.974719 0.020429 0.979571 0.012768 0.987232 0.005107 0.994893 0.025281 0.974719 0.020429 0.979571 0.012768 0.987232 0.005107 0.994893 0.001896 0.998104 0.001532 0.998468 9.58E-4 0.999042 3.83E-4 0.999617 0.387149 0.612851 0.312848 0.687152 0.19553 0.80447 0.078212 0.921788 0.078212 0.921788 0.063202 0.936798 0.039501 0.960499 0.0158 0.9842 0.078212 0.921788 0.063202 0.936798 0.039501 0.960499 0.0158 0.9842 0.005866 0.994134 0.00474 0.99526 0.002963 0.997037 0.001185 0.998815 0.312848 0.687152 0.252806 0.747194 0.158004 0.841996 0.063202 0.936798 0.063202 0.936798 0.051072 0.948928 0.03192 0.96808 0.012768 0.987232 0.063202 0.936798 0.051072 0.948928 0.03192 0.96808 0.012768 0.987232 0.00474 0.99526 0.00383 0.99617 0.002394 0.997606 9.58E-4 0.999042 0.078212 0.921788 0.063202 0.936798 0.039501 0.960499 0.0158 0.9842 0.0158 0.9842 0.012768 0.987232 0.00798 0.99202 0.003192 0.996808 0.0158 0.9842 0.012768 0.987232 0.00798 0.99202 0.003192 0.996808 0.001185 0.998815 9.58E-4 0.999042 5.99E-4 0.999402 2.39E-4 0.999761 0.078212 0.921788 0.063202 0.936798 0.039501 0.960499 0.0158 0.9842 0.0158 0.9842 0.012768 0.987232 0.00798 0.99202 0.003192 0.996808 0.0158 0.9842 0.012768 0.987232 0.00798 0.99202 0.003192 0.996808 0.001185 0.998815 9.58E-4 0.999042 5.99E-4 0.999402 2.39E-4 0.999761 0.15486 0.84514 0.125139 0.874861 0.078212 0.921788 0.031285 0.968715 0.031285 0.968715 0.025281 0.974719 0.0158 0.9842 0.00632 0.99368 0.031285 0.968715 0.025281 0.974719 0.0158 0.9842 0.00632 0.99368 0.002346 0.997654 0.001896 0.998104 0.001185 0.998815 4.74E-4 0.999526 0.125139 0.874861 0.101123 0.898877 0.063202 0.936798 0.025281 0.974719 0.025281 0.974719 0.020429 0.979571 0.012768 0.987232 0.005107 0.994893 0.025281 0.974719 0.020429 0.979571 0.012768 0.987232 0.005107 0.994893 0.001896 0.998104 0.001532 0.998468 9.58E-4 0.999042 3.83E-4 0.999617 0.031285 0.968715 0.025281 0.974719 0.0158 0.9842 0.00632 0.99368 0.00632 0.99368 0.005107 0.994893 0.003192 0.996808 0.001277 0.998723 0.00632 0.99368 0.005107 0.994893 0.003192 0.996808 0.001277 0.998723 4.74E-4 0.999526 3.83E-4 0.999617 2.39E-4 0.999761 9.6E-5 0.999904 0.031285 0.968715 0.025281 0.974719 0.0158 0.9842 0.00632 0.99368 0.00632 0.99368 0.005107 0.994893 0.003192 0.996808 0.001277 0.998723 0.00632 0.99368 0.005107 0.994893 0.003192 0.996808 0.001277 0.998723 4.74E-4 0.999526 3.83E-4 0.999617 2.39E-4 0.999761 9.6E-5 0.999904 0.479097 0.520903 0.387149 0.612851 0.241968 0.758032 0.096787 0.903213 0.096787 0.903213 0.078212 0.921788 0.048882 0.951118 0.019553 0.980447 0.096787 0.903213 0.078212 0.921788 0.048882 0.951118 0.019553 0.980447 0.007259 0.992741 0.005866 0.994134 0.003666 0.996334 0.001466 0.998534 0.387149 0.612851 0.312848 0.687152 0.19553 0.80447 0.078212 0.921788 0.078212 0.921788 0.063202 0.936798 0.039501 0.960499 0.0158 0.9842 0.078212 0.921788 0.063202 0.936798 0.039501 0.960499 0.0158 0.9842 0.005866 0.994134 0.00474 0.99526 0.002963 0.997037 0.001185 0.998815 0.096787 0.903213 0.078212 0.921788 0.048882 0.951118 0.019553 0.980447 0.019553 0.980447 0.0158 0.9842 0.009875 0.990125 0.00395 0.99605 0.019553 0.980447 0.0158 0.9842 0.009875 0.990125 0.00395 0.99605 0.001466 0.998534 0.001185 0.998815 7.41E-4 0.999259 2.96E-4 0.999704 0.096787 0.903213 0.078212 0.921788 0.048882 0.951118 0.019553 0.980447 0.019553 0.980447 0.0158 0.9842 0.009875 0.990125 0.00395 0.99605 0.019553 0.980447 0.0158 0.9842 0.009875 0.990125 0.00395 0.99605 0.001466 0.998534 0.001185 0.998815 7.41E-4 0.999259 2.96E-4 0.999704 0.387149 0.612851 0.312848 0.687152 0.19553 0.80447 0.078212 0.921788 0.078212 0.921788 0.063202 0.936798 0.039501 0.960499 0.0158 0.9842 0.078212 0.921788 0.063202 0.936798 0.039501 0.960499 0.0158 0.9842 0.005866 0.994134 0.00474 0.99526 0.002963 0.997037 0.001185 0.998815 0.312848 0.687152 0.252806 0.747194 0.158004 0.841996 0.063202 0.936798 0.063202 0.936798 0.051072 0.948928 0.03192 0.96808 0.012768 0.987232 0.063202 0.936798 0.051072 0.948928 0.03192 0.96808 0.012768 0.987232 0.00474 0.99526 0.00383 0.99617 0.002394 0.997606 9.58E-4 0.999042 0.078212 0.921788 0.063202 0.936798 0.039501 0.960499 0.0158 0.9842 0.0158 0.9842 0.012768 0.987232 0.00798 0.99202 0.003192 0.996808 0.0158 0.9842 0.012768 0.987232 0.00798 0.99202 0.003192 0.996808 0.001185 0.998815 9.58E-4 0.999042 5.99E-4 0.999402 2.39E-4 0.999761 0.078212 0.921788 0.063202 0.936798 0.039501 0.960499 0.0158 0.9842 0.0158 0.9842 0.012768 0.987232 0.00798 0.99202 0.003192 0.996808 0.0158 0.9842 0.012768 0.987232 0.00798 0.99202 0.003192 0.996808 0.001185 0.998815 9.58E-4 0.999042 5.99E-4 0.999402 2.39E-4 0.999761 0.241968 0.758032 0.19553 0.80447 0.122206 0.877794 0.048882 0.951118 0.048882 0.951118 0.039501 0.960499 0.024688 0.975312 0.009875 0.990125 0.048882 0.951118 0.039501 0.960499 0.024688 0.975312 0.009875 0.990125 0.003666 0.996334 0.002963 0.997037 0.001852 0.998148 7.41E-4 0.999259 0.19553 0.80447 0.158004 0.841996 0.098753 0.901247 0.039501 0.960499 0.039501 0.960499 0.03192 0.96808 0.01995 0.98005 0.00798 0.99202 0.039501 0.960499 0.03192 0.96808 0.01995 0.98005 0.00798 0.99202 0.002963 0.997037 0.002394 0.997606 0.001496 0.998504 5.99E-4 0.999402 0.048882 0.951118 0.039501 0.960499 0.024688 0.975312 0.009875 0.990125 0.009875 0.990125 0.00798 0.99202 0.004988 0.995012 0.001995 0.998005 0.009875 0.990125 0.00798 0.99202 0.004988 0.995012 0.001995 0.998005 7.41E-4 0.999259 5.99E-4 0.999402 3.74E-4 0.999626 1.5E-4 0.99985 0.048882 0.951118 0.039501 0.960499 0.024688 0.975312 0.009875 0.990125 0.009875 0.990125 0.00798 0.99202 0.004988 0.995012 0.001995 0.998005 0.009875 0.990125 0.00798 0.99202 0.004988 0.995012 0.001995 0.998005 7.41E-4 0.999259 5.99E-4 0.999402 3.74E-4 0.999626 1.5E-4 0.99985 0.096787 0.903213 0.078212 0.921788 0.048882 0.951118 0.019553 0.980447 0.019553 0.980447 0.0158 0.9842 0.009875 0.990125 0.00395 0.99605 0.019553 0.980447 0.0158 0.9842 0.009875 0.990125 0.00395 0.99605 0.001466 0.998534 0.001185 0.998815 7.41E-4 0.999259 2.96E-4 0.999704 0.078212 0.921788 0.063202 0.936798 0.039501 0.960499 0.0158 0.9842 0.0158 0.9842 0.012768 0.987232 0.00798 0.99202 0.003192 0.996808 0.0158 0.9842 0.012768 0.987232 0.00798 0.99202 0.003192 0.996808 0.001185 0.998815 9.58E-4 0.999042 5.99E-4 0.999402 2.39E-4 0.999761 0.019553 0.980447 0.0158 0.9842 0.009875 0.990125 0.00395 0.99605 0.00395 0.99605 0.003192 0.996808 0.001995 0.998005 7.98E-4 0.999202 0.00395 0.99605 0.003192 0.996808 0.001995 0.998005 7.98E-4 0.999202 2.96E-4 0.999704 2.39E-4 0.999761 1.5E-4 0.99985 6.0E-5 0.99994 0.019553 0.980447 0.0158 0.9842 0.009875 0.990125 0.00395 0.99605 0.00395 0.99605 0.003192 0.996808 0.001995 0.998005 7.98E-4 0.999202 0.00395 0.99605 0.003192 0.996808 0.001995 0.998005 7.98E-4 0.999202 2.96E-4 0.999704 2.39E-4 0.999761 1.5E-4 0.99985 6.0E-5 0.99994 0.191639 0.808361 0.15486 0.84514 0.096787 0.903213 0.038715 0.961285 0.038715 0.961285 0.031285 0.968715 0.019553 0.980447 0.007821 0.992179 0.038715 0.961285 0.031285 0.968715 0.019553 0.980447 0.007821 0.992179 0.002904 0.997096 0.002346 0.997654 0.001466 0.998534 5.87E-4 0.999413 0.15486 0.84514 0.125139 0.874861 0.078212 0.921788 0.031285 0.968715 0.031285 0.968715 0.025281 0.974719 0.0158 0.9842 0.00632 0.99368 0.031285 0.968715 0.025281 0.974719 0.0158 0.9842 0.00632 0.99368 0.002346 0.997654 0.001896 0.998104 0.001185 0.998815 4.74E-4 0.999526 0.038715 0.961285 0.031285 0.968715 0.019553 0.980447 0.007821 0.992179 0.007821 0.992179 0.00632 0.99368 0.00395 0.99605 0.00158 0.99842 0.007821 0.992179 0.00632 0.99368 0.00395 0.99605 0.00158 0.99842 5.87E-4 0.999413 4.74E-4 0.999526 2.96E-4 0.999704 1.19E-4 0.999881 0.038715 0.961285 0.031285 0.968715 0.019553 0.980447 0.007821 0.992179 0.007821 0.992179 0.00632 0.99368 0.00395 0.99605 0.00158 0.99842 0.007821 0.992179 0.00632 0.99368 0.00395 0.99605 0.00158 0.99842 5.87E-4 0.999413 4.74E-4 0.999526 2.96E-4 0.999704 1.19E-4 0.999881 0.15486 0.84514 0.125139 0.874861 0.078212 0.921788 0.031285 0.968715 0.031285 0.968715 0.025281 0.974719 0.0158 0.9842 0.00632 0.99368 0.031285 0.968715 0.025281 0.974719 0.0158 0.9842 0.00632 0.99368 0.002346 0.997654 0.001896 0.998104 0.001185 0.998815 4.74E-4 0.999526 0.125139 0.874861 0.101123 0.898877 0.063202 0.936798 0.025281 0.974719 0.025281 0.974719 0.020429 0.979571 0.012768 0.987232 0.005107 0.994893 0.025281 0.974719 0.020429 0.979571 0.012768 0.987232 0.005107 0.994893 0.001896 0.998104 0.001532 0.998468 9.58E-4 0.999042 3.83E-4 0.999617 0.031285 0.968715 0.025281 0.974719 0.0158 0.9842 0.00632 0.99368 0.00632 0.99368 0.005107 0.994893 0.003192 0.996808 0.001277 0.998723 0.00632 0.99368 0.005107 0.994893 0.003192 0.996808 0.001277 0.998723 4.74E-4 0.999526 3.83E-4 0.999617 2.39E-4 0.999761 9.6E-5 0.999904 0.031285 0.968715 0.025281 0.974719 0.0158 0.9842 0.00632 0.99368 0.00632 0.99368 0.005107 0.994893 0.003192 0.996808 0.001277 0.998723 0.00632 0.99368 0.005107 0.994893 0.003192 0.996808 0.001277 0.998723 4.74E-4 0.999526 3.83E-4 0.999617 2.39E-4 0.999761 9.6E-5 0.999904 0.096787 0.903213 0.078212 0.921788 0.048882 0.951118 0.019553 0.980447 0.019553 0.980447 0.0158 0.9842 0.009875 0.990125 0.00395 0.99605 0.019553 0.980447 0.0158 0.9842 0.009875 0.990125 0.00395 0.99605 0.001466 0.998534 0.001185 0.998815 7.41E-4 0.999259 2.96E-4 0.999704 0.078212 0.921788 0.063202 0.936798 0.039501 0.960499 0.0158 0.9842 0.0158 0.9842 0.012768 0.987232 0.00798 0.99202 0.003192 0.996808 0.0158 0.9842 0.012768 0.987232 0.00798 0.99202 0.003192 0.996808 0.001185 0.998815 9.58E-4 0.999042 5.99E-4 0.999402 2.39E-4 0.999761 0.019553 0.980447 0.0158 0.9842 0.009875 0.990125 0.00395 0.99605 0.00395 0.99605 0.003192 0.996808 0.001995 0.998005 7.98E-4 0.999202 0.00395 0.99605 0.003192 0.996808 0.001995 0.998005 7.98E-4 0.999202 2.96E-4 0.999704 2.39E-4 0.999761 1.5E-4 0.99985 6.0E-5 0.99994 0.019553 0.980447 0.0158 0.9842 0.009875 0.990125 0.00395 0.99605 0.00395 0.99605 0.003192 0.996808 0.001995 0.998005 7.98E-4 0.999202 0.00395 0.99605 0.003192 0.996808 0.001995 0.998005 7.98E-4 0.999202 2.96E-4 0.999704 2.39E-4 0.999761 1.5E-4 0.99985 6.0E-5 0.99994 0.038715 0.961285 0.031285 0.968715 0.019553 0.980447 0.007821 0.992179 0.007821 0.992179 0.00632 0.99368 0.00395 0.99605 0.00158 0.99842 0.007821 0.992179 0.00632 0.99368 0.00395 0.99605 0.00158 0.99842 5.87E-4 0.999413 4.74E-4 0.999526 2.96E-4 0.999704 1.19E-4 0.999881 0.031285 0.968715 0.025281 0.974719 0.0158 0.9842 0.00632 0.99368 0.00632 0.99368 0.005107 0.994893 0.003192 0.996808 0.001277 0.998723 0.00632 0.99368 0.005107 0.994893 0.003192 0.996808 0.001277 0.998723 4.74E-4 0.999526 3.83E-4 0.999617 2.39E-4 0.999761 9.6E-5 0.999904 0.007821 0.992179 0.00632 0.99368 0.00395 0.99605 0.00158 0.99842 0.00158 0.99842 0.001277 0.998723 7.98E-4 0.999202 3.19E-4 0.999681 0.00158 0.99842 0.001277 0.998723 7.98E-4 0.999202 3.19E-4 0.999681 1.19E-4 0.999881 9.6E-5 0.999904 6.0E-5 0.99994 2.4E-5 0.999976 0.007821 0.992179 0.00632 0.99368 0.00395 0.99605 0.00158 0.99842 0.00158 0.99842 0.001277 0.998723 7.98E-4 0.999202 3.19E-4 0.999681 0.00158 0.99842 0.001277 0.998723 7.98E-4 0.999202 3.19E-4 0.999681 1.19E-4 0.999881 9.6E-5 0.999904 6.0E-5 0.99994 2.4E-5 0.999976 0.475495 0.524505 0.384238 0.615762 0.240149 0.759851 0.09606 0.90394 0.09606 0.90394 0.077624 0.922376 0.048515 0.951485 0.019406 0.980594 0.09606 0.90394 0.077624 0.922376 0.048515 0.951485 0.019406 0.980594 0.007204 0.992796 0.005822 0.994178 0.003639 0.996361 0.001455 0.998545 0.384238 0.615762 0.310496 0.689504 0.19406 0.80594 0.077624 0.922376 0.077624 0.922376 0.062726 0.937274 0.039204 0.960796 0.015682 0.984318 0.077624 0.922376 0.062726 0.937274 0.039204 0.960796 0.015682 0.984318 0.005822 0.994178 0.004704 0.995296 0.00294 0.99706 0.001176 0.998824 0.09606 0.90394 0.077624 0.922376 0.048515 0.951485 0.019406 0.980594 0.019406 0.980594 0.015682 0.984318 0.009801 0.990199 0.00392 0.99608 0.019406 0.980594 0.015682 0.984318 0.009801 0.990199 0.00392 0.99608 0.001455 0.998545 0.001176 0.998824 7.35E-4 0.999265 2.94E-4 0.999706 0.09606 0.90394 0.077624 0.922376 0.048515 0.951485 0.019406 0.980594 0.019406 0.980594 0.015682 0.984318 0.009801 0.990199 0.00392 0.99608 0.019406 0.980594 0.015682 0.984318 0.009801 0.990199 0.00392 0.99608 0.001455 0.998545 0.001176 0.998824 7.35E-4 0.999265 2.94E-4 0.999706 0.384238 0.615762 0.310496 0.689504 0.19406 0.80594 0.077624 0.922376 0.077624 0.922376 0.062726 0.937274 0.039204 0.960796 0.015682 0.984318 0.077624 0.922376 0.062726 0.937274 0.039204 0.960796 0.015682 0.984318 0.005822 0.994178 0.004704 0.995296 0.00294 0.99706 0.001176 0.998824 0.310496 0.689504 0.250906 0.749094 0.156816 0.843184 0.062726 0.937274 0.062726 0.937274 0.050688 0.949312 0.03168 0.96832 0.012672 0.987328 0.062726 0.937274 0.050688 0.949312 0.03168 0.96832 0.012672 0.987328 0.004704 0.995296 0.003802 0.996198 0.002376 0.997624 9.5E-4 0.99905 0.077624 0.922376 0.062726 0.937274 0.039204 0.960796 0.015682 0.984318 0.015682 0.984318 0.012672 0.987328 0.00792 0.99208 0.003168 0.996832 0.015682 0.984318 0.012672 0.987328 0.00792 0.99208 0.003168 0.996832 0.001176 0.998824 9.5E-4 0.99905 5.94E-4 0.999406 2.38E-4 0.999762 0.077624 0.922376 0.062726 0.937274 0.039204 0.960796 0.015682 0.984318 0.015682 0.984318 0.012672 0.987328 0.00792 0.99208 0.003168 0.996832 0.015682 0.984318 0.012672 0.987328 0.00792 0.99208 0.003168 0.996832 0.001176 0.998824 9.5E-4 0.99905 5.94E-4 0.999406 2.38E-4 0.999762 0.240149 0.759851 0.19406 0.80594 0.121287 0.878713 0.048515 0.951485 0.048515 0.951485 0.039204 0.960796 0.024502 0.975498 0.009801 0.990199 0.048515 0.951485 0.039204 0.960796 0.024502 0.975498 0.009801 0.990199 0.003639 0.996361 0.00294 0.99706 0.001838 0.998162 7.35E-4 0.999265 0.19406 0.80594 0.156816 0.843184 0.09801 0.90199 0.039204 0.960796 0.039204 0.960796 0.03168 0.96832 0.0198 0.9802 0.00792 0.99208 0.039204 0.960796 0.03168 0.96832 0.0198 0.9802 0.00792 0.99208 0.00294 0.99706 0.002376 0.997624 0.001485 0.998515 5.94E-4 0.999406 0.048515 0.951485 0.039204 0.960796 0.024502 0.975498 0.009801 0.990199 0.009801 0.990199 0.00792 0.99208 0.00495 0.99505 0.00198 0.99802 0.009801 0.990199 0.00792 0.99208 0.00495 0.99505 0.00198 0.99802 7.35E-4 0.999265 5.94E-4 0.999406 3.71E-4 0.999629 1.49E-4 0.999852 0.048515 0.951485 0.039204 0.960796 0.024502 0.975498 0.009801 0.990199 0.009801 0.990199 0.00792 0.99208 0.00495 0.99505 0.00198 0.99802 0.009801 0.990199 0.00792 0.99208 0.00495 0.99505 0.00198 0.99802 7.35E-4 0.999265 5.94E-4 0.999406 3.71E-4 0.999629 1.49E-4 0.999852 0.09606 0.90394 0.077624 0.922376 0.048515 0.951485 0.019406 0.980594 0.019406 0.980594 0.015682 0.984318 0.009801 0.990199 0.00392 0.99608 0.019406 0.980594 0.015682 0.984318 0.009801 0.990199 0.00392 0.99608 0.001455 0.998545 0.001176 0.998824 7.35E-4 0.999265 2.94E-4 0.999706 0.077624 0.922376 0.062726 0.937274 0.039204 0.960796 0.015682 0.984318 0.015682 0.984318 0.012672 0.987328 0.00792 0.99208 0.003168 0.996832 0.015682 0.984318 0.012672 0.987328 0.00792 0.99208 0.003168 0.996832 0.001176 0.998824 9.5E-4 0.99905 5.94E-4 0.999406 2.38E-4 0.999762 0.019406 0.980594 0.015682 0.984318 0.009801 0.990199 0.00392 0.99608 0.00392 0.99608 0.003168 0.996832 0.00198 0.99802 7.92E-4 0.999208 0.00392 0.99608 0.003168 0.996832 0.00198 0.99802 7.92E-4 0.999208 2.94E-4 0.999706 2.38E-4 0.999762 1.49E-4 0.999852 5.9E-5 0.999941 0.019406 0.980594 0.015682 0.984318 0.009801 0.990199 0.00392 0.99608 0.00392 0.99608 0.003168 0.996832 0.00198 0.99802 7.92E-4 0.999208 0.00392 0.99608 0.003168 0.996832 0.00198 0.99802 7.92E-4 0.999208 2.94E-4 0.999706 2.38E-4 0.999762 1.49E-4 0.999852 5.9E-5 0.999941 0.384238 0.615762 0.310496 0.689504 0.19406 0.80594 0.077624 0.922376 0.077624 0.922376 0.062726 0.937274 0.039204 0.960796 0.015682 0.984318 0.077624 0.922376 0.062726 0.937274 0.039204 0.960796 0.015682 0.984318 0.005822 0.994178 0.004704 0.995296 0.00294 0.99706 0.001176 0.998824 0.310496 0.689504 0.250906 0.749094 0.156816 0.843184 0.062726 0.937274 0.062726 0.937274 0.050688 0.949312 0.03168 0.96832 0.012672 0.987328 0.062726 0.937274 0.050688 0.949312 0.03168 0.96832 0.012672 0.987328 0.004704 0.995296 0.003802 0.996198 0.002376 0.997624 9.5E-4 0.99905 0.077624 0.922376 0.062726 0.937274 0.039204 0.960796 0.015682 0.984318 0.015682 0.984318 0.012672 0.987328 0.00792 0.99208 0.003168 0.996832 0.015682 0.984318 0.012672 0.987328 0.00792 0.99208 0.003168 0.996832 0.001176 0.998824 9.5E-4 0.99905 5.94E-4 0.999406 2.38E-4 0.999762 0.077624 0.922376 0.062726 0.937274 0.039204 0.960796 0.015682 0.984318 0.015682 0.984318 0.012672 0.987328 0.00792 0.99208 0.003168 0.996832 0.015682 0.984318 0.012672 0.987328 0.00792 0.99208 0.003168 0.996832 0.001176 0.998824 9.5E-4 0.99905 5.94E-4 0.999406 2.38E-4 0.999762 0.310496 0.689504 0.250906 0.749094 0.156816 0.843184 0.062726 0.937274 0.062726 0.937274 0.050688 0.949312 0.03168 0.96832 0.012672 0.987328 0.062726 0.937274 0.050688 0.949312 0.03168 0.96832 0.012672 0.987328 0.004704 0.995296 0.003802 0.996198 0.002376 0.997624 9.5E-4 0.99905 0.250906 0.749094 0.202752 0.797248 0.12672 0.87328 0.050688 0.949312 0.050688 0.949312 0.04096 0.95904 0.0256 0.9744 0.01024 0.98976 0.050688 0.949312 0.04096 0.95904 0.0256 0.9744 0.01024 0.98976 0.003802 0.996198 0.003072 0.996928 0.00192 0.99808 7.68E-4 0.999232 0.062726 0.937274 0.050688 0.949312 0.03168 0.96832 0.012672 0.987328 0.012672 0.987328 0.01024 0.98976 0.0064 0.9936 0.00256 0.99744 0.012672 0.987328 0.01024 0.98976 0.0064 0.9936 0.00256 0.99744 9.5E-4 0.99905 7.68E-4 0.999232 4.8E-4 0.99952 1.92E-4 0.999808 0.062726 0.937274 0.050688 0.949312 0.03168 0.96832 0.012672 0.987328 0.012672 0.987328 0.01024 0.98976 0.0064 0.9936 0.00256 0.99744 0.012672 0.987328 0.01024 0.98976 0.0064 0.9936 0.00256 0.99744 9.5E-4 0.99905 7.68E-4 0.999232 4.8E-4 0.99952 1.92E-4 0.999808 0.19406 0.80594 0.156816 0.843184 0.09801 0.90199 0.039204 0.960796 0.039204 0.960796 0.03168 0.96832 0.0198 0.9802 0.00792 0.99208 0.039204 0.960796 0.03168 0.96832 0.0198 0.9802 0.00792 0.99208 0.00294 0.99706 0.002376 0.997624 0.001485 0.998515 5.94E-4 0.999406 0.156816 0.843184 0.12672 0.87328 0.0792 0.9208 0.03168 0.96832 0.03168 0.96832 0.0256 0.9744 0.016 0.984 0.0064 0.9936 0.03168 0.96832 0.0256 0.9744 0.016 0.984 0.0064 0.9936 0.002376 0.997624 0.00192 0.99808 0.0012 0.9988 4.8E-4 0.99952 0.039204 0.960796 0.03168 0.96832 0.0198 0.9802 0.00792 0.99208 0.00792 0.99208 0.0064 0.9936 0.0040 0.996 0.0016 0.9984 0.00792 0.99208 0.0064 0.9936 0.0040 0.996 0.0016 0.9984 5.94E-4 0.999406 4.8E-4 0.99952 3.0E-4 0.9997 1.2E-4 0.99988 0.039204 0.960796 0.03168 0.96832 0.0198 0.9802 0.00792 0.99208 0.00792 0.99208 0.0064 0.9936 0.0040 0.996 0.0016 0.9984 0.00792 0.99208 0.0064 0.9936 0.0040 0.996 0.0016 0.9984 5.94E-4 0.999406 4.8E-4 0.99952 3.0E-4 0.9997 1.2E-4 0.99988 0.077624 0.922376 0.062726 0.937274 0.039204 0.960796 0.015682 0.984318 0.015682 0.984318 0.012672 0.987328 0.00792 0.99208 0.003168 0.996832 0.015682 0.984318 0.012672 0.987328 0.00792 0.99208 0.003168 0.996832 0.001176 0.998824 9.5E-4 0.99905 5.94E-4 0.999406 2.38E-4 0.999762 0.062726 0.937274 0.050688 0.949312 0.03168 0.96832 0.012672 0.987328 0.012672 0.987328 0.01024 0.98976 0.0064 0.9936 0.00256 0.99744 0.012672 0.987328 0.01024 0.98976 0.0064 0.9936 0.00256 0.99744 9.5E-4 0.99905 7.68E-4 0.999232 4.8E-4 0.99952 1.92E-4 0.999808 0.015682 0.984318 0.012672 0.987328 0.00792 0.99208 0.003168 0.996832 0.003168 0.996832 0.00256 0.99744 0.0016 0.9984 6.4E-4 0.99936 0.003168 0.996832 0.00256 0.99744 0.0016 0.9984 6.4E-4 0.99936 2.38E-4 0.999762 1.92E-4 0.999808 1.2E-4 0.99988 4.8E-5 0.999952 0.015682 0.984318 0.012672 0.987328 0.00792 0.99208 0.003168 0.996832 0.003168 0.996832 0.00256 0.99744 0.0016 0.9984 6.4E-4 0.99936 0.003168 0.996832 0.00256 0.99744 0.0016 0.9984 6.4E-4 0.99936 2.38E-4 0.999762 1.92E-4 0.999808 1.2E-4 0.99988 4.8E-5 0.999952 0.240149 0.759851 0.19406 0.80594 0.121287 0.878713 0.048515 0.951485 0.048515 0.951485 0.039204 0.960796 0.024502 0.975498 0.009801 0.990199 0.048515 0.951485 0.039204 0.960796 0.024502 0.975498 0.009801 0.990199 0.003639 0.996361 0.00294 0.99706 0.001838 0.998162 7.35E-4 0.999265 0.19406 0.80594 0.156816 0.843184 0.09801 0.90199 0.039204 0.960796 0.039204 0.960796 0.03168 0.96832 0.0198 0.9802 0.00792 0.99208 0.039204 0.960796 0.03168 0.96832 0.0198 0.9802 0.00792 0.99208 0.00294 0.99706 0.002376 0.997624 0.001485 0.998515 5.94E-4 0.999406 0.048515 0.951485 0.039204 0.960796 0.024502 0.975498 0.009801 0.990199 0.009801 0.990199 0.00792 0.99208 0.00495 0.99505 0.00198 0.99802 0.009801 0.990199 0.00792 0.99208 0.00495 0.99505 0.00198 0.99802 7.35E-4 0.999265 5.94E-4 0.999406 3.71E-4 0.999629 1.49E-4 0.999852 0.048515 0.951485 0.039204 0.960796 0.024502 0.975498 0.009801 0.990199 0.009801 0.990199 0.00792 0.99208 0.00495 0.99505 0.00198 0.99802 0.009801 0.990199 0.00792 0.99208 0.00495 0.99505 0.00198 0.99802 7.35E-4 0.999265 5.94E-4 0.999406 3.71E-4 0.999629 1.49E-4 0.999852 0.19406 0.80594 0.156816 0.843184 0.09801 0.90199 0.039204 0.960796 0.039204 0.960796 0.03168 0.96832 0.0198 0.9802 0.00792 0.99208 0.039204 0.960796 0.03168 0.96832 0.0198 0.9802 0.00792 0.99208 0.00294 0.99706 0.002376 0.997624 0.001485 0.998515 5.94E-4 0.999406 0.156816 0.843184 0.12672 0.87328 0.0792 0.9208 0.03168 0.96832 0.03168 0.96832 0.0256 0.9744 0.016 0.984 0.0064 0.9936 0.03168 0.96832 0.0256 0.9744 0.016 0.984 0.0064 0.9936 0.002376 0.997624 0.00192 0.99808 0.0012 0.9988 4.8E-4 0.99952 0.039204 0.960796 0.03168 0.96832 0.0198 0.9802 0.00792 0.99208 0.00792 0.99208 0.0064 0.9936 0.0040 0.996 0.0016 0.9984 0.00792 0.99208 0.0064 0.9936 0.0040 0.996 0.0016 0.9984 5.94E-4 0.999406 4.8E-4 0.99952 3.0E-4 0.9997 1.2E-4 0.99988 0.039204 0.960796 0.03168 0.96832 0.0198 0.9802 0.00792 0.99208 0.00792 0.99208 0.0064 0.9936 0.0040 0.996 0.0016 0.9984 0.00792 0.99208 0.0064 0.9936 0.0040 0.996 0.0016 0.9984 5.94E-4 0.999406 4.8E-4 0.99952 3.0E-4 0.9997 1.2E-4 0.99988 0.121287 0.878713 0.09801 0.90199 0.061256 0.938744 0.024502 0.975498 0.024502 0.975498 0.0198 0.9802 0.012375 0.987625 0.00495 0.99505 0.024502 0.975498 0.0198 0.9802 0.012375 0.987625 0.00495 0.99505 0.001838 0.998162 0.001485 0.998515 9.28E-4 0.999072 3.71E-4 0.999629 0.09801 0.90199 0.0792 0.9208 0.0495 0.9505 0.0198 0.9802 0.0198 0.9802 0.016 0.984 0.01 0.99 0.0040 0.996 0.0198 0.9802 0.016 0.984 0.01 0.99 0.0040 0.996 0.001485 0.998515 0.0012 0.9988 7.5E-4 0.99925 3.0E-4 0.9997 0.024502 0.975498 0.0198 0.9802 0.012375 0.987625 0.00495 0.99505 0.00495 0.99505 0.0040 0.996 0.0025 0.9975 0.0010 0.999 0.00495 0.99505 0.0040 0.996 0.0025 0.9975 0.0010 0.999 3.71E-4 0.999629 3.0E-4 0.9997 1.88E-4 0.999812 7.5E-5 0.999925 0.024502 0.975498 0.0198 0.9802 0.012375 0.987625 0.00495 0.99505 0.00495 0.99505 0.0040 0.996 0.0025 0.9975 0.0010 0.999 0.00495 0.99505 0.0040 0.996 0.0025 0.9975 0.0010 0.999 3.71E-4 0.999629 3.0E-4 0.9997 1.88E-4 0.999812 7.5E-5 0.999925 0.048515 0.951485 0.039204 0.960796 0.024502 0.975498 0.009801 0.990199 0.009801 0.990199 0.00792 0.99208 0.00495 0.99505 0.00198 0.99802 0.009801 0.990199 0.00792 0.99208 0.00495 0.99505 0.00198 0.99802 7.35E-4 0.999265 5.94E-4 0.999406 3.71E-4 0.999629 1.49E-4 0.999852 0.039204 0.960796 0.03168 0.96832 0.0198 0.9802 0.00792 0.99208 0.00792 0.99208 0.0064 0.9936 0.0040 0.996 0.0016 0.9984 0.00792 0.99208 0.0064 0.9936 0.0040 0.996 0.0016 0.9984 5.94E-4 0.999406 4.8E-4 0.99952 3.0E-4 0.9997 1.2E-4 0.99988 0.009801 0.990199 0.00792 0.99208 0.00495 0.99505 0.00198 0.99802 0.00198 0.99802 0.0016 0.9984 0.0010 0.999 4.0E-4 0.9996 0.00198 0.99802 0.0016 0.9984 0.0010 0.999 4.0E-4 0.9996 1.49E-4 0.999852 1.2E-4 0.99988 7.5E-5 0.999925 3.0E-5 0.99997 0.009801 0.990199 0.00792 0.99208 0.00495 0.99505 0.00198 0.99802 0.00198 0.99802 0.0016 0.9984 0.0010 0.999 4.0E-4 0.9996 0.00198 0.99802 0.0016 0.9984 0.0010 0.999 4.0E-4 0.9996 1.49E-4 0.999852 1.2E-4 0.99988 7.5E-5 0.999925 3.0E-5 0.99997 0.09606 0.90394 0.077624 0.922376 0.048515 0.951485 0.019406 0.980594 0.019406 0.980594 0.015682 0.984318 0.009801 0.990199 0.00392 0.99608 0.019406 0.980594 0.015682 0.984318 0.009801 0.990199 0.00392 0.99608 0.001455 0.998545 0.001176 0.998824 7.35E-4 0.999265 2.94E-4 0.999706 0.077624 0.922376 0.062726 0.937274 0.039204 0.960796 0.015682 0.984318 0.015682 0.984318 0.012672 0.987328 0.00792 0.99208 0.003168 0.996832 0.015682 0.984318 0.012672 0.987328 0.00792 0.99208 0.003168 0.996832 0.001176 0.998824 9.5E-4 0.99905 5.94E-4 0.999406 2.38E-4 0.999762 0.019406 0.980594 0.015682 0.984318 0.009801 0.990199 0.00392 0.99608 0.00392 0.99608 0.003168 0.996832 0.00198 0.99802 7.92E-4 0.999208 0.00392 0.99608 0.003168 0.996832 0.00198 0.99802 7.92E-4 0.999208 2.94E-4 0.999706 2.38E-4 0.999762 1.49E-4 0.999852 5.9E-5 0.999941 0.019406 0.980594 0.015682 0.984318 0.009801 0.990199 0.00392 0.99608 0.00392 0.99608 0.003168 0.996832 0.00198 0.99802 7.92E-4 0.999208 0.00392 0.99608 0.003168 0.996832 0.00198 0.99802 7.92E-4 0.999208 2.94E-4 0.999706 2.38E-4 0.999762 1.49E-4 0.999852 5.9E-5 0.999941 0.077624 0.922376 0.062726 0.937274 0.039204 0.960796 0.015682 0.984318 0.015682 0.984318 0.012672 0.987328 0.00792 0.99208 0.003168 0.996832 0.015682 0.984318 0.012672 0.987328 0.00792 0.99208 0.003168 0.996832 0.001176 0.998824 9.5E-4 0.99905 5.94E-4 0.999406 2.38E-4 0.999762 0.062726 0.937274 0.050688 0.949312 0.03168 0.96832 0.012672 0.987328 0.012672 0.987328 0.01024 0.98976 0.0064 0.9936 0.00256 0.99744 0.012672 0.987328 0.01024 0.98976 0.0064 0.9936 0.00256 0.99744 9.5E-4 0.99905 7.68E-4 0.999232 4.8E-4 0.99952 1.92E-4 0.999808 0.015682 0.984318 0.012672 0.987328 0.00792 0.99208 0.003168 0.996832 0.003168 0.996832 0.00256 0.99744 0.0016 0.9984 6.4E-4 0.99936 0.003168 0.996832 0.00256 0.99744 0.0016 0.9984 6.4E-4 0.99936 2.38E-4 0.999762 1.92E-4 0.999808 1.2E-4 0.99988 4.8E-5 0.999952 0.015682 0.984318 0.012672 0.987328 0.00792 0.99208 0.003168 0.996832 0.003168 0.996832 0.00256 0.99744 0.0016 0.9984 6.4E-4 0.99936 0.003168 0.996832 0.00256 0.99744 0.0016 0.9984 6.4E-4 0.99936 2.38E-4 0.999762 1.92E-4 0.999808 1.2E-4 0.99988 4.8E-5 0.999952 0.048515 0.951485 0.039204 0.960796 0.024502 0.975498 0.009801 0.990199 0.009801 0.990199 0.00792 0.99208 0.00495 0.99505 0.00198 0.99802 0.009801 0.990199 0.00792 0.99208 0.00495 0.99505 0.00198 0.99802 7.35E-4 0.999265 5.94E-4 0.999406 3.71E-4 0.999629 1.49E-4 0.999852 0.039204 0.960796 0.03168 0.96832 0.0198 0.9802 0.00792 0.99208 0.00792 0.99208 0.0064 0.9936 0.0040 0.996 0.0016 0.9984 0.00792 0.99208 0.0064 0.9936 0.0040 0.996 0.0016 0.9984 5.94E-4 0.999406 4.8E-4 0.99952 3.0E-4 0.9997 1.2E-4 0.99988 0.009801 0.990199 0.00792 0.99208 0.00495 0.99505 0.00198 0.99802 0.00198 0.99802 0.0016 0.9984 0.0010 0.999 4.0E-4 0.9996 0.00198 0.99802 0.0016 0.9984 0.0010 0.999 4.0E-4 0.9996 1.49E-4 0.999852 1.2E-4 0.99988 7.5E-5 0.999925 3.0E-5 0.99997 0.009801 0.990199 0.00792 0.99208 0.00495 0.99505 0.00198 0.99802 0.00198 0.99802 0.0016 0.9984 0.0010 0.999 4.0E-4 0.9996 0.00198 0.99802 0.0016 0.9984 0.0010 0.999 4.0E-4 0.9996 1.49E-4 0.999852 1.2E-4 0.99988 7.5E-5 0.999925 3.0E-5 0.99997 0.019406 0.980594 0.015682 0.984318 0.009801 0.990199 0.00392 0.99608 0.00392 0.99608 0.003168 0.996832 0.00198 0.99802 7.92E-4 0.999208 0.00392 0.99608 0.003168 0.996832 0.00198 0.99802 7.92E-4 0.999208 2.94E-4 0.999706 2.38E-4 0.999762 1.49E-4 0.999852 5.9E-5 0.999941 0.015682 0.984318 0.012672 0.987328 0.00792 0.99208 0.003168 0.996832 0.003168 0.996832 0.00256 0.99744 0.0016 0.9984 6.4E-4 0.99936 0.003168 0.996832 0.00256 0.99744 0.0016 0.9984 6.4E-4 0.99936 2.38E-4 0.999762 1.92E-4 0.999808 1.2E-4 0.99988 4.8E-5 0.999952 0.00392 0.99608 0.003168 0.996832 0.00198 0.99802 7.92E-4 0.999208 7.92E-4 0.999208 6.4E-4 0.99936 4.0E-4 0.9996 1.6E-4 0.99984 7.92E-4 0.999208 6.4E-4 0.99936 4.0E-4 0.9996 1.6E-4 0.99984 5.9E-5 0.999941 4.8E-5 0.999952 3.0E-5 0.99997 1.2E-5 0.999988 0.00392 0.99608 0.003168 0.996832 0.00198 0.99802 7.92E-4 0.999208 7.92E-4 0.999208 6.4E-4 0.99936 4.0E-4 0.9996 1.6E-4 0.99984 7.92E-4 0.999208 6.4E-4 0.99936 4.0E-4 0.9996 1.6E-4 0.99984 5.9E-5 0.999941 4.8E-5 0.999952 3.0E-5 0.99997 1.2E-5 0.999988 0.948613 0.051387 0.766556 0.233444 0.479097 0.520903 0.191639 0.808361 0.191639 0.808361 0.15486 0.84514 0.096787 0.903213 0.038715 0.961285 0.191639 0.808361 0.15486 0.84514 0.096787 0.903213 0.038715 0.961285 0.014373 0.985627 0.011614 0.988386 0.007259 0.992741 0.002904 0.997096 0.766556 0.233444 0.619439 0.380561 0.387149 0.612851 0.15486 0.84514 0.15486 0.84514 0.125139 0.874861 0.078212 0.921788 0.031285 0.968715 0.15486 0.84514 0.125139 0.874861 0.078212 0.921788 0.031285 0.968715 0.011614 0.988386 0.009385 0.990615 0.005866 0.994134 0.002346 0.997654 0.191639 0.808361 0.15486 0.84514 0.096787 0.903213 0.038715 0.961285 0.038715 0.961285 0.031285 0.968715 0.019553 0.980447 0.007821 0.992179 0.038715 0.961285 0.031285 0.968715 0.019553 0.980447 0.007821 0.992179 0.002904 0.997096 0.002346 0.997654 0.001466 0.998534 5.87E-4 0.999413 0.191639 0.808361 0.15486 0.84514 0.096787 0.903213 0.038715 0.961285 0.038715 0.961285 0.031285 0.968715 0.019553 0.980447 0.007821 0.992179 0.038715 0.961285 0.031285 0.968715 0.019553 0.980447 0.007821 0.992179 0.002904 0.997096 0.002346 0.997654 0.001466 0.998534 5.87E-4 0.999413 0.766556 0.233444 0.619439 0.380561 0.387149 0.612851 0.15486 0.84514 0.15486 0.84514 0.125139 0.874861 0.078212 0.921788 0.031285 0.968715 0.15486 0.84514 0.125139 0.874861 0.078212 0.921788 0.031285 0.968715 0.011614 0.988386 0.009385 0.990615 0.005866 0.994134 0.002346 0.997654 0.619439 0.380561 0.500557 0.499443 0.312848 0.687152 0.125139 0.874861 0.125139 0.874861 0.101123 0.898877 0.063202 0.936798 0.025281 0.974719 0.125139 0.874861 0.101123 0.898877 0.063202 0.936798 0.025281 0.974719 0.009385 0.990615 0.007584 0.992416 0.00474 0.99526 0.001896 0.998104 0.15486 0.84514 0.125139 0.874861 0.078212 0.921788 0.031285 0.968715 0.031285 0.968715 0.025281 0.974719 0.0158 0.9842 0.00632 0.99368 0.031285 0.968715 0.025281 0.974719 0.0158 0.9842 0.00632 0.99368 0.002346 0.997654 0.001896 0.998104 0.001185 0.998815 4.74E-4 0.999526 0.15486 0.84514 0.125139 0.874861 0.078212 0.921788 0.031285 0.968715 0.031285 0.968715 0.025281 0.974719 0.0158 0.9842 0.00632 0.99368 0.031285 0.968715 0.025281 0.974719 0.0158 0.9842 0.00632 0.99368 0.002346 0.997654 0.001896 0.998104 0.001185 0.998815 4.74E-4 0.999526 0.479097 0.520903 0.387149 0.612851 0.241968 0.758032 0.096787 0.903213 0.096787 0.903213 0.078212 0.921788 0.048882 0.951118 0.019553 0.980447 0.096787 0.903213 0.078212 0.921788 0.048882 0.951118 0.019553 0.980447 0.007259 0.992741 0.005866 0.994134 0.003666 0.996334 0.001466 0.998534 0.387149 0.612851 0.312848 0.687152 0.19553 0.80447 0.078212 0.921788 0.078212 0.921788 0.063202 0.936798 0.039501 0.960499 0.0158 0.9842 0.078212 0.921788 0.063202 0.936798 0.039501 0.960499 0.0158 