<?xml version="1.0"?>

<!-- DTD for the XMLBIF 0.3 format -->
<!DOCTYPE BIF [
	<!ELEMENT BIF ( NETWORK )*>
		<!ATTLIST BIF VERSION CDATA #REQUIRED>
	<!ELEMENT NETWORK ( NAME, ( PROPERTY | VARIABLE | DEFINITION )* )>
	<!ELEMENT NAME (#PCDATA)>
	<!ELEMENT VARIABLE ( NAME, ( OUTCOME | PROPERTY )* ) >
		<!ATTLIST VARIABLE TYPE (nature|decision|utility) "nature">
	<!ELEMENT OUTCOME (#PCDATA)>
	<!ELEMENT DEFINITION ( FOR | GIVEN | TABLE | PROPERTY )* >
	<!ELEMENT FOR (#PCDATA)>
	<!ELEMENT GIVEN (#PCDATA)>
	<!ELEMENT TABLE (#PCDATA)>
	<!ELEMENT PROPERTY (#PCDATA)>
]>

<BIF VERSION="0.3">
	<NETWORK>
	<NAME>bayesiannetwork</NAME>
		<!-- Variables -->
		<VARIABLE TYPE="nature">
			<NAME>NODE000</NAME>
			<OUTCOME>STATE00</OUTCOME>
			<OUTCOME>STATE01</OUTCOME>
			<PROPERTY>position = (1238, 275)</PROPERTY>
		</VARIABLE>
		<VARIABLE TYPE="nature">
			<NAME>NODE001</NAME>
			<OUTCOME>STATE00</OUTCOME>
			<OUTCOME>STATE01</OUTCOME>
			<PROPERTY>position = (320, 358)</PROPERTY>
		</VARIABLE>
		<VARIABLE TYPE="nature">
			<NAME>NODE002</NAME>
			<OUTCOME>STATE00</OUTCOME>
			<OUTCOME>STATE01</OUTCOME>
			<PROPERTY>position = (785, 439)</PROPERTY>
		</VARIABLE>
		<VARIABLE TYPE="nature">
			<NAME>NODE003</NAME>
			<OUTCOME>STATE00</OUTCOME>
			<OUTCOME>STATE01</OUTCOME>
			<PROPERTY>position = (891, 701)</PROPERTY>
		</VARIABLE>
		<VARIABLE TYPE="nature">
			<NAME>NODE004</NAME>
			<OUTCOME>STATE00</OUTCOME>
			<OUTCOME>STATE01</OUTCOME>
			<PROPERTY>position = (787, 334)</PROPERTY>
		</VARIABLE>
		<VARIABLE TYPE="nature">
			<NAME>NODE005</NAME>
			<OUTCOME>STATE00</OUTCOME>
			<OUTCOME>STATE01</OUTCOME>
			<PROPERTY>position = (588, 672)</PROPERTY>
		</VARIABLE>
		<VARIABLE TYPE="nature">
			<NAME>NODE006</NAME>
			<OUTCOME>STATE00</OUTCOME>
			<OUTCOME>STATE01</OUTCOME>
			<PROPERTY>position = (1257, 66)</PROPERTY>
		</VARIABLE>
		<VARIABLE TYPE="nature">
			<NAME>NODE007</NAME>
			<OUTCOME>STATE00</OUTCOME>
			<OUTCOME>STATE01</OUTCOME>
			<PROPERTY>position = (850, 578)</PROPERTY>
		</VARIABLE>
		<VARIABLE TYPE="nature">
			<NAME>NODE008</NAME>
			<OUTCOME>STATE00</OUTCOME>
			<OUTCOME>STATE01</OUTCOME>
			<PROPERTY>position = (785, 647)</PROPERTY>
		</VARIABLE>
		<VARIABLE TYPE="nature">
			<NAME>NODE009</NAME>
			<OUTCOME>STATE00</OUTCOME>
			<OUTCOME>STATE01</OUTCOME>
			<PROPERTY>position = (389, 55)</PROPERTY>
		</VARIABLE>
		<VARIABLE TYPE="nature">
			<NAME>NODE010</NAME>
			<OUTCOME>STATE00</OUTCOME>
			<OUTCOME>STATE01</OUTCOME>
			<PROPERTY>position = (745, 513)</PROPERTY>
		</VARIABLE>
		<VARIABLE TYPE="nature">
			<NAME>NODE011</NAME>
			<OUTCOME>STATE00</OUTCOME>
			<OUTCOME>STATE01</OUTCOME>
			<PROPERTY>position = (874, 464)</PROPERTY>
		</VARIABLE>
		<VARIABLE TYPE="nature">
			<NAME>NODE012</NAME>
			<OUTCOME>STATE00</OUTCOME>
			<OUTCOME>STATE01</OUTCOME>
			<PROPERTY>position = (907, 365)</PROPERTY>
		</VARIABLE>
		<VARIABLE TYPE="nature">
			<NAME>NODE013</NAME>
			<OUTCOME>STATE00</OUTCOME>
			<OUTCOME>STATE01</OUTCOME>
			<PROPERTY>position = (615, 391)</PROPERTY>
		</VARIABLE>
		<VARIABLE TYPE="nature">
			<NAME>NODE014</NAME>
			<OUTCOME>STATE00</OUTCOME>
			<OUTCOME>STATE01</OUTCOME>
			<PROPERTY>position = (822, 926)</PROPERTY>
		</VARIABLE>
		<VARIABLE TYPE="nature">
			<NAME>NODE015</NAME>
			<OUTCOME>STATE00</OUTCOME>
			<OUTCOME>STATE01</OUTCOME>
			<PROPERTY>position = (295, 1169)</PROPERTY>
		</VARIABLE>
		<VARIABLE TYPE="nature">
			<NAME>NODE016</NAME>
			<OUTCOME>STATE00</OUTCOME>
			<OUTCOME>STATE01</OUTCOME>
			<PROPERTY>position = (452, 491)</PROPERTY>
		</VARIABLE>
		<VARIABLE TYPE="nature">
			<NAME>NODE017</NAME>
			<OUTCOME>STATE00</OUTCOME>
			<OUTCOME>STATE01</OUTCOME>
			<PROPERTY>position = (1025, 595)</PROPERTY>
		</VARIABLE>
		<VARIABLE TYPE="nature">
			<NAME>NODE018</NAME>
			<OUTCOME>STATE00</OUTCOME>
			<OUTCOME>STATE01</OUTCOME>
			<PROPERTY>position = (652, 511)</PROPERTY>
		</VARIABLE>
		<VARIABLE TYPE="nature">
			<NAME>NODE019</NAME>
			<OUTCOME>STATE00</OUTCOME>
			<OUTCOME>STATE01</OUTCOME>
			<PROPERTY>position = (142, 504)</PROPERTY>
		</VARIABLE>
		<VARIABLE TYPE="nature">
			<NAME>NODE020</NAME>
			<OUTCOME>STATE00</OUTCOME>
			<OUTCOME>STATE01</OUTCOME>
			<PROPERTY>position = (691, 432)</PROPERTY>
		</VARIABLE>
		<VARIABLE TYPE="nature">
			<NAME>NODE021</NAME>
			<OUTCOME>STATE00</OUTCOME>
			<OUTCOME>STATE01</OUTCOME>
			<PROPERTY>position = (581, 559)</PROPERTY>
		</VARIABLE>
		<VARIABLE TYPE="nature">
			<NAME>NODE022</NAME>
			<OUTCOME>STATE00</OUTCOME>
			<OUTCOME>STATE01</OUTCOME>
			<PROPERTY>position = (417, 564)</PROPERTY>
		</VARIABLE>
		<VARIABLE TYPE="nature">
			<NAME>NODE023</NAME>
			<OUTCOME>STATE00</OUTCOME>
			<OUTCOME>STATE01</OUTCOME>
			<PROPERTY>position = (686, 325)</PROPERTY>
		</VARIABLE>
		<VARIABLE TYPE="nature">
			<NAME>NODE024</NAME>
			<OUTCOME>STATE00</OUTCOME>
			<OUTCOME>STATE01</OUTCOME>
			<PROPERTY>position = (830, 138)</PROPERTY>
		</VARIABLE>
		<VARIABLE TYPE="nature">
			<NAME>NODE025</NAME>
			<OUTCOME>STATE00</OUTCOME>
			<OUTCOME>STATE01</OUTCOME>
			<PROPERTY>position = (651, 742)</PROPERTY>
		</VARIABLE>
		<VARIABLE TYPE="nature">
			<NAME>NODE026</NAME>
			<OUTCOME>STATE00</OUTCOME>
			<OUTCOME>STATE01</OUTCOME>
			<PROPERTY>position = (920, 954)</PROPERTY>
		</VARIABLE>
		<VARIABLE TYPE="nature">
			<NAME>NODE027</NAME>
			<OUTCOME>STATE00</OUTCOME>
			<OUTCOME>STATE01</OUTCOME>
			<PROPERTY>position = (418, 952)</PROPERTY>
		</VARIABLE>
		<VARIABLE TYPE="nature">
			<NAME>NODE028</NAME>
			<OUTCOME>STATE00</OUTCOME>
			<OUTCOME>STATE01</OUTCOME>
			<PROPERTY>position = (178, 689)</PROPERTY>
		</VARIABLE>
		<VARIABLE TYPE="nature">
			<NAME>NODE029</NAME>
			<OUTCOME>STATE00</OUTCOME>
			<OUTCOME>STATE01</OUTCOME>
			<PROPERTY>position = (468, 279)</PROPERTY>
		</VARIABLE>
		<VARIABLE TYPE="nature">
			<NAME>NODE030</NAME>
			<OUTCOME>STATE00</OUTCOME>
			<OUTCOME>STATE01</OUTCOME>
			<PROPERTY>position = (1058, 798)</PROPERTY>
		</VARIABLE>
		<VARIABLE TYPE="nature">
			<NAME>NODE031</NAME>
			<OUTCOME>STATE00</OUTCOME>
			<OUTCOME>STATE01</OUTCOME>
			<PROPERTY>position = (952, 386)</PROPERTY>
		</VARIABLE>
		<VARIABLE TYPE="nature">
			<NAME>NODE032</NAME>
			<OUTCOME>STATE00</OUTCOME>
			<OUTCOME>STATE01</OUTCOME>
			<PROPERTY>position = (736, 701)</PROPERTY>
		</VARIABLE>
		<VARIABLE TYPE="nature">
			<NAME>NODE033</NAME>
			<OUTCOME>STATE00</OUTCOME>
			<OUTCOME>STATE01</OUTCOME>
			<PROPERTY>position = (930, 578)</PROPERTY>
		</VARIABLE>
		<VARIABLE TYPE="nature">
			<NAME>NODE034</NAME>
			<OUTCOME>STATE00</OUTCOME>
			<OUTCOME>STATE01</OUTCOME>
			<PROPERTY>position = (884, 179)</PROPERTY>
		</VARIABLE>
		<VARIABLE TYPE="nature">
			<NAME>NODE035</NAME>
			<OUTCOME>STATE00</OUTCOME>
			<OUTCOME>STATE01</OUTCOME>
			<PROPERTY>position = (708, 227)</PROPERTY>
		</VARIABLE>
		<VARIABLE TYPE="nature">
			<NAME>NODE036</NAME>
			<OUTCOME>STATE00</OUTCOME>
			<OUTCOME>STATE01</OUTCOME>
			<PROPERTY>position = (899, 812)</PROPERTY>
		</VARIABLE>
		<VARIABLE TYPE="nature">
			<NAME>NODE037</NAME>
			<OUTCOME>STATE00</OUTCOME>
			<OUTCOME>STATE01</OUTCOME>
			<PROPERTY>position = (1056, 236)</PROPERTY>
		</VARIABLE>
		<VARIABLE TYPE="nature">
			<NAME>NODE038</NAME>
			<OUTCOME>STATE00</OUTCOME>
			<OUTCOME>STATE01</OUTCOME>
			<PROPERTY>position = (733, 796)</PROPERTY>
		</VARIABLE>
		<VARIABLE TYPE="nature">
			<NAME>NODE039</NAME>
			<OUTCOME>STATE00</OUTCOME>
			<OUTCOME>STATE01</OUTCOME>
			<PROPERTY>position = (516, 463)</PROPERTY>
		</VARIABLE>
		<VARIABLE TYPE="nature">
			<NAME>NODE040</NAME>
			<OUTCOME>STATE00</OUTCOME>
			<OUTCOME>STATE01</OUTCOME>
			<PROPERTY>position = (70, 344)</PROPERTY>
		</VARIABLE>
		<VARIABLE TYPE="nature">
			<NAME>NODE041</NAME>
			<OUTCOME>STATE00</OUTCOME>
			<OUTCOME>STATE01</OUTCOME>
			<PROPERTY>position = (464, 784)</PROPERTY>
		</VARIABLE>
		<VARIABLE TYPE="nature">
			<NAME>NODE042</NAME>
			<OUTCOME>STATE00</OUTCOME>
			<OUTCOME>STATE01</OUTCOME>
			<PROPERTY>position = (562, 333)</PROPERTY>
		</VARIABLE>
		<VARIABLE TYPE="nature">
			<NAME>NODE043</NAME>
			<OUTCOME>STATE00</OUTCOME>
			<OUTCOME>STATE01</OUTCOME>
			<PROPERTY>position = (799, 791)</PROPERTY>
		</VARIABLE>
		<VARIABLE TYPE="nature">
			<NAME>NODE044</NAME>
			<OUTCOME>STATE00</OUTCOME>
			<OUTCOME>STATE01</OUTCOME>
			<PROPERTY>position = (1479, 209)</PROPERTY>
		</VARIABLE>
		<VARIABLE TYPE="nature">
			<NAME>NODE045</NAME>
			<OUTCOME>STATE00</OUTCOME>
			<OUTCOME>STATE01</OUTCOME>
			<PROPERTY>position = (1100, 602)</PROPERTY>
		</VARIABLE>
		<VARIABLE TYPE="nature">
			<NAME>NODE046</NAME>
			<OUTCOME>STATE00</OUTCOME>
			<OUTCOME>STATE01</OUTCOME>
			<PROPERTY>position = (979, 714)</PROPERTY>
		</VARIABLE>
		<VARIABLE TYPE="nature">
			<NAME>NODE047</NAME>
			<OUTCOME>STATE00</OUTCOME>
			<OUTCOME>STATE01</OUTCOME>
			<PROPERTY>position = (630, 84)</PROPERTY>
		</VARIABLE>
		<VARIABLE TYPE="nature">
			<NAME>NODE048</NAME>
			<OUTCOME>STATE00</OUTCOME>
			<OUTCOME>STATE01</OUTCOME>
			<PROPERTY>position = (489, 139)</PROPERTY>
		</VARIABLE>
		<VARIABLE TYPE="nature">
			<NAME>NODE049</NAME>
			<OUTCOME>STATE00</OUTCOME>
			<OUTCOME>STATE01</OUTCOME>
			<PROPERTY>position = (237, 567)</PROPERTY>
		</VARIABLE>
		<VARIABLE TYPE="nature">
			<NAME>NODE050</NAME>
			<OUTCOME>STATE00</OUTCOME>
			<OUTCOME>STATE01</OUTCOME>
			<PROPERTY>position = (755, 588)</PROPERTY>
		</VARIABLE>
		<VARIABLE TYPE="nature">
			<NAME>NODE051</NAME>
			<OUTCOME>STATE00</OUTCOME>
			<OUTCOME>STATE01</OUTCOME>
			<PROPERTY>position = (581, 166)</PROPERTY>
		</VARIABLE>
		<VARIABLE TYPE="nature">
			<NAME>NODE052</NAME>
			<OUTCOME>STATE00</OUTCOME>
			<OUTCOME>STATE01</OUTCOME>
			<PROPERTY>position = (1063, 75)</PROPERTY>
		</VARIABLE>
		<VARIABLE TYPE="nature">
			<NAME>NODE053</NAME>
			<OUTCOME>STATE00</OUTCOME>
			<OUTCOME>STATE01</OUTCOME>
			<PROPERTY>position = (911, 302)</PROPERTY>
		</VARIABLE>
		<!-- Probability Distributions -->
		<DEFINITION>
			<FOR>NODE000</FOR>
			<TABLE>0.230769 0.769231 </TABLE>
		</DEFINITION>
		<DEFINITION>
			<FOR>NODE001</FOR>
			<TABLE>0.375 0.625 </TABLE>
		</DEFINITION>
		<DEFINITION>
			<FOR>NODE002</FOR>
			<TABLE>0.588235 0.411765 </TABLE>
		</DEFINITION>
		<DEFINITION>
			<FOR>NODE003</FOR>
			<TABLE>0.428571 0.571429 </TABLE>
		</DEFINITION>
		<DEFINITION>
			<FOR>NODE004</FOR>
			<TABLE>0.166667 0.833333 </TABLE>
		</DEFINITION>
		<DEFINITION>
			<FOR>NODE005</FOR>
			<GIVEN>NODE002</GIVEN>
			<TABLE>0.454545 0.545455 0.363636 0.636364 </TABLE>
		</DEFINITION>
		<DEFINITION>
			<FOR>NODE006</FOR>
			<TABLE>0.5 0.5 </TABLE>
		</DEFINITION>
		<DEFINITION>
			<FOR>NODE007</FOR>
			<GIVEN>NODE020</GIVEN>
			<TABLE>0.625 0.375 0.583333 0.416667 </TABLE>
		</DEFINITION>
		<DEFINITION>
			<FOR>NODE008</FOR>
			<GIVEN>NODE002</GIVEN>
			<TABLE>0.666667 0.333333 0.571429 0.428571 </TABLE>
		</DEFINITION>
		<DEFINITION>
			<FOR>NODE009</FOR>
			<TABLE>0.7 0.3 </TABLE>
		</DEFINITION>
		<DEFINITION>
			<FOR>NODE010</FOR>
			<GIVEN>NODE020</GIVEN>
			<GIVEN>NODE003</GIVEN>
			<GIVEN>NODE005</GIVEN>
			<TABLE>0.625 0.375 0.75 0.25 0.625 0.375 0.166667 0.833333 0.555556 0.444444 0.545455 0.454545 0.5 0.5 0.428571 0.571429 </TABLE>
		</DEFINITION>
		<DEFINITION>
			<FOR>NODE011</FOR>
			<TABLE>0.727273 0.272727 </TABLE>
		</DEFINITION>
		<DEFINITION>
			<FOR>NODE012</FOR>
			<GIVEN>NODE020</GIVEN>
			<GIVEN>NODE007</GIVEN>
			<TABLE>0.727273 0.272727 0.461538 0.538462 0.777778 0.222222 0.4 0.6 </TABLE>
		</DEFINITION>
		<DEFINITION>
			<FOR>NODE013</FOR>
			<GIVEN>NODE020</GIVEN>
			<GIVEN>NODE001</GIVEN>
			<GIVEN>NODE008</GIVEN>
			<GIVEN>NODE011</GIVEN>
			<TABLE>0.333333 0.666667 0.333333 0.666667 0.428571 0.571429 0.6 0.4 0.75 0.25 0.666667 0.333333 0.411765 0.588235 0.583333 0.416667 0.8 0.2 0.545455 0.454545 0.333333 0.666667 0.375 0.625 0.571429 0.428571 0.285714 0.714286 0.555556 0.444444 0.461538 0.538462 </TABLE>
		</DEFINITION>
		<DEFINITION>
			<FOR>NODE014</FOR>
			<GIVEN>NODE008</GIVEN>
			<TABLE>0.5 0.5 0.571429 0.428571 </TABLE>
		</DEFINITION>
		<DEFINITION>
			<FOR>NODE015</FOR>
			<TABLE>0.5 0.5 </TABLE>
		</DEFINITION>
		<DEFINITION>
			<FOR>NODE016</FOR>
			<GIVEN>NODE020</GIVEN>
			<GIVEN>NODE005</GIVEN>
			<GIVEN>NODE013</GIVEN>
			<TABLE>0.833333 0.166667 0.454545 0.545455 0.625 0.375 0.25 0.75 0.727273 0.272727 0.588235 0.411765 0.4 0.6 0.5 0.5 </TABLE>
		</DEFINITION>
		<DEFINITION>
			<FOR>NODE017</FOR>
			<GIVEN>NODE008</GIVEN>
			<GIVEN>NODE012</GIVEN>
			<TABLE>0.529412 0.470588 0.5 0.5 0.538462 0.461538 0.5 0.5 </TABLE>
		</DEFINITION>
		<DEFINITION>
			<FOR>NODE018</FOR>
			<GIVEN>NODE002</GIVEN>
			<GIVEN>NODE007</GIVEN>
			<GIVEN>NODE011</GIVEN>
			<TABLE>0.555556 0.444444 0.6 0.4 0.571429 0.428571 0.833333 0.166667 0.777778 0.222222 0.357143 0.642857 0.285714 0.714286 0.642857 0.357143 </TABLE>
		</DEFINITION>
		<DEFINITION>
			<FOR>NODE019</FOR>
			<TABLE>0.714286 0.285714 </TABLE>
		</DEFINITION>
		<DEFINITION>
			<FOR>NODE020</FOR>
			<TABLE>0.375 0.625 </TABLE>
		</DEFINITION>
		<DEFINITION>
			<FOR>NODE021</FOR>
			<GIVEN>NODE008</GIVEN>
			<TABLE>0.461538 0.538462 0.25 0.75 </TABLE>
		</DEFINITION>
		<DEFINITION>
			<FOR>NODE022</FOR>
			<GIVEN>NODE013</GIVEN>
			<GIVEN>NODE018</GIVEN>
			<GIVEN>NODE019</GIVEN>
			<TABLE>0.666667 0.333333 0.25 0.75 0.625 0.375 0.357143 0.642857 0.5 0.5 0.3 0.7 0.526316 0.473684 0.6 0.4 </TABLE>
		</DEFINITION>
		<DEFINITION>
			<FOR>NODE023</FOR>
			<GIVEN>NODE020</GIVEN>
			<GIVEN>NODE013</GIVEN>
			<GIVEN>NODE018</GIVEN>
			<GIVEN>NODE021</GIVEN>
			<TABLE>0.533333 0.466667 0.4 0.6 0.666667 0.333333 0.333333 0.666667 0.588235 0.411765 0.363636 0.636364 0.470588 0.529412 0.5 0.5 0.636364 0.363636 0.4 0.6 0.636364 0.363636 0.428571 0.571429 0.5 0.5 0.714286 0.285714 0.272727 0.727273 0.357143 0.642857 </TABLE>
		</DEFINITION>
		<DEFINITION>
			<FOR>NODE024</FOR>
			<GIVEN>NODE004</GIVEN>
			<GIVEN>NODE012</GIVEN>
			<TABLE>0.357143 0.642857 0.461538 0.538462 0.272727 0.727273 0.411765 0.588235 </TABLE>
		</DEFINITION>
		<DEFINITION>
			<FOR>NODE025</FOR>
			<GIVEN>NODE003</GIVEN>
			<GIVEN>NODE018</GIVEN>
			<TABLE>0.307692 0.692308 0.470588 0.529412 0.333333 0.666667 0.333333 0.666667 </TABLE>
		</DEFINITION>
		<DEFINITION>
			<FOR>NODE026</FOR>
			<TABLE>0.454545 0.545455 </TABLE>
		</DEFINITION>
		<DEFINITION>
			<FOR>NODE027</FOR>
			<GIVEN>NODE005</GIVEN>
			<GIVEN>NODE015</GIVEN>
			<TABLE>0.8 0.2 0.444444 0.555556 0.6 0.4 0.666667 0.333333 </TABLE>
		</DEFINITION>
		<DEFINITION>
			<FOR>NODE028</FOR>
			<GIVEN>NODE022</GIVEN>
			<TABLE>0.461538 0.538462 0.272727 0.727273 </TABLE>
		</DEFINITION>
		<DEFINITION>
			<FOR>NODE029</FOR>
			<GIVEN>NODE009</GIVEN>
			<GIVEN>NODE013</GIVEN>
			<GIVEN>NODE018</GIVEN>
			<TABLE>0.357143 0.642857 0.363636 0.636364 0.166667 0.833333 0.777778 0.222222 0.473684 0.526316 0.538462 0.461538 0.5 0.5 0.470588 0.529412 </TABLE>
		</DEFINITION>
		<DEFINITION>
			<FOR>NODE030</FOR>
			<GIVEN>NODE017</GIVEN>
			<GIVEN>NODE026</GIVEN>
			<TABLE>0.666667 0.333333 0.444444 0.555556 0.5 0.5 0.416667 0.583333 </TABLE>
		</DEFINITION>
		<DEFINITION>
			<FOR>NODE031</FOR>
			<GIVEN>NODE010</GIVEN>
			<GIVEN>NODE013</GIVEN>
			<GIVEN>NODE000</GIVEN>
			<TABLE>0.526316 0.473684 0.571429 0.428571 0.5625 0.4375 0.230769 0.769231 0.333333 0.666667 0.75 0.25 0.333333 0.666667 0.6 0.4 </TABLE>
		</DEFINITION>
		<DEFINITION>
			<FOR>NODE032</FOR>
			<GIVEN>NODE005</GIVEN>
			<GIVEN>NODE018</GIVEN>
			<TABLE>0.285714 0.714286 0.625 0.375 0.4 0.6 0.727273 0.272727 </TABLE>
		</DEFINITION>
		<DEFINITION>
			<FOR>NODE033</FOR>
			<GIVEN>NODE003</GIVEN>
			<GIVEN>NODE004</GIVEN>
			<GIVEN>NODE030</GIVEN>
			<GIVEN>NODE031</GIVEN>
			<GIVEN>NODE032</GIVEN>
			<TABLE>0.166667 0.833333 0.666667 0.333333 0.692308 0.307692 0.538462 0.461538 0.5 0.5 0.25 0.75 0.4375 0.5625 0.473684 0.526316 0.769231 0.230769 0.4 0.6 0.555556 0.444444 0.272727 0.727273 0.473684 0.526316 0.818182 0.181818 0.75 0.25 0.416667 0.583333 0.588235 0.411765 0.769231 0.230769 0.5 0.5 0.473684 0.526316 0.833333 0.166667 0.444444 0.555556 0.6 0.4 0.529412 0.470588 0.727273 0.272727 0.615385 0.384615 0.444444 0.555556 0.4 0.6 0.642857 0.357143 0.2 0.8 0.333333 0.666667 0.4375 0.5625 </TABLE>
		</DEFINITION>
		<DEFINITION>
			<FOR>NODE034</FOR>
			<GIVEN>NODE012</GIVEN>
			<GIVEN>NODE023</GIVEN>
			<TABLE>0.692308 0.307692 0.529412 0.470588 0.4375 0.5625 0.666667 0.333333 </TABLE>
		</DEFINITION>
		<DEFINITION>
			<FOR>NODE035</FOR>
			<GIVEN>NODE004</GIVEN>
			<GIVEN>NODE018</GIVEN>
			<GIVEN>NODE034</GIVEN>
			<TABLE>0.411765 0.588235 0.5 0.5 0.769231 0.230769 0.692308 0.307692 0.625 0.375 0.6 0.4 0.833333 0.166667 0.571429 0.428571 </TABLE>
		</DEFINITION>
		<DEFINITION>
			<FOR>NODE036</FOR>
			<GIVEN>NODE008</GIVEN>
			<GIVEN>NODE014</GIVEN>
			<GIVEN>NODE030</GIVEN>
			<TABLE>0.666667 0.333333 0.555556 0.444444 0.363636 0.636364 0.833333 0.166667 0.4 0.6 0.818182 0.181818 0.692308 0.307692 0.692308 0.307692 </TABLE>
		</DEFINITION>
		<DEFINITION>
			<FOR>NODE037</FOR>
			<GIVEN>NODE002</GIVEN>
			<GIVEN>NODE006</GIVEN>
			<GIVEN>NODE000</GIVEN>
			<GIVEN>NODE034</GIVEN>
			<TABLE>0.833333 0.166667 0.25 0.75 0.5 0.5 0.5 0.5 0.526316 0.473684 0.5 0.5 0.428571 0.571429 0.5 0.5 0.444444 0.555556 0.666667 0.333333 0.636364 0.363636 0.384615 0.615385 0.222222 0.777778 0.411765 0.588235 0.526316 0.473684 0.583333 0.416667 </TABLE>
		</DEFINITION>
		<DEFINITION>
			<FOR>NODE038</FOR>
			<GIVEN>NODE018</GIVEN>
			<GIVEN>NODE026</GIVEN>
			<TABLE>0.666667 0.333333 0.3 0.7 0.529412 0.470588 0.473684 0.526316 </TABLE>
		</DEFINITION>
		<DEFINITION>
			<FOR>NODE039</FOR>
			<GIVEN>NODE001</GIVEN>
			<GIVEN>NODE002</GIVEN>
			<GIVEN>NODE005</GIVEN>
			<GIVEN>NODE013</GIVEN>
			<TABLE>0.444444 0.555556 0.583333 0.416667 0.5 0.5 0.571429 0.428571 0.4 0.6 0.5 0.5 0.333333 0.666667 0.666667 0.333333 0.473684 0.526316 0.5 0.5 0.545455 0.454545 0.454545 0.545455 0.5 0.5 0.466667 0.533333 0.777778 0.222222 0.222222 0.777778 </TABLE>
		</DEFINITION>
		<DEFINITION>
			<FOR>NODE040</FOR>
			<GIVEN>NODE001</GIVEN>
			<GIVEN>NODE019</GIVEN>
			<TABLE>0.25 0.75 0.285714 0.714286 0.583333 0.416667 0.571429 0.428571 </TABLE>
		</DEFINITION>
		<DEFINITION>
			<FOR>NODE041</FOR>
			<GIVEN>NODE021</GIVEN>
			<GIVEN>NODE025</GIVEN>
			<TABLE>0.473684 0.526316 0.555556 0.444444 0.411765 0.588235 0.714286 0.285714 </TABLE>
		</DEFINITION>
		<DEFINITION>
			<FOR>NODE042</FOR>
			<GIVEN>NODE010</GIVEN>
			<GIVEN>NODE016</GIVEN>
			<GIVEN>NODE021</GIVEN>
			<TABLE>0.285714 0.714286 0.461538 0.538462 0.307692 0.692308 0.3 0.7 0.333333 0.666667 0.714286 0.285714 0.588235 0.411765 0.588235 0.411765 </TABLE>
		</DEFINITION>
		<DEFINITION>
			<FOR>NODE043</FOR>
			<GIVEN>NODE003</GIVEN>
			<GIVEN>NODE005</GIVEN>
			<GIVEN>NODE007</GIVEN>
			<GIVEN>NODE026</GIVEN>
			<TABLE>0.470588 0.529412 0.466667 0.533333 0.7 0.3 0.555556 0.444444 0.444444 0.555556 0.666667 0.333333 0.466667 0.533333 0.466667 0.533333 0.2 0.8 0.588235 0.411765 0.166667 0.833333 0.333333 0.666667 0.526316 0.473684 0.5625 0.4375 0.333333 0.666667 0.7 0.3 </TABLE>
		</DEFINITION>
		<DEFINITION>
			<FOR>NODE044</FOR>
			<GIVEN>NODE000</GIVEN>
			<TABLE>0.5 0.5 0.625 0.375 </TABLE>
		</DEFINITION>
		<DEFINITION>
			<FOR>NODE045</FOR>
			<GIVEN>NODE003</GIVEN>
			<GIVEN>NODE011</GIVEN>
			<TABLE>0.5 0.5 0.333333 0.666667 0.625 0.375 0.692308 0.307692 </TABLE>
		</DEFINITION>
		<DEFINITION>
			<FOR>NODE046</FOR>
			<GIVEN>NODE007</GIVEN>
			<TABLE>0.470588 0.529412 0.4 0.6 </TABLE>
		</DEFINITION>
		<DEFINITION>
			<FOR>NODE047</FOR>
			<GIVEN>NODE024</GIVEN>
			<GIVEN>NODE035</GIVEN>
			<GIVEN>NODE042</GIVEN>
			<TABLE>0.230769 0.769231 0.454545 0.545455 0.571429 0.428571 0.777778 0.222222 0.466667 0.533333 0.25 0.75 0.384615 0.615385 0.571429 0.428571 </TABLE>
		</DEFINITION>
		<DEFINITION>
			<FOR>NODE048</FOR>
			<GIVEN>NODE013</GIVEN>
			<GIVEN>NODE047</GIVEN>
			<TABLE>0.285714 0.714286 0.714286 0.285714 0.5 0.5 0.5 0.5 </TABLE>
		</DEFINITION>
		<DEFINITION>
			<FOR>NODE049</FOR>
			<GIVEN>NODE016</GIVEN>
			<GIVEN>NODE022</GIVEN>
			<TABLE>0.8 0.2 0.5 0.5 0.333333 0.666667 0.25 0.75 </TABLE>
		</DEFINITION>
		<DEFINITION>
			<FOR>NODE050</FOR>
			<GIVEN>NODE004</GIVEN>
			<GIVEN>NODE021</GIVEN>
			<GIVEN>NODE022</GIVEN>
			<GIVEN>NODE025</GIVEN>
			<GIVEN>NODE033</GIVEN>
			<GIVEN>NODE036</GIVEN>
			<GIVEN>NODE038</GIVEN>
			<GIVEN>NODE043</GIVEN>
			<GIVEN>NODE046</GIVEN>
			<TABLE>0.25 0.75 0.307692 0.692308 0.5 0.5 0.666667 0.333333 0.818182 0.181818 0.5 0.5 0.625 0.375 0.615385 0.384615 0.5 0.5 0.285714 0.714286 0.230769 0.769231 0.692308 0.307692 0.333333 0.666667 0.625 0.375 0.4375 0.5625 0.625 0.375 0.272727 0.727273 0.636364 0.363636 0.181818 0.818182 0.5 0.5 0.5 0.5 0.5 0.5 0.818182 0.181818 0.4375 0.5625 0.5 0.5 0.75 0.25 0.375 0.625 0.625 0.375 0.7 0.3 0.466667 0.533333 0.411765 0.588235 0.666667 0.333333 0.75 0.25 0.285714 0.714286 0.25 0.75 0.571429 0.428571 0.555556 0.444444 0.428571 0.571429 0.5 0.5 0.666667 0.333333 0.571429 0.428571 0.222222 0.777778 0.615385 0.384615 0.461538 0.538462 0.25 0.75 0.666667 0.333333 0.2 0.8 0.384615 0.615385 0.3 0.7 0.466667 0.533333 0.625 0.375 0.5625 0.4375 0.583333 0.416667 0.5 0.5 0.727273 0.272727 0.571429 0.428571 0.25 0.75 0.333333 0.666667 0.5 0.5 0.545455 0.454545 0.333333 0.666667 0.666667 0.333333 0.461538 0.538462 0.181818 0.818182 0.714286 0.285714 0.666667 0.333333 0.470588 0.529412 0.5 0.5 0.470588 0.529412 0.5 0.5 0.416667 0.583333 0.625 0.375 0.625 0.375 0.692308 0.307692 0.5 0.5 0.666667 0.333333 0.714286 0.285714 0.6 0.4 0.461538 0.538462 0.5 0.5 0.5 0.5 0.181818 0.818182 0.75 0.25 0.357143 0.642857 0.4 0.6 0.625 0.375 0.25 0.75 0.461538 0.538462 0.25 0.75 0.333333 0.666667 0.272727 0.727273 0.428571 0.571429 0.166667 0.833333 0.6 0.4 0.75 0.25 0.583333 0.416667 0.769231 0.230769 0.769231 0.230769 0.545455 0.454545 0.470588 0.529412 0.454545 0.545455 0.555556 0.444444 0.714286 0.285714 0.384615 0.615385 0.428571 0.571429 0.636364 0.363636 0.583333 0.416667 0.384615 0.615385 0.357143 0.642857 0.571429 0.428571 0.642857 0.357143 0.636364 0.363636 0.714286 0.285714 0.230769 0.769231 0.333333 0.666667 0.428571 0.571429 0.533333 0.466667 0.625 0.375 0.444444 0.555556 0.357143 0.642857 0.555556 0.444444 0.5 0.5 0.333333 0.666667 0.384615 0.615385 0.6 0.4 0.333333 0.666667 0.7 0.3 0.5 0.5 0.545455 0.454545 0.8 0.2 0.625 0.375 0.25 0.75 0.5 0.5 0.5 0.5 0.5 0.5 0.666667 0.333333 0.666667 0.333333 0.692308 0.307692 0.4 0.6 0.692308 0.307692 0.666667 0.333333 0.555556 0.444444 0.666667 0.333333 0.222222 0.777778 0.5625 0.4375 0.5 0.5 0.666667 0.333333 0.230769 0.769231 0.555556 0.444444 0.307692 0.692308 0.8 0.2 0.4 0.6 0.666667 0.333333 0.285714 0.714286 0.5 0.5 0.444444 0.555556 0.555556 0.444444 0.272727 0.727273 0.6 0.4 0.428571 0.571429 0.4 0.6 0.526316 0.473684 0.333333 0.666667 0.75 0.25 0.636364 0.363636 0.333333 0.666667 0.75 0.25 0.5 0.5 0.818182 0.181818 0.375 0.625 0.333333 0.666667 0.625 0.375 0.583333 0.416667 0.230769 0.769231 0.769231 0.230769 0.8 0.2 0.636364 0.363636 0.384615 0.615385 0.5625 0.4375 0.727273 0.272727 0.25 0.75 0.6 0.4 0.538462 0.461538 0.75 0.25 0.428571 0.571429 0.3 0.7 0.555556 0.444444 0.692308 0.307692 0.230769 0.769231 0.333333 0.666667 0.454545 0.545455 0.666667 0.333333 0.583333 0.416667 0.454545 0.545455 0.5625 0.4375 0.666667 0.333333 0.5 0.5 0.25 0.75 0.625 0.375 0.588235 0.411765 0.818182 0.181818 0.5 0.5 0.25 0.75 0.636364 0.363636 0.181818 0.818182 0.333333 0.666667 0.411765 0.588235 0.5 0.5 0.428571 0.571429 0.230769 0.769231 0.333333 0.666667 0.5625 0.4375 0.666667 0.333333 0.6 0.4 0.333333 0.666667 0.5 0.5 0.333333 0.666667 0.714286 0.285714 0.333333 0.666667 0.714286 0.285714 0.454545 0.545455 0.181818 0.818182 0.4 0.6 0.75 0.25 0.636364 0.363636 0.3 0.7 0.222222 0.777778 0.2 0.8 0.777778 0.222222 0.5 0.5 0.384615 0.615385 0.411765 0.588235 0.818182 0.181818 0.357143 0.642857 0.588235 0.411765 0.285714 0.714286 0.5625 0.4375 0.529412 0.470588 0.466667 0.533333 0.454545 0.545455 0.8 0.2 0.571429 0.428571 0.25 0.75 0.5 0.5 0.4 0.6 0.444444 0.555556 0.6 0.4 0.5 0.5 0.2 0.8 0.642857 0.357143 0.666667 0.333333 0.6 0.4 0.25 0.75 0.5 0.5 0.6 0.4 0.3 0.7 0.363636 0.636364 0.727273 0.272727 0.25 0.75 0.5 0.5 0.666667 0.333333 0.615385 0.384615 0.642857 0.357143 0.473684 0.526316 0.4375 0.5625 0.545455 0.454545 0.411765 0.588235 0.466667 0.533333 0.666667 0.333333 0.333333 0.666667 0.5625 0.4375 0.7 0.3 0.5 0.5 0.473684 0.526316 0.357143 0.642857 0.571429 0.428571 0.416667 0.583333 0.555556 0.444444 0.833333 0.166667 0.727273 0.272727 0.181818 0.818182 0.75 0.25 0.2 0.8 0.470588 0.529412 0.583333 0.416667 0.625 0.375 0.8 0.2 0.4 0.6 0.4375 0.5625 0.4 0.6 0.444444 0.555556 0.454545 0.545455 0.181818 0.818182 0.615385 0.384615 0.533333 0.466667 0.428571 0.571429 0.625 0.375 0.777778 0.222222 0.333333 0.666667 0.588235 0.411765 0.285714 0.714286 0.5 0.5 0.636364 0.363636 0.428571 0.571429 0.727273 0.272727 0.5 0.5 0.285714 0.714286 0.818182 0.181818 0.25 0.75 0.555556 0.444444 0.181818 0.818182 0.727273 0.272727 0.529412 0.470588 0.625 0.375 0.555556 0.444444 0.777778 0.222222 0.714286 0.285714 0.727273 0.272727 0.3 0.7 0.411765 0.588235 0.222222 0.777778 0.8 0.2 0.642857 0.357143 0.769231 0.230769 0.5625 0.4375 0.6 0.4 0.4 0.6 0.6 0.4 0.461538 0.538462 0.5 0.5 0.461538 0.538462 0.75 0.25 0.307692 0.692308 0.444444 0.555556 0.4 0.6 0.666667 0.333333 0.727273 0.272727 0.25 0.75 0.666667 0.333333 0.5 0.5 0.473684 0.526316 0.727273 0.272727 0.444444 0.555556 0.428571 0.571429 0.285714 0.714286 0.5 0.5 0.470588 0.529412 0.5 0.5 0.363636 0.636364 0.428571 0.571429 0.615385 0.384615 0.5 0.5 0.555556 0.444444 0.5 0.5 0.25 0.75 0.642857 0.357143 0.4 0.6 0.411765 0.588235 0.25 0.75 0.7 0.3 0.5 0.5 0.416667 0.583333 0.692308 0.307692 0.5 0.5 0.357143 0.642857 0.75 0.25 0.181818 0.818182 0.166667 0.833333 0.25 0.75 0.714286 0.285714 0.769231 0.230769 0.666667 0.333333 0.714286 0.285714 0.333333 0.666667 0.285714 0.714286 0.75 0.25 0.166667 0.833333 0.5 0.5 0.466667 0.533333 0.714286 0.285714 0.545455 0.454545 0.166667 0.833333 0.428571 0.571429 0.75 0.25 0.307692 0.692308 0.428571 0.571429 0.818182 0.181818 0.375 0.625 0.625 0.375 0.25 0.75 0.7 0.3 0.3 0.7 0.625 0.375 0.642857 0.357143 0.428571 0.571429 0.5 0.5 0.777778 0.222222 0.444444 0.555556 0.333333 0.666667 0.428571 0.571429 0.307692 0.692308 0.333333 0.666667 0.166667 0.833333 0.571429 0.428571 0.333333 0.666667 0.5 0.5 0.538462 0.461538 0.25 0.75 0.416667 0.583333 0.5 0.5 0.5 0.5 0.625 0.375 0.473684 0.526316 0.375 0.625 0.470588 0.529412 0.454545 0.545455 0.5 0.5 0.333333 0.666667 0.5 0.5 0.363636 0.636364 0.6 0.4 0.166667 0.833333 0.769231 0.230769 0.588235 0.411765 0.642857 0.357143 0.636364 0.363636 0.833333 0.166667 0.166667 0.833333 0.470588 0.529412 0.7 0.3 0.7 0.3 0.666667 0.333333 0.714286 0.285714 0.384615 0.615385 0.5 0.5 0.777778 0.222222 0.454545 0.545455 0.5 0.5 0.181818 0.818182 0.526316 0.473684 0.7 0.3 0.777778 0.222222 0.529412 0.470588 0.714286 0.285714 0.428571 0.571429 0.5 0.5 0.588235 0.411765 0.571429 0.428571 0.75 0.25 0.5 0.5 0.666667 0.333333 0.363636 0.636364 0.571429 0.428571 0.454545 0.545455 0.444444 0.555556 0.25 0.75 0.363636 0.636364 0.272727 0.727273 0.333333 0.666667 0.615385 0.384615 0.615385 0.384615 0.333333 0.666667 0.583333 0.416667 0.166667 0.833333 0.428571 0.571429 0.4 0.6 0.454545 0.545455 0.5 0.5 0.714286 0.285714 0.5 0.5 0.8 0.2 0.5 0.5 0.5 0.5 0.3 0.7 0.454545 0.545455 0.416667 0.583333 0.615385 0.384615 0.6 0.4 0.357143 0.642857 0.454545 0.545455 0.230769 0.769231 0.428571 0.571429 0.5 0.5 0.5625 0.4375 0.555556 0.444444 0.571429 0.428571 0.75 0.25 0.166667 0.833333 0.285714 0.714286 0.4 0.6 0.461538 0.538462 0.333333 0.666667 0.555556 0.444444 0.416667 0.583333 0.466667 0.533333 0.333333 0.666667 0.444444 0.555556 0.375 0.625 0.642857 0.357143 0.727273 0.272727 0.470588 0.529412 0.363636 0.636364 0.714286 0.285714 0.666667 0.333333 0.411765 0.588235 0.25 0.75 0.4375 0.5625 0.5 0.5 0.4 0.6 0.4 0.6 0.428571 0.571429 0.222222 0.777778 </TABLE>
		</DEFINITION>
		<DEFINITION>
			<FOR>NODE051</FOR>
			<GIVEN>NODE004</GIVEN>
			<GIVEN>NODE009</GIVEN>
			<GIVEN>NODE013</GIVEN>
			<TABLE>0.666667 0.333333 0.2 0.8 0.5 0.5 0.5 0.5 0.666667 0.333333 0.714286 0.285714 0.470588 0.529412 0.533333 0.466667 </TABLE>
		</DEFINITION>
		<DEFINITION>
			<FOR>NODE052</FOR>
			<TABLE>0.526316 0.473684 </TABLE>
		</DEFINITION>
		<DEFINITION>
			<FOR>NODE053</FOR>
			<GIVEN>NODE002</GIVEN>
			<GIVEN>NODE011</GIVEN>
			<GIVEN>NODE024</GIVEN>
			<GIVEN>NODE050</GIVEN>
			<GIVEN>NODE052</GIVEN>
			<TABLE>0.333333 0.666667 0.818182 0.181818 0.526316 0.473684 0.375 0.625 0.625 0.375 0.444444 0.555556 0.473684 0.526316 0.533333 0.466667 0.5 0.5 0.5 0.5 0.363636 0.636364 0.3 0.7 0.25 0.75 0.5625 0.4375 0.571429 0.428571 0.642857 0.357143 0.666667 0.333333 0.363636 0.636364 0.384615 0.615385 0.6 0.4 0.818182 0.181818 0.428571 0.571429 0.625 0.375 0.5625 0.4375 0.583333 0.416667 0.529412 0.470588 0.529412 0.470588 0.545455 0.454545 0.333333 0.666667 0.230769 0.769231 0.5 0.5 0.230769 0.769231 </TABLE>
		</DEFINITION>
	</NETWORK>
</BIF>
